{"learner":{"attributes":{"best_iteration":"96","best_score":"1.994242314966e-05","scikit_learn":"{\"_estimator_type\": \"regressor\"}"},"feature_names":[],"feature_types":[],"gradient_booster":{"model":{"gbtree_model_param":{"num_parallel_tree":"1","num_trees":"107"},"iteration_indptr":[0,1,2,3,4,5,6,7,8,9,10,11,12,13,14,15,16,17,18,19,20,21,22,23,24,25,26,27,28,29,30,31,32,33,34,35,36,37,38,39,40,41,42,43,44,45,46,47,48,49,50,51,52,53,54,55,56,57,58,59,60,61,62,63,64,65,66,67,68,69,70,71,72,73,74,75,76,77,78,79,80,81,82,83,84,85,86,87,88,89,90,91,92,93,94,95,96,97,98,99,100,101,102,103,104,105,106,107],"tree_info":[0,0,0,0,0,0,0,0,0,0,0,0,0,0,0,0,0,0,0,0,0,0,0,0,0,0,0,0,0,0,0,0,0,0,0,0,0,0,0,0,0,0,0,0,0,0,0,0,0,0,0,0,0,0,0,0,0,0,0,0,0,0,0,0,0,0,0,0,0,0,0,0,0,0,0,0,0,0,0,0,0,0,0,0,0,0,0,0,0,0,0,0,0,0,0,0,0,0,0,0,0,0,0,0,0,0,0],"trees":[{"base_weights":[-7.165586E-9,-3.372629E-2,9.17629E-1,6.5791614E-2,1.920554E0,1.6067033E-1,2.6019153E-1],"categories":[],"categories_nodes":[],"categories_segments":[],"categories_sizes":[],"default_left":[0,0,0,0,0,0,0],"id":0,"left_children":[1,-1,3,-1,5,-1,-1],"loss_changes":[2.2685046E2,0E0,5.0049545E1,0E0,4.373337E0,0E0,0E0],"parents":[2147483647,0,0,2,2,4,4],"right_children":[2,-1,4,-1,6,-1,-1],"split_conditions":[2.5E-1,-3.372629E-2,5E-1,6.5791614E-2,7.5E-1,1.6067033E-1,2.6019153E-1],"split_indices":[0,0,0,0,0,0,0],"split_type":[0,0,0,0,0,0,0],"sum_hessian":[7.31E2,5.35E2,1.96E2,1.57E2,3.9E1,2.9E1,1E1],"tree_param":{"num_deleted":"0","num_feature":"5","num_nodes":"7","size_leaf_vector":"1"}},{"base_weights":[6.1873114E-4,-3.0359957E-2,8.283364E-1,5.925409E-2,1.7390201E0,1.4513884E-1,2.3653774E-1],"categories":[],"categories_nodes":[],"categories_segments":[],"categories_sizes":[],"default_left":[0,0,0,0,0,0,0],"id":1,"left_children":[1,-1,3,-1,5,-1,-1],"loss_changes":[1.8457413E2,0E0,4.1272354E1,0E0,3.7733307E0,0E0,0E0],"parents":[2147483647,0,0,2,2,4,4],"right_children":[2,-1,4,-1,6,-1,-1],"split_conditions":[2.5E-1,-3.0359957E-2,5E-1,5.925409E-2,7.5E-1,1.4513884E-1,2.3653774E-1],"split_indices":[0,0,0,0,0,0,0],"split_type":[0,0,0,0,0,0,0],"sum_hessian":[7.31E2,5.35E2,1.96E2,1.57E2,3.9E1,2.9E1,1E1],"tree_param":{"num_deleted":"0","num_feature":"5","num_nodes":"7","size_leaf_vector":"1"}},{"base_weights":[1.1177422E-3,-2.7329624E-2,7.47741E-1,5.3366184E-2,1.5746601E0,1.3110876E-1,2.1503432E-1],"categories":[],"categories_nodes":[],"categories_segments":[],"categories_sizes":[],"default_left":[0,0,0,0,0,0,0],"id":2,"left_children":[1,-1,3,-1,5,-1,-1],"loss_changes":[1.5017934E2,0E0,3.4033813E1,0E0,3.250084E0,0E0,0E0],"parents":[2147483647,0,0,2,2,4,4],"right_children":[2,-1,4,-1,6,-1,-1],"split_conditions":[2.5E-1,-2.7329624E-2,5E-1,5.3366184E-2,7.5E-1,1.3110876E-1,2.1503432E-1],"split_indices":[0,0,0,0,0,0,0],"split_type":[0,0,0,0,0,0,0],"sum_hessian":[7.31E2,5.35E2,1.96E2,1.57E2,3.9E1,2.9E1,1E1],"tree_param":{"num_deleted":"0","num_feature":"5","num_nodes":"7","size_leaf_vector":"1"}},{"base_weights":[1.5144105E-3,-2.4601761E-2,6.749949E-1,4.8063345E-2,1.4258476E0,1.18434906E-1,1.9548574E-1],"categories":[],"categories_nodes":[],"categories_segments":[],"categories_sizes":[],"default_left":[0,0,0,0,0,0,0],"id":3,"left_children":[1,-1,3,-1,5,-1,-1],"loss_changes":[1.22196304E2,0E0,2.806424E1,0E0,2.7949677E0,0E0,0E0],"parents":[2147483647,0,0,2,2,4,4],"right_children":[2,-1,4,-1,6,-1,-1],"split_conditions":[2.5E-1,-2.4601761E-2,5E-1,4.8063345E-2,7.5E-1,1.18434906E-1,1.9548574E-1],"split_indices":[0,0,0,0,0,0,0],"split_type":[0,0,0,0,0,0,0],"sum_hessian":[7.31E2,5.35E2,1.96E2,1.57E2,3.9E1,2.9E1,1E1],"tree_param":{"num_deleted":"0","num_feature":"5","num_nodes":"7","size_leaf_vector":"1"}},{"base_weights":[1.8238737E-3,-2.2146175E-2,6.0933286E-1,4.328743E-2,1.2911109E0,1.069862E-1,1.7771432E-1],"categories":[],"categories_nodes":[],"categories_segments":[],"categories_sizes":[],"default_left":[0,0,0,0,0,0,0],"id":4,"left_children":[1,-1,3,-1,5,-1,-1],"loss_changes":[9.94293E1,0E0,2.3141312E1,0E0,2.4000626E0,0E0,0E0],"parents":[2147483647,0,0,2,2,4,4],"right_children":[2,-1,4,-1,6,-1,-1],"split_conditions":[2.5E-1,-2.2146175E-2,5E-1,4.328743E-2,7.5E-1,1.069862E-1,1.7771432E-1],"split_indices":[0,0,0,0,0,0,0],"split_type":[0,0,0,0,0,0,0],"sum_hessian":[7.31E2,5.35E2,1.96E2,1.57E2,3.9E1,2.9E1,1E1],"tree_param":{"num_deleted":"0","num_feature":"5","num_nodes":"7","size_leaf_vector":"1"}},{"base_weights":[2.059302E-3,-1.9935688E-2,5.5006444E-1,3.8986083E-2,1.1691173E0,9.664421E-2,1.6155846E-1],"categories":[],"categories_nodes":[],"categories_segments":[],"categories_sizes":[],"default_left":[0,0,0,0,0,0,0],"id":5,"left_children":[1,-1,3,-1,5,-1,-1],"loss_changes":[8.09057E1,0E0,1.9081596E1,0E0,2.0581474E0,0E0,0E0],"parents":[2147483647,0,0,2,2,4,4],"right_children":[2,-1,4,-1,6,-1,-1],"split_conditions":[2.5E-1,-1.9935688E-2,5E-1,3.8986083E-2,7.5E-1,9.664421E-2,1.6155846E-1],"split_indices":[0,0,0,0,0,0,0],"split_type":[0,0,0,0,0,0,0],"sum_hessian":[7.31E2,5.35E2,1.96E2,1.57E2,3.9E1,2.9E1,1E1],"tree_param":{"num_deleted":"0","num_feature":"5","num_nodes":"7","size_leaf_vector":"1"}},{"base_weights":[2.2321278E-3,-1.794584E-2,4.965666E-1,3.5112146E-2,1.0586606E0,8.730194E-2,1.4687133E-1],"categories":[],"categories_nodes":[],"categories_segments":[],"categories_sizes":[],"default_left":[0,0,0,0,0,0,0],"id":6,"left_children":[1,-1,3,-1,5,-1,-1],"loss_changes":[6.583435E1,0E0,1.5733788E1,0E0,1.7626915E0,0E0,0E0],"parents":[2147483647,0,0,2,2,4,4],"right_children":[2,-1,4,-1,6,-1,-1],"split_conditions":[2.5E-1,-1.794584E-2,5E-1,3.5112146E-2,7.5E-1,8.730194E-2,1.4687133E-1],"split_indices":[0,0,0,0,0,0,0],"split_type":[0,0,0,0,0,0,0],"sum_hessian":[7.31E2,5.35E2,1.96E2,1.57E2,3.9E1,2.9E1,1E1],"tree_param":{"num_deleted":"0","num_feature":"5","num_nodes":"7","size_leaf_vector":"1"}},{"base_weights":[2.3522757E-3,-1.6154604E-2,4.4827688E-1,3.1623155E-2,9.586489E-1,7.886275E-2,1.335194E-1],"categories":[],"categories_nodes":[],"categories_segments":[],"categories_sizes":[],"default_left":[0,0,0,0,0,0,0],"id":7,"left_children":[1,-1,3,-1,5,-1,-1],"loss_changes":[5.357158E1,0E0,1.297311E1,0E0,1.5078583E0,0E0,0E0],"parents":[2147483647,0,0,2,2,4,4],"right_children":[2,-1,4,-1,6,-1,-1],"split_conditions":[2.5E-1,-1.6154604E-2,5E-1,3.1623155E-2,7.5E-1,7.886275E-2,1.335194E-1],"split_indices":[0,0,0,0,0,0,0],"split_type":[0,0,0,0,0,0,0],"sum_hessian":[7.31E2,5.35E2,1.96E2,1.57E2,3.9E1,2.9E1,1E1],"tree_param":{"num_deleted":"0","num_feature":"5","num_nodes":"7","size_leaf_vector":"1"}},{"base_weights":[2.4283228E-3,-1.4542158E-2,4.046878E-1,2.8480858E-2,8.6809355E-1,7.1239345E-2,1.2138126E-1],"categories":[],"categories_nodes":[],"categories_segments":[],"categories_sizes":[],"default_left":[0,0,0,0,0,0,0],"id":8,"left_children":[1,-1,3,-1,5,-1,-1],"loss_changes":[4.3593834E1,0E0,1.0696648E1,0E0,1.2884274E0,0E0,0E0],"parents":[2147483647,0,0,2,2,4,4],"right_children":[2,-1,4,-1,6,-1,-1],"split_conditions":[2.5E-1,-1.4542158E-2,5E-1,2.8480858E-2,7.5E-1,7.1239345E-2,1.2138126E-1],"split_indices":[0,0,0,0,0,0,0],"split_type":[0,0,0,0,0,0,0],"sum_hessian":[7.31E2,5.35E2,1.96E2,1.57E2,3.9E1,2.9E1,1E1],"tree_param":{"num_deleted":"0","num_feature":"5","num_nodes":"7","size_leaf_vector":"1"}},{"base_weights":[2.4676719E-3,-1.3090654E-2,3.6534134E-1,2.5650794E-2,7.860997E-1,6.435288E-2,1.1034659E-1],"categories":[],"categories_nodes":[],"categories_segments":[],"categories_sizes":[],"default_left":[0,0,0,0,0,0,0],"id":9,"left_children":[1,-1,3,-1,5,-1,-1],"loss_changes":[3.5475155E1,0E0,8.819494E0,0E0,1.0997772E0,0E0,0E0],"parents":[2147483647,0,0,2,2,4,4],"right_children":[2,-1,4,-1,6,-1,-1],"split_conditions":[2.5E-1,-1.3090654E-2,5E-1,2.5650794E-2,7.5E-1,6.435288E-2,1.1034659E-1],"split_indices":[0,0,0,0,0,0,0],"split_type":[0,0,0,0,0,0,0],"sum_hessian":[7.31E2,5.35E2,1.96E2,1.57E2,3.9E1,2.9E1,1E1],"tree_param":{"num_deleted":"0","num_feature":"5","num_nodes":"7","size_leaf_vector":"1"}},{"base_weights":[2.476724E-3,-1.1784031E-2,3.298242E-1,2.310195E-2,7.118572E-1,5.8132093E-2,1.00315094E-1],"categories":[],"categories_nodes":[],"categories_segments":[],"categories_sizes":[],"default_left":[0,0,0,0,0,0,0],"id":10,"left_children":[1,-1,3,-1,5,-1,-1],"loss_changes":[2.8869038E1,0E0,7.271639E0,0E0,9.3782234E-1,0E0,0E0],"parents":[2147483647,0,0,2,2,4,4],"right_children":[2,-1,4,-1,6,-1,-1],"split_conditions":[2.5E-1,-1.1784031E-2,5E-1,2.310195E-2,7.5E-1,5.8132093E-2,1.00315094E-1],"split_indices":[0,0,0,0,0,0,0],"split_type":[0,0,0,0,0,0,0],"sum_hessian":[7.31E2,5.35E2,1.96E2,1.57E2,3.9E1,2.9E1,1E1],"tree_param":{"num_deleted":"0","num_feature":"5","num_nodes":"7","size_leaf_vector":"1"}},{"base_weights":[2.4609787E-3,-1.06078265E-2,2.9776338E-1,2.0806378E-2,6.446327E-1,5.2512664E-2,9.119554E-2],"categories":[],"categories_nodes":[],"categories_segments":[],"categories_sizes":[],"default_left":[0,0,0,0,0,0,0],"id":11,"left_children":[1,-1,3,-1,5,-1,-1],"loss_changes":[2.3493578E1,0E0,5.9953403E0,0E0,7.98975E-1,0E0,0E0],"parents":[2147483647,0,0,2,2,4,4],"right_children":[2,-1,4,-1,6,-1,-1],"split_conditions":[2.5E-1,-1.06078265E-2,5E-1,2.0806378E-2,7.5E-1,5.2512664E-2,9.119554E-2],"split_indices":[0,0,0,0,0,0,0],"split_type":[0,0,0,0,0,0,0],"sum_hessian":[7.31E2,5.35E2,1.96E2,1.57E2,3.9E1,2.9E1,1E1],"tree_param":{"num_deleted":"0","num_feature":"5","num_nodes":"7","size_leaf_vector":"1"}},{"base_weights":[2.4251353E-3,-9.549024E-3,2.6882216E-1,1.8738909E-2,5.8376217E-1,5.2438356E-2,1.14130355E-1],"categories":[],"categories_nodes":[],"categories_segments":[],"categories_sizes":[],"default_left":[0,0,0,0,0,0,0],"id":12,"left_children":[1,-1,3,-1,5,-1,-1],"loss_changes":[1.9119423E1,0E0,4.942975E0,0E0,7.2576046E-1,0E0,0E0],"parents":[2147483647,0,0,2,2,4,4],"right_children":[2,-1,4,-1,6,-1,-1],"split_conditions":[2.5E-1,-9.549024E-3,5E-1,1.8738909E-2,1E0,5.2438356E-2,1.14130355E-1],"split_indices":[0,0,0,0,0,0,0],"split_type":[0,0,0,0,0,0,0],"sum_hessian":[7.31E2,5.35E2,1.96E2,1.57E2,3.9E1,3.7E1,2E0],"tree_param":{"num_deleted":"0","num_feature":"5","num_nodes":"7","size_leaf_vector":"1"}},{"base_weights":[2.4227253E-3,-8.5959025E-3,2.4288057E-1,1.6876878E-2,5.2955014E-1,4.7332518E-2,1.06521666E-1],"categories":[],"categories_nodes":[],"categories_segments":[],"categories_sizes":[],"default_left":[0,0,0,0,0,0,0],"id":13,"left_children":[1,-1,3,-1,5,-1,-1],"loss_changes":[1.5577405E1,0E0,4.096012E0,0E0,7.005186E-1,0E0,0E0],"parents":[2147483647,0,0,2,2,4,4],"right_children":[2,-1,4,-1,6,-1,-1],"split_conditions":[2.5E-1,-8.5959025E-3,5E-1,1.6876878E-2,1E0,4.7332518E-2,1.06521666E-1],"split_indices":[0,0,0,0,0,0,0],"split_type":[0,0,0,0,0,0,0],"sum_hessian":[7.31E2,5.35E2,1.96E2,1.57E2,3.9E1,3.7E1,2E0],"tree_param":{"num_deleted":"0","num_feature":"5","num_nodes":"7","size_leaf_vector":"1"}},{"base_weights":[2.4019459E-3,-7.737917E-3,2.1945918E-1,1.5199872E-2,4.8044148E-1,3.7791923E-2,7.163712E-2],"categories":[],"categories_nodes":[],"categories_segments":[],"categories_sizes":[],"default_left":[0,0,0,0,0,0,0],"id":14,"left_children":[1,-1,3,-1,5,-1,-1],"loss_changes":[1.2693073E1,0E0,3.3953533E0,0E0,6.9679165E-1,0E0,0E0],"parents":[2147483647,0,0,2,2,4,4],"right_children":[2,-1,4,-1,6,-1,-1],"split_conditions":[2.5E-1,-7.737917E-3,5E-1,1.5199872E-2,7.5E-1,3.7791923E-2,7.163712E-2],"split_indices":[0,0,0,0,0,0,0],"split_type":[0,0,0,0,0,0,0],"sum_hessian":[7.31E2,5.35E2,1.96E2,1.57E2,3.9E1,2.9E1,1E1],"tree_param":{"num_deleted":"0","num_feature":"5","num_nodes":"7","size_leaf_vector":"1"}},{"base_weights":[2.3214326E-3,-6.965568E-3,1.9814585E-1,1.3689502E-2,4.3513304E-1,3.833155E-2,9.464442E-2],"categories":[],"categories_nodes":[],"categories_segments":[],"categories_sizes":[],"default_left":[0,0,0,0,0,0,0],"id":15,"left_children":[1,-1,3,-1,5,-1,-1],"loss_changes":[1.0331252E1,0E0,2.8000178E0,0E0,6.9700956E-1,0E0,0E0],"parents":[2147483647,0,0,2,2,4,4],"right_children":[2,-1,4,-1,6,-1,-1],"split_conditions":[2.5E-1,-6.965568E-3,5E-1,1.3689502E-2,1E0,3.833155E-2,9.464442E-2],"split_indices":[0,0,0,0,0,0,0],"split_type":[0,0,0,0,0,0,0],"sum_hessian":[7.31E2,5.35E2,1.96E2,1.57E2,3.9E1,3.7E1,2E0],"tree_param":{"num_deleted":"0","num_feature":"5","num_nodes":"7","size_leaf_vector":"1"}},{"base_weights":[2.2801366E-3,-6.2703104E-3,1.7907576E-1,1.2329214E-2,3.9494416E-1,3.459927E-1,8.83348E-2,3.0433318E-2,4.4641413E-2],"categories":[],"categories_nodes":[],"categories_segments":[],"categories_sizes":[],"default_left":[0,0,0,0,0,0,0,0,0],"id":16,"left_children":[1,-1,3,-1,5,7,-1,-1,-1],"loss_changes":[8.420996E0,0E0,2.323565E0,0E0,6.5069103E-1,2.3115158E-2,0E0,0E0,0E0],"parents":[2147483647,0,0,2,2,4,4,5,5],"right_children":[2,-1,4,-1,6,8,-1,-1,-1],"split_conditions":[2.5E-1,-6.2703104E-3,5E-1,1.2329214E-2,1E0,7.5E-1,8.83348E-2,3.0433318E-2,4.4641413E-2],"split_indices":[0,0,0,0,0,0,0,0,0],"split_type":[0,0,0,0,0,0,0,0,0],"sum_hessian":[7.31E2,5.35E2,1.96E2,1.57E2,3.9E1,3.7E1,2E0,2.9E1,8E0],"tree_param":{"num_deleted":"0","num_feature":"5","num_nodes":"9","size_leaf_vector":"1"}},{"base_weights":[2.2836365E-3,-5.6444495E-3,1.6206025E-1,1.1104095E-2,3.5953498E-1,3.133691E-1,8.2445815E-2,2.7491435E-2,4.067328E-2],"categories":[],"categories_nodes":[],"categories_segments":[],"categories_sizes":[],"default_left":[0,0,0,0,0,0,0,0,0],"id":17,"left_children":[1,-1,3,-1,5,7,-1,-1,-1],"loss_changes":[6.877783E0,0E0,1.9448562E0,0E0,6.0018444E-1,2.4614096E-2,0E0,0E0,0E0],"parents":[2147483647,0,0,2,2,4,4,5,5],"right_children":[2,-1,4,-1,6,8,-1,-1,-1],"split_conditions":[2.5E-1,-5.6444495E-3,5E-1,1.1104095E-2,1E0,7.5E-1,8.2445815E-2,2.7491435E-2,4.067328E-2],"split_indices":[0,0,0,0,0,0,0,0,0],"split_type":[0,0,0,0,0,0,0,0,0],"sum_hessian":[7.31E2,5.35E2,1.96E2,1.57E2,3.9E1,3.7E1,2E0,2.9E1,8E0],"tree_param":{"num_deleted":"0","num_feature":"5","num_nodes":"9","size_leaf_vector":"1"}},{"base_weights":[2.2684794E-3,-5.0810575E-3,1.4667511E-1,1.0000712E-2,3.2734674E-1,2.8382596E-1,7.6949425E-2,2.4833927E-2,3.7057877E-2],"categories":[],"categories_nodes":[],"categories_segments":[],"categories_sizes":[],"default_left":[0,0,0,0,0,0,0,0,0],"id":18,"left_children":[1,-1,3,-1,5,7,-1,-1,-1],"loss_changes":[5.6182084E0,0E0,1.628284E0,0E0,5.5130196E-1,2.4956226E-2,0E0,0E0,0E0],"parents":[2147483647,0,0,2,2,4,4,5,5],"right_children":[2,-1,4,-1,6,8,-1,-1,-1],"split_conditions":[2.5E-1,-5.0810575E-3,5E-1,1.0000712E-2,1E0,7.5E-1,7.6949425E-2,2.4833927E-2,3.7057877E-2],"split_indices":[0,0,0,0,0,0,0,0,0],"split_type":[0,0,0,0,0,0,0,0,0],"sum_hessian":[7.31E2,5.35E2,1.96E2,1.57E2,3.9E1,3.7E1,2E0,2.9E1,8E0],"tree_param":{"num_deleted":"0","num_feature":"5","num_nodes":"9","size_leaf_vector":"1"}},{"base_weights":[2.2380282E-3,-4.5739E-3,1.3276315E-1,9.0069715E-3,2.980831E-1,2.5707212E-1,7.181947E-2,2.2433316E-2,3.3763845E-2],"categories":[],"categories_nodes":[],"categories_segments":[],"categories_sizes":[],"default_left":[0,0,0,0,0,0,0,0,0],"id":19,"left_children":[1,-1,3,-1,5,7,-1,-1,-1],"loss_changes":[4.590008E0,0E0,1.3635929E0,0E0,5.0453997E-1,2.4487734E-2,0E0,0E0,0E0],"parents":[2147483647,0,0,2,2,4,4,5,5],"right_children":[2,-1,4,-1,6,8,-1,-1,-1],"split_conditions":[2.5E-1,-4.5739E-3,5E-1,9.0069715E-3,1E0,7.5E-1,7.181947E-2,2.2433316E-2,3.3763845E-2],"split_indices":[0,0,0,0,0,0,0,0,0],"split_type":[0,0,0,0,0,0,0,0,0],"sum_hessian":[7.31E2,5.35E2,1.96E2,1.57E2,3.9E1,3.7E1,2E0,2.9E1,8E0],"tree_param":{"num_deleted":"0","num_feature":"5","num_nodes":"9","size_leaf_vector":"1"}},{"base_weights":[2.1951674E-3,-4.117363E-3,1.2018238E-1,8.111975E-3,2.7147523E-1,2.328438E-1,6.7031495E-2,2.0264765E-2,3.0762611E-2],"categories":[],"categories_nodes":[],"categories_segments":[],"categories_sizes":[],"default_left":[0,0,0,0,0,0,0,0,0],"id":20,"left_children":[1,-1,3,-1,5,7,-1,-1,-1],"loss_changes":[3.7505653E0,0E0,1.1422279E0,0E0,4.602313E-1,2.3469448E-2,0E0,0E0,0E0],"parents":[2147483647,0,0,2,2,4,4,5,5],"right_children":[2,-1,4,-1,6,8,-1,-1,-1],"split_conditions":[2.5E-1,-4.117363E-3,5E-1,8.111975E-3,1E0,7.5E-1,6.7031495E-2,2.0264765E-2,3.0762611E-2],"split_indices":[0,0,0,0,0,0,0,0,0],"split_type":[0,0,0,0,0,0,0,0,0],"sum_hessian":[7.31E2,5.35E2,1.96E2,1.57E2,3.9E1,3.7E1,2E0,2.9E1,8E0],"tree_param":{"num_deleted":"0","num_feature":"5","num_nodes":"9","size_leaf_vector":"1"}},{"base_weights":[2.1423947E-3,-3.706395E-3,1.0880462E-1,9.109676E-2,3.9994687E-1,7.3059127E-3,1.830584E-2,2.802815E-2,6.2562734E-2],"categories":[],"categories_nodes":[],"categories_segments":[],"categories_sizes":[],"default_left":[0,0,0,0,0,0,0,0,0],"id":21,"left_children":[1,-1,3,5,7,-1,-1,-1,-1],"loss_changes":[3.0651364E0,0E0,9.792006E-1,2.96816E-1,1.21715784E-1,0E0,0E0,0E0,0E0],"parents":[2147483647,0,0,2,2,3,3,4,4],"right_children":[2,-1,4,6,8,-1,-1,-1,-1],"split_conditions":[2.5E-1,-3.706395E-3,7.5E-1,5E-1,1E0,7.3059127E-3,1.830584E-2,2.802815E-2,6.2562734E-2],"split_indices":[0,0,0,0,0,0,0,0,0],"split_type":[0,0,0,0,0,0,0,0,0],"sum_hessian":[7.31E2,5.35E2,1.96E2,1.86E2,1E1,1.57E2,2.9E1,8E0,2E0],"tree_param":{"num_deleted":"0","num_feature":"5","num_nodes":"9","size_leaf_vector":"1"}},{"base_weights":[2.0818342E-3,-3.3364468E-3,9.8514E-2,8.212403E-2,3.6818764E-1,6.5799453E-3,1.653627E-2,2.553675E-2,5.8391888E-2],"categories":[],"categories_nodes":[],"categories_segments":[],"categories_sizes":[],"default_left":[0,0,0,0,0,0,0,0,0],"id":22,"left_children":[1,-1,3,5,7,-1,-1,-1,-1],"loss_changes":[2.5053828E0,0E0,8.4049165E-1,2.4322164E-1,1.1861324E-1,0E0,0E0,0E0,0E0],"parents":[2147483647,0,0,2,2,3,3,4,4],"right_children":[2,-1,4,6,8,-1,-1,-1,-1],"split_conditions":[2.5E-1,-3.3364468E-3,7.5E-1,5E-1,1E0,6.5799453E-3,1.653627E-2,2.553675E-2,5.8391888E-2],"split_indices":[0,0,0,0,0,0,0,0,0],"split_type":[0,0,0,0,0,0,0,0,0],"sum_hessian":[7.31E2,5.35E2,1.96E2,1.86E2,1E1,1.57E2,2.9E1,8E0,2E0],"tree_param":{"num_deleted":"0","num_feature":"5","num_nodes":"9","size_leaf_vector":"1"}},{"base_weights":[2.0153318E-3,-3.0034247E-3,8.920599E-2,7.403526E-2,3.3899876E-1,5.926116E-3,1.4937766E-2,2.3266813E-2,5.44991E-2],"categories":[],"categories_nodes":[],"categories_segments":[],"categories_sizes":[],"default_left":[0,0,0,0,0,0,0,0,0],"id":23,"left_children":[1,-1,3,5,7,-1,-1,-1,-1],"loss_changes":[2.0481973E0,0E0,7.2144127E-1,1.9930041E-1,1.1413419E-1,0E0,0E0,0E0,0E0],"parents":[2147483647,0,0,2,2,3,3,4,4],"right_children":[2,-1,4,6,8,-1,-1,-1,-1],"split_conditions":[2.5E-1,-3.0034247E-3,7.5E-1,5E-1,1E0,5.926116E-3,1.4937766E-2,2.3266813E-2,5.44991E-2],"split_indices":[0,0,0,0,0,0,0,0,0],"split_type":[0,0,0,0,0,0,0,0,0],"sum_hessian":[7.31E2,5.35E2,1.96E2,1.86E2,1E1,1.57E2,2.9E1,8E0,2E0],"tree_param":{"num_deleted":"0","num_feature":"5","num_nodes":"9","size_leaf_vector":"1"}},{"base_weights":[1.9444322E-3,-2.7036427E-3,8.0786034E-2,6.674329E-2,3.121685E-1,5.3372537E-3,1.3493784E-2,2.1198655E-2,5.0865825E-2],"categories":[],"categories_nodes":[],"categories_segments":[],"categories_sizes":[],"default_left":[0,0,0,0,0,0,0,0,0],"id":24,"left_children":[1,-1,3,5,7,-1,-1,-1,-1],"loss_changes":[1.6747291E0,0E0,6.1926615E-1,1.6330689E-1,1.08703375E-1,0E0,0E0,0E0,0E0],"parents":[2147483647,0,0,2,2,3,3,4,4],"right_children":[2,-1,4,6,8,-1,-1,-1,-1],"split_conditions":[2.5E-1,-2.7036427E-3,7.5E-1,5E-1,1E0,5.3372537E-3,1.3493784E-2,2.1198655E-2,5.0865825E-2],"split_indices":[0,0,0,0,0,0,0,0,0],"split_type":[0,0,0,0,0,0,0,0,0],"sum_hessian":[7.31E2,5.35E2,1.96E2,1.86E2,1E1,1.57E2,2.9E1,8E0,2E0],"tree_param":{"num_deleted":"0","num_feature":"5","num_nodes":"9","size_leaf_vector":"1"}},{"base_weights":[1.8704719E-3,-2.433783E-3,7.316884E-2,6.016968E-2,2.8750288E-1,4.8069074E-3,1.2189385E-2,1.931432E-2,4.7474768E-2],"categories":[],"categories_nodes":[],"categories_segments":[],"categories_sizes":[],"default_left":[0,0,0,0,0,0,0,0,0],"id":25,"left_children":[1,-1,3,5,7,-1,-1,-1,-1],"loss_changes":[1.3696026E0,0E0,5.315753E-1,1.3381088E-1,1.02657616E-1,0E0,0E0,0E0,0E0],"parents":[2147483647,0,0,2,2,3,3,4,4],"right_children":[2,-1,4,6,8,-1,-1,-1,-1],"split_conditions":[2.5E-1,-2.433783E-3,7.5E-1,5E-1,1E0,4.8069074E-3,1.2189385E-2,1.931432E-2,4.7474768E-2],"split_indices":[0,0,0,0,0,0,0,0,0],"split_type":[0,0,0,0,0,0,0,0,0],"sum_hessian":[7.31E2,5.35E2,1.96E2,1.86E2,1E1,1.57E2,2.9E1,8E0,2E0],"tree_param":{"num_deleted":"0","num_feature":"5","num_nodes":"9","size_leaf_vector":"1"}},{"base_weights":[1.7945543E-3,-2.1908588E-3,6.6277236E-2,5.4243572E-2,2.6482436E-1,4.3292562E-3,1.1011078E-2,1.7597495E-2,4.4309776E-2],"categories":[],"categories_nodes":[],"categories_segments":[],"categories_sizes":[],"default_left":[0,0,0,0,0,0,0,0,0],"id":26,"left_children":[1,-1,3,5,7,-1,-1,-1,-1],"loss_changes":[1.1202717E0,0E0,4.5631707E-1,1.0964006E-1,9.626025E-2,0E0,0E0,0E0,0E0],"parents":[2147483647,0,0,2,2,3,3,4,4],"right_children":[2,-1,4,6,8,-1,-1,-1,-1],"split_conditions":[2.5E-1,-2.1908588E-3,7.5E-1,5E-1,1E0,4.3292562E-3,1.1011078E-2,1.7597495E-2,4.4309776E-2],"split_indices":[0,0,0,0,0,0,0,0,0],"split_type":[0,0,0,0,0,0,0,0,0],"sum_hessian":[7.31E2,5.35E2,1.96E2,1.86E2,1E1,1.57E2,2.9E1,8E0,2E0],"tree_param":{"num_deleted":"0","num_feature":"5","num_nodes":"9","size_leaf_vector":"1"}},{"base_weights":[1.7176319E-3,-1.9721815E-3,6.0041625E-2,4.8901238E-2,2.4396987E-1,3.89907E-3,9.946669E-3,1.6033279E-2,4.1355785E-2],"categories":[],"categories_nodes":[],"categories_segments":[],"categories_sizes":[],"default_left":[0,0,0,0,0,0,0,0,0],"id":27,"left_children":[1,-1,3,5,7,-1,-1,-1,-1],"loss_changes":[9.1650194E-1,0E0,3.9172888E-1,8.983314E-2,8.971542E-2,0E0,0E0,0E0,0E0],"parents":[2147483647,0,0,2,2,3,3,4,4],"right_children":[2,-1,4,6,8,-1,-1,-1,-1],"split_conditions":[2.5E-1,-1.9721815E-3,7.5E-1,5E-1,1E0,3.89907E-3,9.946669E-3,1.6033279E-2,4.1355785E-2],"split_indices":[0,0,0,0,0,0,0,0,0],"split_type":[0,0,0,0,0,0,0,0,0],"sum_hessian":[7.31E2,5.35E2,1.96E2,1.86E2,1E1,1.57E2,2.9E1,8E0,2E0],"tree_param":{"num_deleted":"0","num_feature":"5","num_nodes":"9","size_leaf_vector":"1"}},{"base_weights":[1.6404836E-3,-1.7753314E-3,5.4399036E-2,4.4085126E-2,2.2479014E-1,3.5116281E-3,8.985153E-3,1.46081075E-2,3.8598727E-2],"categories":[],"categories_nodes":[],"categories_segments":[],"categories_sizes":[],"default_left":[0,0,0,0,0,0,0,0,0],"id":28,"left_children":[1,-1,3,5,7,-1,-1,-1,-1],"loss_changes":[7.4993986E-1,0E0,3.3629763E-1,7.3602974E-2,8.3179E-2,0E0,0E0,0E0,0E0],"parents":[2147483647,0,0,2,2,3,3,4,4],"right_children":[2,-1,4,6,8,-1,-1,-1,-1],"split_conditions":[2.5E-1,-1.7753314E-3,7.5E-1,5E-1,1E0,3.5116281E-3,8.985153E-3,1.46081075E-2,3.8598727E-2],"split_indices":[0,0,0,0,0,0,0,0,0],"split_type":[0,0,0,0,0,0,0,0,0],"sum_hessian":[7.31E2,5.35E2,1.96E2,1.86E2,1E1,1.57E2,2.9E1,8E0,2E0],"tree_param":{"num_deleted":"0","num_feature":"5","num_nodes":"9","size_leaf_vector":"1"}},{"base_weights":[1.5637729E-3,-1.5981294E-3,4.9292665E-2,4.4255853E-2,3.6025476E-2,3.16269E-3,9.560108E-2,8.116588E-3,1.3309605E-2],"categories":[],"categories_nodes":[],"categories_segments":[],"categories_sizes":[],"default_left":[0,0,0,0,0,0,0,0,0],"id":29,"left_children":[1,-1,3,5,-1,-1,7,-1,-1],"loss_changes":[6.137694E-1,0E0,2.9260963E-1,1.2342149E-1,0E0,0E0,9.764552E-3,0E0,0E0],"parents":[2147483647,0,0,2,2,3,3,6,6],"right_children":[2,-1,4,6,-1,-1,8,-1,-1],"split_conditions":[2.5E-1,-1.5981294E-3,1E0,5E-1,3.6025476E-2,3.16269E-3,7.5E-1,8.116588E-3,1.3309605E-2],"split_indices":[0,0,0,0,0,0,0,0,0],"split_type":[0,0,0,0,0,0,0,0,0],"sum_hessian":[7.31E2,5.35E2,1.96E2,1.94E2,2E0,1.57E2,3.7E1,2.9E1,8E0],"tree_param":{"num_deleted":"0","num_feature":"5","num_nodes":"9","size_leaf_vector":"1"}},{"base_weights":[1.4880183E-3,-1.4386147E-3,4.4671085E-2,3.995636E-2,3.3623777E-2,2.8484233E-3,8.660478E-2,7.331983E-3,1.212652E-2],"categories":[],"categories_nodes":[],"categories_segments":[],"categories_sizes":[],"default_left":[0,0,0,0,0,0,0,0,0],"id":30,"left_children":[1,-1,3,5,-1,-1,7,-1,-1],"loss_changes":[5.024251E-1,0E0,2.5737247E-1,1.0188866E-1,0E0,0E0,8.606434E-3,0E0,0E0],"parents":[2147483647,0,0,2,2,3,3,6,6],"right_children":[2,-1,4,6,-1,-1,8,-1,-1],"split_conditions":[2.5E-1,-1.4386147E-3,1E0,5E-1,3.3623777E-2,2.8484233E-3,7.5E-1,7.331983E-3,1.212652E-2],"split_indices":[0,0,0,0,0,0,0,0,0],"split_type":[0,0,0,0,0,0,0,0,0],"sum_hessian":[7.31E2,5.35E2,1.96E2,1.94E2,2E0,1.57E2,3.7E1,2.9E1,8E0],"tree_param":{"num_deleted":"0","num_feature":"5","num_nodes":"9","size_leaf_vector":"1"}},{"base_weights":[1.4136562E-3,-1.2950216E-3,4.0487878E-2,3.6075108E-2,3.1382196E-2,2.5653816E-3,7.84564E-2,6.6232267E-3,1.1048614E-2],"categories":[],"categories_nodes":[],"categories_segments":[],"categories_sizes":[],"default_left":[0,0,0,0,0,0,0,0,0],"id":31,"left_children":[1,-1,3,5,-1,-1,7,-1,-1],"loss_changes":[4.113645E-1,0E0,2.2629243E-1,8.4112525E-2,0E0,0E0,7.5606257E-3,0E0,0E0],"parents":[2147483647,0,0,2,2,3,3,6,6],"right_children":[2,-1,4,6,-1,-1,8,-1,-1],"split_conditions":[2.5E-1,-1.2950216E-3,1E0,5E-1,3.1382196E-2,2.5653816E-3,7.5E-1,6.6232267E-3,1.1048614E-2],"split_indices":[0,0,0,0,0,0,0,0,0],"split_type":[0,0,0,0,0,0,0,0,0],"sum_hessian":[7.31E2,5.35E2,1.96E2,1.94E2,2E0,1.57E2,3.7E1,2.9E1,8E0],"tree_param":{"num_deleted":"0","num_feature":"5","num_nodes":"9","size_leaf_vector":"1"}},{"base_weights":[1.3410386E-3,-1.165761E-3,3.6701113E-2,3.257137E-2,2.9290056E-2,2.3104667E-3,7.107579E-2,5.9829773E-3,1.00665195E-2],"categories":[],"categories_nodes":[],"categories_segments":[],"categories_sizes":[],"default_left":[0,0,0,0,0,0,0,0,0],"id":32,"left_children":[1,-1,3,5,-1,-1,7,-1,-1],"loss_changes":[3.368793E-1,0E0,1.9889319E-1,6.9437265E-2,0E0,0E0,6.62221E-3,0E0,0E0],"parents":[2147483647,0,0,2,2,3,3,6,6],"right_children":[2,-1,4,6,-1,-1,8,-1,-1],"split_conditions":[2.5E-1,-1.165761E-3,1E0,5E-1,2.9290056E-2,2.3104667E-3,7.5E-1,5.9829773E-3,1.00665195E-2],"split_indices":[0,0,0,0,0,0,0,0,0],"split_type":[0,0,0,0,0,0,0,0,0],"sum_hessian":[7.31E2,5.35E2,1.96E2,1.94E2,2E0,1.57E2,3.7E1,2.9E1,8E0],"tree_param":{"num_deleted":"0","num_feature":"5","num_nodes":"9","size_leaf_vector":"1"}},{"base_weights":[1.2704399E-3,-1.0494025E-3,3.327289E-2,2.9408395E-2,2.7337393E-2,2.0808836E-3,6.4390555E-2,5.404621E-3,9.17172E-3],"categories":[],"categories_nodes":[],"categories_segments":[],"categories_sizes":[],"default_left":[0,0,0,0,0,0,0,0,0],"id":33,"left_children":[1,-1,3,5,-1,-1,7,-1,-1],"loss_changes":[2.7594104E-1,0E0,1.7475063E-1,5.732219E-2,0E0,0E0,5.784735E-3,0E0,0E0],"parents":[2147483647,0,0,2,2,3,3,6,6],"right_children":[2,-1,4,6,-1,-1,8,-1,-1],"split_conditions":[2.5E-1,-1.0494025E-3,1E0,5E-1,2.7337393E-2,2.0808836E-3,7.5E-1,5.404621E-3,9.17172E-3],"split_indices":[0,0,0,0,0,0,0,0,0],"split_type":[0,0,0,0,0,0,0,0,0],"sum_hessian":[7.31E2,5.35E2,1.96E2,1.94E2,2E0,1.57E2,3.7E1,2.9E1,8E0],"tree_param":{"num_deleted":"0","num_feature":"5","num_nodes":"9","size_leaf_vector":"1"}},{"base_weights":[1.202071E-3,-3.0335719E-3,7.455453E-2,-9.44658E-4,1.874115E-3,5.8335107E-2,2.5514904E-2,4.882177E-3,8.356455E-3],"categories":[],"categories_nodes":[],"categories_segments":[],"categories_sizes":[],"default_left":[0,0,0,0,0,0,0,0,0],"id":34,"left_children":[1,3,5,-1,-1,7,-1,-1,-1],"loss_changes":[2.2765478E-1,9.6948564E-2,1.0228139E-1,0E0,0E0,5.0408393E-3,0E0,0E0,0E0],"parents":[2147483647,0,0,1,1,2,2,5,5],"right_children":[2,4,6,-1,-1,8,-1,-1,-1],"split_conditions":[5E-1,2.5E-1,1E0,-9.44658E-4,1.874115E-3,7.5E-1,2.5514904E-2,4.882177E-3,8.356455E-3],"split_indices":[0,0,0,0,0,0,0,0,0],"split_type":[0,0,0,0,0,0,0,0,0],"sum_hessian":[7.31E2,6.92E2,3.9E1,5.35E2,1.57E2,3.7E1,2E0,2.9E1,8E0],"tree_param":{"num_deleted":"0","num_feature":"5","num_nodes":"9","size_leaf_vector":"1"}},{"base_weights":[1.1360786E-3,-2.7288676E-3,6.806786E-2,-8.503684E-4,1.6878921E-3,5.2849926E-2,2.3813916E-2,4.4102296E-3,7.6136487E-3],"categories":[],"categories_nodes":[],"categories_segments":[],"categories_sizes":[],"default_left":[0,0,0,0,0,0,0,0,0],"id":35,"left_children":[1,3,5,-1,-1,7,-1,-1,-1],"loss_changes":[1.8954517E-1,7.861288E-2,9.093976E-2,0E0,0E0,4.3828934E-3,0E0,0E0,0E0],"parents":[2147483647,0,0,1,1,2,2,5,5],"right_children":[2,4,6,-1,-1,8,-1,-1,-1],"split_conditions":[5E-1,2.5E-1,1E0,-8.503684E-4,1.6878921E-3,7.5E-1,2.3813916E-2,4.4102296E-3,7.6136487E-3],"split_indices":[0,0,0,0,0,0,0,0,0],"split_type":[0,0,0,0,0,0,0,0,0],"sum_hessian":[7.31E2,6.92E2,3.9E1,5.35E2,1.57E2,3.7E1,2E0,2.9E1,8E0],"tree_param":{"num_deleted":"0","num_feature":"5","num_nodes":"9","size_leaf_vector":"1"}},{"base_weights":[1.0725735E-3,-2.4547705E-3,6.2156994E-2,-7.6549023E-4,1.520172E-3,4.788132E-2,2.2226317E-2,3.9839037E-3,6.936879E-3],"categories":[],"categories_nodes":[],"categories_segments":[],"categories_sizes":[],"default_left":[0,0,0,0,0,0,0,0,0],"id":36,"left_children":[1,3,5,-1,-1,7,-1,-1,-1],"loss_changes":[1.5787351E-1,6.37449E-2,8.078268E-2,0E0,0E0,3.803134E-3,0E0,0E0,0E0],"parents":[2147483647,0,0,1,1,2,2,5,5],"right_children":[2,4,6,-1,-1,8,-1,-1,-1],"split_conditions":[5E-1,2.5E-1,1E0,-7.6549023E-4,1.520172E-3,7.5E-1,2.2226317E-2,3.9839037E-3,6.936879E-3],"split_indices":[0,0,0,0,0,0,0,0,0],"split_type":[0,0,0,0,0,0,0,0,0],"sum_hessian":[7.31E2,6.92E2,3.9E1,5.35E2,1.57E2,3.7E1,2E0,2.9E1,8E0],"tree_param":{"num_deleted":"0","num_feature":"5","num_nodes":"9","size_leaf_vector":"1"}},{"base_weights":[1.0116362E-3,-2.208201E-3,5.6770023E-2,-6.89084E-4,1.3691183E-3,4.3380633E-2,2.0744562E-2,3.5987978E-3,6.3202754E-3],"categories":[],"categories_nodes":[],"categories_segments":[],"categories_sizes":[],"default_left":[0,0,0,0,0,0,0,0,0],"id":37,"left_children":[1,3,5,-1,-1,7,-1,-1,-1],"loss_changes":[1.3154346E-1,5.168894E-2,7.169904E-2,0E0,0E0,3.2939091E-3,0E0,0E0,0E0],"parents":[2147483647,0,0,1,1,2,2,5,5],"right_children":[2,4,6,-1,-1,8,-1,-1,-1],"split_conditions":[5E-1,2.5E-1,1E0,-6.89084E-4,1.3691183E-3,7.5E-1,2.0744562E-2,3.5987978E-3,6.3202754E-3],"split_indices":[0,0,0,0,0,0,0,0,0],"split_type":[0,0,0,0,0,0,0,0,0],"sum_hessian":[7.31E2,6.92E2,3.9E1,5.35E2,1.57E2,3.7E1,2E0,2.9E1,8E0],"tree_param":{"num_deleted":"0","num_feature":"5","num_nodes":"9","size_leaf_vector":"1"}},{"base_weights":[9.532918E-4,1.6022172E-4,1.9361591E-2,-6.2030414E-4,1.7650215E-2,1.2330731E-3,3.9303597E-2,3.250913E-3,5.7584764E-3],"categories":[],"categories_nodes":[],"categories_segments":[],"categories_sizes":[],"default_left":[0,0,0,0,0,0,0,0,0],"id":38,"left_children":[1,3,-1,-1,5,-1,7,-1,-1],"loss_changes":[1.1181489E-1,8.13537E-2,0E0,0E0,2.1976404E-2,0E0,2.847977E-3,0E0,0E0],"parents":[2147483647,0,0,1,1,4,4,6,6],"right_children":[2,4,-1,-1,6,-1,8,-1,-1],"split_conditions":[1E0,2.5E-1,1.9361591E-2,-6.2030414E-4,5E-1,1.2330731E-3,7.5E-1,3.250913E-3,5.7584764E-3],"split_indices":[0,0,0,0,0,0,0,0,0],"split_type":[0,0,0,0,0,0,0,0,0],"sum_hessian":[7.31E2,7.29E2,2E0,5.35E2,1.94E2,1.57E2,3.7E1,2.9E1,8E0],"tree_param":{"num_deleted":"0","num_feature":"5","num_nodes":"9","size_leaf_vector":"1"}},{"base_weights":[8.975499E-4,1.5737233E-4,1.8070824E-2,-5.5838947E-4,1.5937688E-2,1.1105434E-3,3.5610285E-2,2.9366536E-3,5.2466076E-3],"categories":[],"categories_nodes":[],"categories_segments":[],"categories_sizes":[],"default_left":[0,0,0,0,0,0,0,0,0],"id":39,"left_children":[1,3,-1,-1,5,-1,7,-1,-1],"loss_changes":[9.7394794E-2,6.622627E-2,0E0,0E0,1.8141814E-2,0E0,2.4585016E-3,0E0,0E0],"parents":[2147483647,0,0,1,1,4,4,6,6],"right_children":[2,4,-1,-1,6,-1,8,-1,-1],"split_conditions":[1E0,2.5E-1,1.8070824E-2,-5.5838947E-4,5E-1,1.1105434E-3,7.5E-1,2.9366536E-3,5.2466076E-3],"split_indices":[0,0,0,0,0,0,0,0,0],"split_type":[0,0,0,0,0,0,0,0,0],"sum_hessian":[7.31E2,7.29E2,2E0,5.35E2,1.94E2,1.57E2,3.7E1,2.9E1,8E0],"tree_param":{"num_deleted":"0","num_feature":"5","num_nodes":"9","size_leaf_vector":"1"}},{"base_weights":[8.444146E-4,1.5360083E-4,1.6866095E-2,-5.0265476E-4,1.4391579E-2,1.000191E-3,3.226464E-2,2.6527822E-3,4.78024E-3],"categories":[],"categories_nodes":[],"categories_segments":[],"categories_sizes":[],"default_left":[0,0,0,0,0,0,0,0,0],"id":40,"left_children":[1,3,-1,-1,5,-1,7,-1,-1],"loss_changes":[8.483484E-2,5.3913366E-2,0E0,0E0,1.49763785E-2,0E0,2.1191202E-3,0E0,0E0],"parents":[2147483647,0,0,1,1,4,4,6,6],"right_children":[2,4,-1,-1,6,-1,8,-1,-1],"split_conditions":[1E0,2.5E-1,1.6866095E-2,-5.0265476E-4,5E-1,1.000191E-3,7.5E-1,2.6527822E-3,4.78024E-3],"split_indices":[0,0,0,0,0,0,0,0,0],"split_type":[0,0,0,0,0,0,0,0,0],"sum_hessian":[7.31E2,7.29E2,2E0,5.35E2,1.94E2,1.57E2,3.7E1,2.9E1,8E0],"tree_param":{"num_deleted":"0","num_feature":"5","num_nodes":"9","size_leaf_vector":"1"}},{"base_weights":[7.938536E-4,1.491101E-4,1.5741682E-2,-4.52483E-4,1.2995688E-2,9.008073E-4,2.9233782E-2,2.3963484E-3,4.355325E-3],"categories":[],"categories_nodes":[],"categories_segments":[],"categories_sizes":[],"default_left":[0,0,0,0,0,0,0,0,0],"id":41,"left_children":[1,3,-1,-1,5,-1,7,-1,-1],"loss_changes":[7.389508E-2,4.3891024E-2,0E0,0E0,1.2363158E-2,0E0,1.8240884E-3,0E0,0E0],"parents":[2147483647,0,0,1,1,4,4,6,6],"right_children":[2,4,-1,-1,6,-1,8,-1,-1],"split_conditions":[1E0,2.5E-1,1.5741682E-2,-4.52483E-4,5E-1,9.008073E-4,7.5E-1,2.3963484E-3,4.355325E-3],"split_indices":[0,0,0,0,0,0,0,0,0],"split_type":[0,0,0,0,0,0,0,0,0],"sum_hessian":[7.31E2,7.29E2,2E0,5.35E2,1.94E2,1.57E2,3.7E1,2.9E1,8E0],"tree_param":{"num_deleted":"0","num_feature":"5","num_nodes":"9","size_leaf_vector":"1"}},{"base_weights":[7.458091E-4,1.4406162E-4,1.4692242E-2,-4.073191E-4,1.1735361E-2,8.112969E-4,2.648806E-2,2.1647017E-3,3.968175E-3],"categories":[],"categories_nodes":[],"categories_segments":[],"categories_sizes":[],"default_left":[0,0,0,0,0,0,0,0,0],"id":42,"left_children":[1,3,-1,-1,5,-1,7,-1,-1],"loss_changes":[6.436659E-2,3.5732713E-2,0E0,0E0,1.02059115E-2,0E0,1.5681162E-3,0E0,0E0],"parents":[2147483647,0,0,1,1,4,4,6,6],"right_children":[2,4,-1,-1,6,-1,8,-1,-1],"split_conditions":[1E0,2.5E-1,1.4692242E-2,-4.073191E-4,5E-1,8.112969E-4,7.5E-1,2.1647017E-3,3.968175E-3],"split_indices":[0,0,0,0,0,0,0,0,0],"split_type":[0,0,0,0,0,0,0,0,0],"sum_hessian":[7.31E2,7.29E2,2E0,5.35E2,1.94E2,1.57E2,3.7E1,2.9E1,8E0],"tree_param":{"num_deleted":"0","num_feature":"5","num_nodes":"9","size_leaf_vector":"1"}},{"base_weights":[7.002319E-4,1.3861242E-4,1.3712756E-2,-3.6666318E-4,1.0597445E-2,7.306825E-4,2.4000617E-2,1.9554454E-3,3.6154431E-3],"categories":[],"categories_nodes":[],"categories_segments":[],"categories_sizes":[],"default_left":[0,0,0,0,0,0,0,0,0],"id":43,"left_children":[1,3,-1,-1,5,-1,7,-1,-1],"loss_changes":[5.6067012E-2,2.9091699E-2,0E0,0E0,8.425059E-3,0E0,1.3464559E-3,0E0,0E0],"parents":[2147483647,0,0,1,1,4,4,6,6],"right_children":[2,4,-1,-1,6,-1,8,-1,-1],"split_conditions":[1E0,2.5E-1,1.3712756E-2,-3.6666318E-4,5E-1,7.306825E-4,7.5E-1,1.9554454E-3,3.6154431E-3],"split_indices":[0,0,0,0,0,0,0,0,0],"split_type":[0,0,0,0,0,0,0,0,0],"sum_hessian":[7.31E2,7.29E2,2E0,5.35E2,1.94E2,1.57E2,3.7E1,2.9E1,8E0],"tree_param":{"num_deleted":"0","num_feature":"5","num_nodes":"9","size_leaf_vector":"1"}},{"base_weights":[6.570506E-4,1.3288167E-4,1.2798579E-2,-3.300653E-4,9.570018E-3,6.580757E-4,2.1747213E-2,1.7664243E-3,3.294076E-3],"categories":[],"categories_nodes":[],"categories_segments":[],"categories_sizes":[],"default_left":[0,0,0,0,0,0,0,0,0],"id":44,"left_children":[1,3,-1,-1,5,-1,7,-1,-1],"loss_changes":[4.8837963E-2,2.3685584E-2,0E0,0E0,6.95505E-3,0E0,1.1548363E-3,0E0,0E0],"parents":[2147483647,0,0,1,1,4,4,6,6],"right_children":[2,4,-1,-1,6,-1,8,-1,-1],"split_conditions":[1E0,2.5E-1,1.2798579E-2,-3.300653E-4,5E-1,6.580757E-4,7.5E-1,1.7664243E-3,3.294076E-3],"split_indices":[0,0,0,0,0,0,0,0,0],"split_type":[0,0,0,0,0,0,0,0,0],"sum_hessian":[7.31E2,7.29E2,2E0,5.35E2,1.94E2,1.57E2,3.7E1,2.9E1,8E0],"tree_param":{"num_deleted":"0","num_feature":"5","num_nodes":"9","size_leaf_vector":"1"}},{"base_weights":[6.1618746E-4,1.2697112E-4,1.1945344E-2,-2.9712034E-4,8.642328E-3,5.926827E-4,1.9705666E-2,1.5956679E-3,3.0012766E-3],"categories":[],"categories_nodes":[],"categories_segments":[],"categories_sizes":[],"default_left":[0,0,0,0,0,0,0,0,0],"id":45,"left_children":[1,3,-1,-1,5,-1,7,-1,-1],"loss_changes":[4.2541206E-2,1.9284584E-2,0E0,0E0,5.7414966E-3,0E0,9.894595E-4,0E0,0E0],"parents":[2147483647,0,0,1,1,4,4,6,6],"right_children":[2,4,-1,-1,6,-1,8,-1,-1],"split_conditions":[1E0,2.5E-1,1.1945344E-2,-2.9712034E-4,5E-1,5.926827E-4,7.5E-1,1.5956679E-3,3.0012766E-3],"split_indices":[0,0,0,0,0,0,0,0,0],"split_type":[0,0,0,0,0,0,0,0,0],"sum_hessian":[7.31E2,7.29E2,2E0,5.35E2,1.94E2,1.57E2,3.7E1,2.9E1,8E0],"tree_param":{"num_deleted":"0","num_feature":"5","num_nodes":"9","size_leaf_vector":"1"}},{"base_weights":[5.7756866E-4,1.2097323E-4,1.1148993E-2,-2.6746374E-4,7.804698E-3,5.3378695E-4,1.7856125E-2,1.4414251E-3,2.7345023E-3],"categories":[],"categories_nodes":[],"categories_segments":[],"categories_sizes":[],"default_left":[0,0,0,0,0,0,0,0,0],"id":46,"left_children":[1,3,-1,-1,5,-1,7,-1,-1],"loss_changes":[3.7056513E-2,1.5701788E-2,0E0,0E0,4.739739E-3,0E0,8.4690563E-4,0E0,0E0],"parents":[2147483647,0,0,1,1,4,4,6,6],"right_children":[2,4,-1,-1,6,-1,8,-1,-1],"split_conditions":[1E0,2.5E-1,1.1148993E-2,-2.6746374E-4,5E-1,5.3378695E-4,7.5E-1,1.4414251E-3,2.7345023E-3],"split_indices":[0,0,0,0,0,0,0,0,0],"split_type":[0,0,0,0,0,0,0,0,0],"sum_hessian":[7.31E2,7.29E2,2E0,5.35E2,1.94E2,1.57E2,3.7E1,2.9E1,8E0],"tree_param":{"num_deleted":"0","num_feature":"5","num_nodes":"9","size_leaf_vector":"1"}},{"base_weights":[5.4111605E-4,1.149658E-4,1.0405731E-2,-2.4076726E-4,7.048398E-3,4.807488E-4,1.6180381E-2,1.3020822E-3,2.4914423E-3],"categories":[],"categories_nodes":[],"categories_segments":[],"categories_sizes":[],"default_left":[0,0,0,0,0,0,0,0,0],"id":47,"left_children":[1,3,-1,-1,5,-1,7,-1,-1],"loss_changes":[3.2279085E-2,1.2785066E-2,0E0,0E0,3.9126826E-3,0E0,7.242309E-4,0E0,0E0],"parents":[2147483647,0,0,1,1,4,4,6,6],"right_children":[2,4,-1,-1,6,-1,8,-1,-1],"split_conditions":[1E0,2.5E-1,1.0405731E-2,-2.4076726E-4,5E-1,4.807488E-4,7.5E-1,1.3020822E-3,2.4914423E-3],"split_indices":[0,0,0,0,0,0,0,0,0],"split_type":[0,0,0,0,0,0,0,0,0],"sum_hessian":[7.31E2,7.29E2,2E0,5.35E2,1.94E2,1.57E2,3.7E1,2.9E1,8E0],"tree_param":{"num_deleted":"0","num_feature":"5","num_nodes":"9","size_leaf_vector":"1"}},{"base_weights":[5.067234E-4,1.0898789E-4,9.712013E-3,-2.1673545E-4,6.365452E-3,4.3297603E-4,1.4662134E-2,1.1762102E-3,2.2699782E-3],"categories":[],"categories_nodes":[],"categories_segments":[],"categories_sizes":[],"default_left":[0,0,0,0,0,0,0,0,0],"id":48,"left_children":[1,3,-1,-1,5,-1,7,-1,-1],"loss_changes":[2.8117673E-2,1.041035E-2,0E0,0E0,3.2299673E-3,0E0,6.187614E-4,0E0,0E0],"parents":[2147483647,0,0,1,1,4,4,6,6],"right_children":[2,4,-1,-1,6,-1,8,-1,-1],"split_conditions":[1E0,2.5E-1,9.712013E-3,-2.1673545E-4,5E-1,4.3297603E-4,7.5E-1,1.1762102E-3,2.2699782E-3],"split_indices":[0,0,0,0,0,0,0,0,0],"split_type":[0,0,0,0,0,0,0,0,0],"sum_hessian":[7.31E2,7.29E2,2E0,5.35E2,1.94E2,1.57E2,3.7E1,2.9E1,8E0],"tree_param":{"num_deleted":"0","num_feature":"5","num_nodes":"9","size_leaf_vector":"1"}},{"base_weights":[4.7432285E-4,1.0310671E-4,9.064547E-3,-1.9510233E-4,5.748802E-3,3.8995323E-4,1.3286588E-2,1.0625073E-3,2.0682018E-3],"categories":[],"categories_nodes":[],"categories_segments":[],"categories_sizes":[],"default_left":[0,0,0,0,0,0,0,0,0],"id":49,"left_children":[1,3,-1,-1,5,-1,7,-1,-1],"loss_changes":[2.4492877E-2,8.47702E-3,0E0,0E0,2.6663705E-3,0E0,5.2820845E-4,0E0,0E0],"parents":[2147483647,0,0,1,1,4,4,6,6],"right_children":[2,4,-1,-1,6,-1,8,-1,-1],"split_conditions":[1E0,2.5E-1,9.064547E-3,-1.9510233E-4,5E-1,3.8995323E-4,7.5E-1,1.0625073E-3,2.0682018E-3],"split_indices":[0,0,0,0,0,0,0,0,0],"split_type":[0,0,0,0,0,0,0,0,0],"sum_hessian":[7.31E2,7.29E2,2E0,5.35E2,1.94E2,1.57E2,3.7E1,2.9E1,8E0],"tree_param":{"num_deleted":"0","num_feature":"5","num_nodes":"9","size_leaf_vector":"1"}},{"base_weights":[4.4382035E-4,9.735472E-5,8.460252E-3,-1.756285E-4,5.1919883E-3,3.5120663E-4,1.2040295E-2,9.597977E-4,1.8843545E-3],"categories":[],"categories_nodes":[],"categories_segments":[],"categories_sizes":[],"default_left":[0,0,0,0,0,0,0,0,0],"id":50,"left_children":[1,3,-1,-1,5,-1,7,-1,-1],"loss_changes":[2.133549E-2,6.902958E-3,0E0,0E0,2.2011143E-3,0E0,4.5053707E-4,0E0,0E0],"parents":[2147483647,0,0,1,1,4,4,6,6],"right_children":[2,4,-1,-1,6,-1,8,-1,-1],"split_conditions":[1E0,2.5E-1,8.460252E-3,-1.756285E-4,5E-1,3.5120663E-4,7.5E-1,9.597977E-4,1.8843545E-3],"split_indices":[0,0,0,0,0,0,0,0,0],"split_type":[0,0,0,0,0,0,0,0,0],"sum_hessian":[7.31E2,7.29E2,2E0,5.35E2,1.94E2,1.57E2,3.7E1,2.9E1,8E0],"tree_param":{"num_deleted":"0","num_feature":"5","num_nodes":"9","size_leaf_vector":"1"}},{"base_weights":[4.1512525E-4,9.175987E-5,7.896232E-3,-1.5809842E-4,4.689191E-3,3.1630986E-4,1.0911123E-2,8.6702144E-4,1.716847E-3],"categories":[],"categories_nodes":[],"categories_segments":[],"categories_sizes":[],"default_left":[0,0,0,0,0,0,0,0,0],"id":51,"left_children":[1,3,-1,-1,5,-1,7,-1,-1],"loss_changes":[1.858515E-2,5.621351E-3,0E0,0E0,1.8170592E-3,0E0,3.839871E-4,0E0,0E0],"parents":[2147483647,0,0,1,1,4,4,6,6],"right_children":[2,4,-1,-1,6,-1,8,-1,-1],"split_conditions":[1E0,2.5E-1,7.896232E-3,-1.5809842E-4,5E-1,3.1630986E-4,7.5E-1,8.6702144E-4,1.716847E-3],"split_indices":[0,0,0,0,0,0,0,0,0],"split_type":[0,0,0,0,0,0,0,0,0],"sum_hessian":[7.31E2,7.29E2,2E0,5.35E2,1.94E2,1.57E2,3.7E1,2.9E1,8E0],"tree_param":{"num_deleted":"0","num_feature":"5","num_nodes":"9","size_leaf_vector":"1"}},{"base_weights":[3.8814393E-4,8.6338005E-5,7.36982E-3,-1.4231807E-4,4.2351363E-3,2.8487787E-4,9.888016E-3,7.832106E-4,1.5642379E-3],"categories":[],"categories_nodes":[],"categories_segments":[],"categories_sizes":[],"default_left":[0,0,0,0,0,0,0,0,0],"id":52,"left_children":[1,3,-1,-1,5,-1,7,-1,-1],"loss_changes":[1.6189437E-2,4.5777904E-3,0E0,0E0,1.5000287E-3,0E0,3.2704463E-4,0E0,0E0],"parents":[2147483647,0,0,1,1,4,4,6,6],"right_children":[2,4,-1,-1,6,-1,8,-1,-1],"split_conditions":[1E0,2.5E-1,7.36982E-3,-1.4231807E-4,5E-1,2.8487787E-4,7.5E-1,7.832106E-4,1.5642379E-3],"split_indices":[0,0,0,0,0,0,0,0,0],"split_type":[0,0,0,0,0,0,0,0,0],"sum_hessian":[7.31E2,7.29E2,2E0,5.35E2,1.94E2,1.57E2,3.7E1,2.9E1,8E0],"tree_param":{"num_deleted":"0","num_feature":"5","num_nodes":"9","size_leaf_vector":"1"}},{"base_weights":[3.628052E-4,8.1120976E-5,6.8785036E-3,-1.2811282E-4,3.8251437E-3,2.565731E-4,8.960987E-3,7.075008E-4,1.4251921E-3],"categories":[],"categories_nodes":[],"categories_segments":[],"categories_sizes":[],"default_left":[0,0,0,0,0,0,0,0,0],"id":53,"left_children":[1,3,-1,-1,5,-1,7,-1,-1],"loss_changes":[1.4102594E-2,3.7281136E-3,0E0,0E0,1.2382972E-3,0E0,2.7835416E-4,0E0,0E0],"parents":[2147483647,0,0,1,1,4,4,6,6],"right_children":[2,4,-1,-1,6,-1,8,-1,-1],"split_conditions":[1E0,2.5E-1,6.8785036E-3,-1.2811282E-4,5E-1,2.565731E-4,7.5E-1,7.075008E-4,1.4251921E-3],"split_indices":[0,0,0,0,0,0,0,0,0],"split_type":[0,0,0,0,0,0,0,0,0],"sum_hessian":[7.31E2,7.29E2,2E0,5.35E2,1.94E2,1.57E2,3.7E1,2.9E1,8E0],"tree_param":{"num_deleted":"0","num_feature":"5","num_nodes":"9","size_leaf_vector":"1"}},{"base_weights":[3.3900386E-4,7.609995E-5,6.419929E-3,-1.15325434E-4,3.454858E-3,2.3107571E-4,8.120991E-3,6.391084E-4,1.2985017E-3],"categories":[],"categories_nodes":[],"categories_segments":[],"categories_sizes":[],"default_left":[0,0,0,0,0,0,0,0,0],"id":54,"left_children":[1,3,-1,-1,5,-1,7,-1,-1],"loss_changes":[1.2284748E-2,3.0361784E-3,0E0,0E0,1.0222474E-3,0E0,2.367557E-4,0E0,0E0],"parents":[2147483647,0,0,1,1,4,4,6,6],"right_children":[2,4,-1,-1,6,-1,8,-1,-1],"split_conditions":[1E0,2.5E-1,6.419929E-3,-1.15325434E-4,5E-1,2.3107571E-4,7.5E-1,6.391084E-4,1.2985017E-3],"split_indices":[0,0,0,0,0,0,0,0,0],"split_type":[0,0,0,0,0,0,0,0,0],"sum_hessian":[7.31E2,7.29E2,2E0,5.35E2,1.94E2,1.57E2,3.7E1,2.9E1,8E0],"tree_param":{"num_deleted":"0","num_feature":"5","num_nodes":"9","size_leaf_vector":"1"}},{"base_weights":[3.1667852E-4,7.130221E-5,5.9919357E-3,-1.0381441E-4,3.1204915E-3,2.0811326E-4,7.3599187E-3,5.773306E-4,1.183086E-3],"categories":[],"categories_nodes":[],"categories_segments":[],"categories_sizes":[],"default_left":[0,0,0,0,0,0,0,0,0],"id":55,"left_children":[1,3,-1,-1,5,-1,7,-1,-1],"loss_changes":[1.070129E-2,2.472765E-3,0E0,0E0,8.439091E-4,0E0,2.0125555E-4,0E0,0E0],"parents":[2147483647,0,0,1,1,4,4,6,6],"right_children":[2,4,-1,-1,6,-1,8,-1,-1],"split_conditions":[1E0,2.5E-1,5.9919357E-3,-1.0381441E-4,5E-1,2.0811326E-4,7.5E-1,5.773306E-4,1.183086E-3],"split_indices":[0,0,0,0,0,0,0,0,0],"split_type":[0,0,0,0,0,0,0,0,0],"sum_hessian":[7.31E2,7.29E2,2E0,5.35E2,1.94E2,1.57E2,3.7E1,2.9E1,8E0],"tree_param":{"num_deleted":"0","num_feature":"5","num_nodes":"9","size_leaf_vector":"1"}},{"base_weights":[2.9573878E-4,6.6721346E-5,5.5924733E-3,-9.3452334E-5,2.8185183E-3,1.8743104E-4,6.670265E-3,5.2152196E-4,1.0779275E-3],"categories":[],"categories_nodes":[],"categories_segments":[],"categories_sizes":[],"default_left":[0,0,0,0,0,0,0,0,0],"id":56,"left_children":[1,3,-1,-1,5,-1,7,-1,-1],"loss_changes":[9.321955E-3,2.0139462E-3,0E0,0E0,6.9668365E-4,0E0,1.7097814E-4,0E0,0E0],"parents":[2147483647,0,0,1,1,4,4,6,6],"right_children":[2,4,-1,-1,6,-1,8,-1,-1],"split_conditions":[1E0,2.5E-1,5.5924733E-3,-9.3452334E-5,5E-1,1.8743104E-4,7.5E-1,5.2152196E-4,1.0779275E-3],"split_indices":[0,0,0,0,0,0,0,0,0],"split_type":[0,0,0,0,0,0,0,0,0],"sum_hessian":[7.31E2,7.29E2,2E0,5.35E2,1.94E2,1.57E2,3.7E1,2.9E1,8E0],"tree_param":{"num_deleted":"0","num_feature":"5","num_nodes":"9","size_leaf_vector":"1"}},{"base_weights":[2.761122E-4,6.236315E-5,5.219634E-3,-8.4124535E-5,2.5458082E-3,1.68804E-4,6.045323E-3,4.7110635E-4,9.82115E-4],"categories":[],"categories_nodes":[],"categories_segments":[],"categories_sizes":[],"default_left":[0,0,0,0,0,0,0,0,0],"id":57,"left_children":[1,3,-1,-1,5,-1,7,-1,-1],"loss_changes":[8.120408E-3,1.6403069E-3,0E0,0E0,5.751407E-4,0E0,1.451734E-4,0E0,0E0],"parents":[2147483647,0,0,1,1,4,4,6,6],"right_children":[2,4,-1,-1,6,-1,8,-1,-1],"split_conditions":[1E0,2.5E-1,5.219634E-3,-8.4124535E-5,5E-1,1.68804E-4,7.5E-1,4.7110635E-4,9.82115E-4],"split_indices":[0,0,0,0,0,0,0,0,0],"split_type":[0,0,0,0,0,0,0,0,0],"sum_hessian":[7.31E2,7.29E2,2E0,5.35E2,1.94E2,1.57E2,3.7E1,2.9E1,8E0],"tree_param":{"num_deleted":"0","num_feature":"5","num_nodes":"9","size_leaf_vector":"1"}},{"base_weights":[2.5773363E-4,5.823476E-5,4.871655E-3,-7.5727774E-5,2.29955E-3,1.5203081E-4,5.479041E-3,4.2556526E-4,8.94822E-4],"categories":[],"categories_nodes":[],"categories_segments":[],"categories_sizes":[],"default_left":[0,0,0,0,0,0,0,0,0],"id":58,"left_children":[1,3,-1,-1,5,-1,7,-1,-1],"loss_changes":[7.0737563E-3,1.3360503E-3,0E0,0E0,4.748006E-4,0E0,1.2319733E-4,0E0,0E0],"parents":[2147483647,0,0,1,1,4,4,6,6],"right_children":[2,4,-1,-1,6,-1,8,-1,-1],"split_conditions":[1E0,2.5E-1,4.871655E-3,-7.5727774E-5,5E-1,1.5203081E-4,7.5E-1,4.2556526E-4,8.94822E-4],"split_indices":[0,0,0,0,0,0,0,0,0],"split_type":[0,0,0,0,0,0,0,0,0],"sum_hessian":[7.31E2,7.29E2,2E0,5.35E2,1.94E2,1.57E2,3.7E1,2.9E1,8E0],"tree_param":{"num_deleted":"0","num_feature":"5","num_nodes":"9","size_leaf_vector":"1"}},{"base_weights":[2.4051919E-4,5.4320044E-5,4.5468807E-3,-6.816913E-5,2.077129E-3,1.3692191E-4,4.9658827E-3,3.8442612E-4,8.1528554E-4],"categories":[],"categories_nodes":[],"categories_segments":[],"categories_sizes":[],"default_left":[0,0,0,0,0,0,0,0,0],"id":59,"left_children":[1,3,-1,-1,5,-1,7,-1,-1],"loss_changes":[6.1620455E-3,1.0882473E-3,0E0,0E0,3.919712E-4,0E0,1.0449224E-4,0E0,0E0],"parents":[2147483647,0,0,1,1,4,4,6,6],"right_children":[2,4,-1,-1,6,-1,8,-1,-1],"split_conditions":[1E0,2.5E-1,4.5468807E-3,-6.816913E-5,5E-1,1.3692191E-4,7.5E-1,3.8442612E-4,8.1528554E-4],"split_indices":[0,0,0,0,0,0,0,0,0],"split_type":[0,0,0,0,0,0,0,0,0],"sum_hessian":[7.31E2,7.29E2,2E0,5.35E2,1.94E2,1.57E2,3.7E1,2.9E1,8E0],"tree_param":{"num_deleted":"0","num_feature":"5","num_nodes":"9","size_leaf_vector":"1"}},{"base_weights":[2.2441181E-4,5.0625727E-5,4.2437552E-3,-6.136493E-5,1.8762707E-3,1.2331737E-4,4.500825E-3,3.4726263E-4,7.428063E-4],"categories":[],"categories_nodes":[],"categories_segments":[],"categories_sizes":[],"default_left":[0,0,0,0,0,0,0,0,0],"id":60,"left_children":[1,3,-1,-1,5,-1,7,-1,-1],"loss_changes":[5.3678444E-3,8.864446E-4,0E0,0E0,3.2357906E-4,0E0,8.8576926E-5,0E0,0E0],"parents":[2147483647,0,0,1,1,4,4,6,6],"right_children":[2,4,-1,-1,6,-1,8,-1,-1],"split_conditions":[1E0,2.5E-1,4.2437552E-3,-6.136493E-5,5E-1,1.2331737E-4,7.5E-1,3.4726263E-4,7.428063E-4],"split_indices":[0,0,0,0,0,0,0,0,0],"split_type":[0,0,0,0,0,0,0,0,0],"sum_hessian":[7.31E2,7.29E2,2E0,5.35E2,1.94E2,1.57E2,3.7E1,2.9E1,8E0],"tree_param":{"num_deleted":"0","num_feature":"5","num_nodes":"9","size_leaf_vector":"1"}},{"base_weights":[2.0933975E-4,4.7139365E-5,3.960832E-3,-5.523988E-5,1.694859E-3,1.1106322E-4,4.079411E-3,3.1369447E-4,6.767697E-4],"categories":[],"categories_nodes":[],"categories_segments":[],"categories_sizes":[],"default_left":[0,0,0,0,0,0,0,0,0],"id":61,"left_children":[1,3,-1,-1,5,-1,7,-1,-1],"loss_changes":[4.6760007E-3,7.220819E-4,0E0,0E0,2.6712753E-4,0E0,7.50476E-5,0E0,0E0],"parents":[2147483647,0,0,1,1,4,4,6,6],"right_children":[2,4,-1,-1,6,-1,8,-1,-1],"split_conditions":[1E0,2.5E-1,3.960832E-3,-5.523988E-5,5E-1,1.1106322E-4,7.5E-1,3.1369447E-4,6.767697E-4],"split_indices":[0,0,0,0,0,0,0,0,0],"split_type":[0,0,0,0,0,0,0,0,0],"sum_hessian":[7.31E2,7.29E2,2E0,5.35E2,1.94E2,1.57E2,3.7E1,2.9E1,8E0],"tree_param":{"num_deleted":"0","num_feature":"5","num_nodes":"9","size_leaf_vector":"1"}},{"base_weights":[1.9525137E-4,4.3864027E-5,3.6967755E-3,-4.97262E-5,1.5310419E-3,1.0002916E-4,3.6975553E-3,2.83376E-4,6.166035E-4],"categories":[],"categories_nodes":[],"categories_segments":[],"categories_sizes":[],"default_left":[0,0,0,0,0,0,0,0,0],"id":62,"left_children":[1,3,-1,-1,5,-1,7,-1,-1],"loss_changes":[4.073343E-3,5.882293E-4,0E0,0E0,2.2052755E-4,0E0,6.355287E-5,0E0,0E0],"parents":[2147483647,0,0,1,1,4,4,6,6],"right_children":[2,4,-1,-1,6,-1,8,-1,-1],"split_conditions":[1E0,2.5E-1,3.6967755E-3,-4.97262E-5,5E-1,1.0002916E-4,7.5E-1,2.83376E-4,6.166035E-4],"split_indices":[0,0,0,0,0,0,0,0,0],"split_type":[0,0,0,0,0,0,0,0,0],"sum_hessian":[7.31E2,7.29E2,2E0,5.35E2,1.94E2,1.57E2,3.7E1,2.9E1,8E0],"tree_param":{"num_deleted":"0","num_feature":"5","num_nodes":"9","size_leaf_vector":"1"}},{"base_weights":[1.8207882E-4,4.0783278E-5,3.45033E-3,-4.476286E-5,1.3830805E-3,9.00908E-5,3.3515065E-3,2.5598446E-4,5.617989E-4],"categories":[],"categories_nodes":[],"categories_segments":[],"categories_sizes":[],"default_left":[0,0,0,0,0,0,0,0,0],"id":63,"left_children":[1,3,-1,-1,5,-1,7,-1,-1],"loss_changes":[3.5483798E-3,4.7920266E-4,0E0,0E0,1.8205919E-4,0E0,5.3801778E-5,0E0,0E0],"parents":[2147483647,0,0,1,1,4,4,6,6],"right_children":[2,4,-1,-1,6,-1,8,-1,-1],"split_conditions":[1E0,2.5E-1,3.45033E-3,-4.476286E-5,5E-1,9.00908E-5,7.5E-1,2.5598446E-4,5.617989E-4],"split_indices":[0,0,0,0,0,0,0,0,0],"split_type":[0,0,0,0,0,0,0,0,0],"sum_hessian":[7.31E2,7.29E2,2E0,5.35E2,1.94E2,1.57E2,3.7E1,2.9E1,8E0],"tree_param":{"num_deleted":"0","num_feature":"5","num_nodes":"9","size_leaf_vector":"1"}},{"base_weights":[1.6977209E-4,3.7895956E-5,3.2203037E-3,-4.0294923E-5,1.2494607E-3,8.114154E-5,3.0379265E-3,2.3124336E-4,5.118688E-4],"categories":[],"categories_nodes":[],"categories_segments":[],"categories_sizes":[],"default_left":[0,0,0,0,0,0,0,0,0],"id":64,"left_children":[1,3,-1,-1,5,-1,7,-1,-1],"loss_changes":[3.0910573E-3,3.904056E-4,0E0,0E0,1.5030362E-4,0E0,4.5527355E-5,0E0,0E0],"parents":[2147483647,0,0,1,1,4,4,6,6],"right_children":[2,4,-1,-1,6,-1,8,-1,-1],"split_conditions":[1E0,2.5E-1,3.2203037E-3,-4.0294923E-5,5E-1,8.114154E-5,7.5E-1,2.3124336E-4,5.118688E-4],"split_indices":[0,0,0,0,0,0,0,0,0],"split_type":[0,0,0,0,0,0,0,0,0],"sum_hessian":[7.31E2,7.29E2,2E0,5.35E2,1.94E2,1.57E2,3.7E1,2.9E1,8E0],"tree_param":{"num_deleted":"0","num_feature":"5","num_nodes":"9","size_leaf_vector":"1"}},{"base_weights":[1.5826827E-4,3.518342E-5,3.005616E-3,-3.6272948E-5,1.1287533E-3,7.308069E-5,2.7536687E-3,2.0888766E-4,4.6636793E-4],"categories":[],"categories_nodes":[],"categories_segments":[],"categories_sizes":[],"default_left":[0,0,0,0,0,0,0,0,0],"id":65,"left_children":[1,3,-1,-1,5,-1,7,-1,-1],"loss_changes":[2.692686E-3,3.180657E-4,0E0,0E0,1.2408031E-4,0E0,3.8509024E-5,0E0,0E0],"parents":[2147483647,0,0,1,1,4,4,6,6],"right_children":[2,4,-1,-1,6,-1,8,-1,-1],"split_conditions":[1E0,2.5E-1,3.005616E-3,-3.6272948E-5,5E-1,7.308069E-5,7.5E-1,2.0888766E-4,4.6636793E-4],"split_indices":[0,0,0,0,0,0,0,0,0],"split_type":[0,0,0,0,0,0,0,0,0],"sum_hessian":[7.31E2,7.29E2,2E0,5.35E2,1.94E2,1.57E2,3.7E1,2.9E1,8E0],"tree_param":{"num_deleted":"0","num_feature":"5","num_nodes":"9","size_leaf_vector":"1"}},{"base_weights":[1.4752324E-4,3.264321E-5,2.8052488E-3,-3.265242E-5,1.0197257E-3,6.581941E-5,2.4961014E-3,1.8869838E-4,4.249149E-4],"categories":[],"categories_nodes":[],"categories_segments":[],"categories_sizes":[],"default_left":[0,0,0,0,0,0,0,0,0],"id":66,"left_children":[1,3,-1,-1,5,-1,7,-1,-1],"loss_changes":[2.3456737E-3,2.591383E-4,0E0,0E0,1.0243962E-4,0E0,3.255876E-5,0E0,0E0],"parents":[2147483647,0,0,1,1,4,4,6,6],"right_children":[2,4,-1,-1,6,-1,8,-1,-1],"split_conditions":[1E0,2.5E-1,2.8052488E-3,-3.265242E-5,5E-1,6.581941E-5,7.5E-1,1.8869838E-4,4.249149E-4],"split_indices":[0,0,0,0,0,0,0,0,0],"split_type":[0,0,0,0,0,0,0,0,0],"sum_hessian":[7.31E2,7.29E2,2E0,5.35E2,1.94E2,1.57E2,3.7E1,2.9E1,8E0],"tree_param":{"num_deleted":"0","num_feature":"5","num_nodes":"9","size_leaf_vector":"1"}},{"base_weights":[1.3749044E-4,3.0268498E-5,2.6182334E-3,-2.9393272E-5,9.212509E-4,5.928071E-5,2.2626426E-3,1.7045658E-4,3.871494E-4],"categories":[],"categories_nodes":[],"categories_segments":[],"categories_sizes":[],"default_left":[0,0,0,0,0,0,0,0,0],"id":67,"left_children":[1,3,-1,-1,5,-1,7,-1,-1],"loss_changes":[2.0433753E-3,2.1113681E-4,0E0,0E0,8.45702E-5,0E0,2.7519563E-5,0E0,0E0],"parents":[2147483647,0,0,1,1,4,4,6,6],"right_children":[2,4,-1,-1,6,-1,8,-1,-1],"split_conditions":[1E0,2.5E-1,2.6182334E-3,-2.9393272E-5,5E-1,5.928071E-5,7.5E-1,1.7045658E-4,3.871494E-4],"split_indices":[0,0,0,0,0,0,0,0,0],"split_type":[0,0,0,0,0,0,0,0,0],"sum_hessian":[7.31E2,7.29E2,2E0,5.35E2,1.94E2,1.57E2,3.7E1,2.9E1,8E0],"tree_param":{"num_deleted":"0","num_feature":"5","num_nodes":"9","size_leaf_vector":"1"}},{"base_weights":[1.2811406E-4,2.8039889E-5,2.4436794E-3,-2.6459427E-5,8.3226484E-4,5.338758E-5,2.0510335E-3,1.5397788E-4,3.5273234E-4],"categories":[],"categories_nodes":[],"categories_segments":[],"categories_sizes":[],"default_left":[0,0,0,0,0,0,0,0,0],"id":68,"left_children":[1,3,-1,-1,5,-1,7,-1,-1],"loss_changes":[1.7800297E-3,1.7202111E-4,0E0,0E0,6.9820104E-5,0E0,2.3249595E-5,0E0,0E0],"parents":[2147483647,0,0,1,1,4,4,6,6],"right_children":[2,4,-1,-1,6,-1,8,-1,-1],"split_conditions":[1E0,2.5E-1,2.4436794E-3,-2.6459427E-5,5E-1,5.338758E-5,7.5E-1,1.5397788E-4,3.5273234E-4],"split_indices":[0,0,0,0,0,0,0,0,0],"split_type":[0,0,0,0,0,0,0,0,0],"sum_hessian":[7.31E2,7.29E2,2E0,5.35E2,1.94E2,1.57E2,3.7E1,2.9E1,8E0],"tree_param":{"num_deleted":"0","num_feature":"5","num_nodes":"9","size_leaf_vector":"1"}},{"base_weights":[1.1936544E-4,2.5962612E-5,2.2807599E-3,-2.381842E-5,7.5189455E-4,4.8080805E-5,1.8592571E-3,1.3908943E-4,3.2138824E-4],"categories":[],"categories_nodes":[],"categories_segments":[],"categories_sizes":[],"default_left":[0,0,0,0,0,0,0,0,0],"id":69,"left_children":[1,3,-1,-1,5,-1,7,-1,-1],"loss_changes":[1.550622E-3,1.401585E-4,0E0,0E0,5.7643316E-5,0E0,1.9639163E-5,0E0,0E0],"parents":[2147483647,0,0,1,1,4,4,6,6],"right_children":[2,4,-1,-1,6,-1,8,-1,-1],"split_conditions":[1E0,2.5E-1,2.2807599E-3,-2.381842E-5,5E-1,4.8080805E-5,7.5E-1,1.3908943E-4,3.2138824E-4],"split_indices":[0,0,0,0,0,0,0,0,0],"split_type":[0,0,0,0,0,0,0,0,0],"sum_hessian":[7.31E2,7.29E2,2E0,5.35E2,1.94E2,1.57E2,3.7E1,2.9E1,8E0],"tree_param":{"num_deleted":"0","num_feature":"5","num_nodes":"9","size_leaf_vector":"1"}},{"base_weights":[1.112016E-4,2.4024936E-5,2.1287124E-3,-2.1441023E-5,6.792927E-4,4.3301156E-5,1.685428E-3,1.2564143E-4,2.928204E-4],"categories":[],"categories_nodes":[],"categories_segments":[],"categories_sizes":[],"default_left":[0,0,0,0,0,0,0,0,0],"id":70,"left_children":[1,3,-1,-1,5,-1,7,-1,-1],"loss_changes":[1.3507945E-3,1.1420003E-4,0E0,0E0,4.7589667E-5,0E0,1.6581347E-5,0E0,0E0],"parents":[2147483647,0,0,1,1,4,4,6,6],"right_children":[2,4,-1,-1,6,-1,8,-1,-1],"split_conditions":[1E0,2.5E-1,2.1287124E-3,-2.1441023E-5,5E-1,4.3301156E-5,7.5E-1,1.2564143E-4,2.928204E-4],"split_indices":[0,0,0,0,0,0,0,0,0],"split_type":[0,0,0,0,0,0,0,0,0],"sum_hessian":[7.31E2,7.29E2,2E0,5.35E2,1.94E2,1.57E2,3.7E1,2.9E1,8E0],"tree_param":{"num_deleted":"0","num_feature":"5","num_nodes":"9","size_leaf_vector":"1"}},{"base_weights":[1.0359766E-4,2.2231945E-5,1.9868056E-3,-1.930092E-5,6.1375514E-4,5.116077E-4,2.6679572E-4,3.9001243E-5,1.1349559E-4],"categories":[],"categories_nodes":[],"categories_segments":[],"categories_sizes":[],"default_left":[0,0,0,0,0,0,0,0,0],"id":71,"left_children":[1,3,-1,-1,5,7,-1,-1,-1],"loss_changes":[1.1767235E-3,9.306216E-5,0E0,0E0,3.9552186E-5,1.3731242E-5,0E0,0E0,0E0],"parents":[2147483647,0,0,1,1,4,4,5,5],"right_children":[2,4,-1,-1,6,8,-1,-1,-1],"split_conditions":[1E0,2.5E-1,1.9868056E-3,-1.930092E-5,7.5E-1,5E-1,2.6679572E-4,3.9001243E-5,1.1349559E-4],"split_indices":[0,0,0,0,0,0,0,0,0],"split_type":[0,0,0,0,0,0,0,0,0],"sum_hessian":[7.31E2,7.29E2,2E0,5.35E2,1.94E2,1.86E2,8E0,1.57E2,2.9E1],"tree_param":{"num_deleted":"0","num_feature":"5","num_nodes":"9","size_leaf_vector":"1"}},{"base_weights":[9.6503354E-5,2.0561332E-5,1.8543563E-3,-1.737443E-5,5.5454724E-4,4.6128035E-4,2.43081E-4,3.512777E-5,1.0252516E-4],"categories":[],"categories_nodes":[],"categories_segments":[],"categories_sizes":[],"default_left":[0,0,0,0,0,0,0,0,0],"id":72,"left_children":[1,3,-1,-1,5,7,-1,-1,-1],"loss_changes":[1.0250825E-3,7.5838565E-5,0E0,0E0,3.300239E-5,1.1241016E-5,0E0,0E0,0E0],"parents":[2147483647,0,0,1,1,4,4,5,5],"right_children":[2,4,-1,-1,6,8,-1,-1,-1],"split_conditions":[1E0,2.5E-1,1.8543563E-3,-1.737443E-5,7.5E-1,5E-1,2.43081E-4,3.512777E-5,1.0252516E-4],"split_indices":[0,0,0,0,0,0,0,0,0],"split_type":[0,0,0,0,0,0,0,0,0],"sum_hessian":[7.31E2,7.29E2,2E0,5.35E2,1.94E2,1.86E2,8E0,1.57E2,2.9E1],"tree_param":{"num_deleted":"0","num_feature":"5","num_nodes":"9","size_leaf_vector":"1"}},{"base_weights":[8.988599E-5,1.9006437E-5,1.7307282E-3,-1.5640228E-5,5.0105806E-4,4.1590654E-4,2.2146436E-4,3.163928E-5,9.261489E-5],"categories":[],"categories_nodes":[],"categories_segments":[],"categories_sizes":[],"default_left":[0,0,0,0,0,0,0,0,0],"id":73,"left_children":[1,3,-1,-1,5,7,-1,-1,-1],"loss_changes":[8.929755E-4,6.180428E-5,0E0,0E0,2.7532213E-5,9.202111E-6,0E0,0E0,0E0],"parents":[2147483647,0,0,1,1,4,4,5,5],"right_children":[2,4,-1,-1,6,8,-1,-1,-1],"split_conditions":[1E0,2.5E-1,1.7307282E-3,-1.5640228E-5,7.5E-1,5E-1,2.2146436E-4,3.163928E-5,9.261489E-5],"split_indices":[0,0,0,0,0,0,0,0,0],"split_type":[0,0,0,0,0,0,0,0,0],"sum_hessian":[7.31E2,7.29E2,2E0,5.35E2,1.94E2,1.86E2,8E0,1.57E2,2.9E1],"tree_param":{"num_deleted":"0","num_feature":"5","num_nodes":"9","size_leaf_vector":"1"}},{"base_weights":[8.37098E-5,1.7554916E-5,1.6153494E-3,-1.40791235E-5,4.5271378E-4,3.7496962E-4,2.017763E-4,2.8494303E-5,8.366108E-5],"categories":[],"categories_nodes":[],"categories_segments":[],"categories_sizes":[],"default_left":[0,0,0,0,0,0,0,0,0],"id":74,"left_children":[1,3,-1,-1,5,7,-1,-1,-1],"loss_changes":[7.779018E-4,5.036492E-5,0E0,0E0,2.2969718E-5,7.5333337E-6,0E0,0E0,0E0],"parents":[2147483647,0,0,1,1,4,4,5,5],"right_children":[2,4,-1,-1,6,8,-1,-1,-1],"split_conditions":[1E0,2.5E-1,1.6153494E-3,-1.40791235E-5,7.5E-1,5E-1,2.017763E-4,2.8494303E-5,8.366108E-5],"split_indices":[0,0,0,0,0,0,0,0,0],"split_type":[0,0,0,0,0,0,0,0,0],"sum_hessian":[7.31E2,7.29E2,2E0,5.35E2,1.94E2,1.86E2,8E0,1.57E2,2.9E1],"tree_param":{"num_deleted":"0","num_feature":"5","num_nodes":"9","size_leaf_vector":"1"}},{"base_weights":[7.7955956E-5,1.6210752E-5,1.5076638E-3,-3.951495E-5,1.032045E-3,-1.2673838E-5,2.5663234E-5,7.557154E-5,1.8384722E-4],"categories":[],"categories_nodes":[],"categories_segments":[],"categories_sizes":[],"default_left":[0,0,0,0,0,0,0,0,0],"id":75,"left_children":[1,3,-1,5,7,-1,-1,-1,-1],"loss_changes":[6.776584E-4,4.136468E-5,0E0,1.7933395E-5,7.0785463E-6,0E0,0E0,0E0,0E0],"parents":[2147483647,0,0,1,1,3,3,4,4],"right_children":[2,4,-1,6,8,-1,-1,-1,-1],"split_conditions":[1E0,5E-1,1.5076638E-3,2.5E-1,7.5E-1,-1.2673838E-5,2.5663234E-5,7.557154E-5,1.8384722E-4],"split_indices":[0,0,0,0,0,0,0,0,0],"split_type":[0,0,0,0,0,0,0,0,0],"sum_hessian":[7.31E2,7.29E2,2E0,6.92E2,3.7E1,5.35E2,1.57E2,2.9E1,8E0],"tree_param":{"num_deleted":"0","num_feature":"5","num_nodes":"9","size_leaf_vector":"1"}},{"base_weights":[7.258624E-5,1.4957174E-5,1.4071465E-3,-3.5550685E-5,9.356674E-4,-1.1408818E-5,2.3110531E-5,6.8265595E-5,1.675076E-4],"categories":[],"categories_nodes":[],"categories_segments":[],"categories_sizes":[],"default_left":[0,0,0,0,0,0,0,0,0],"id":76,"left_children":[1,3,-1,5,7,-1,-1,-1,-1],"loss_changes":[5.903249E-4,3.3980534E-5,0E0,1.4539515E-5,5.965496E-6,0E0,0E0,0E0,0E0],"parents":[2147483647,0,0,1,1,3,3,4,4],"right_children":[2,4,-1,6,8,-1,-1,-1,-1],"split_conditions":[1E0,5E-1,1.4071465E-3,2.5E-1,7.5E-1,-1.1408818E-5,2.3110531E-5,6.8265595E-5,1.675076E-4],"split_indices":[0,0,0,0,0,0,0,0,0],"split_type":[0,0,0,0,0,0,0,0,0],"sum_hessian":[7.31E2,7.29E2,2E0,6.92E2,3.7E1,5.35E2,1.57E2,2.9E1,8E0],"tree_param":{"num_deleted":"0","num_feature":"5","num_nodes":"9","size_leaf_vector":"1"}},{"base_weights":[6.7581845E-5,1.37942625E-5,1.3133367E-3,-3.1982374E-5,8.482525E-4,-1.0270065E-5,2.081251E-5,6.16626E-5,1.5260908E-4],"categories":[],"categories_nodes":[],"categories_segments":[],"categories_sizes":[],"default_left":[0,0,0,0,0,0,0,0,0],"id":77,"left_children":[1,3,-1,5,7,-1,-1,-1,-1],"loss_changes":[5.142516E-4,2.7912174E-5,0E0,1.1788505E-5,5.0251747E-6,0E0,0E0,0E0,0E0],"parents":[2147483647,0,0,1,1,3,3,4,4],"right_children":[2,4,-1,6,8,-1,-1,-1,-1],"split_conditions":[1E0,5E-1,1.3133367E-3,2.5E-1,7.5E-1,-1.0270065E-5,2.081251E-5,6.16626E-5,1.5260908E-4],"split_indices":[0,0,0,0,0,0,0,0,0],"split_type":[0,0,0,0,0,0,0,0,0],"sum_hessian":[7.31E2,7.29E2,2E0,6.92E2,3.7E1,5.35E2,1.57E2,2.9E1,8E0],"tree_param":{"num_deleted":"0","num_feature":"5","num_nodes":"9","size_leaf_vector":"1"}},{"base_weights":[6.292838E-5,1.2726536E-5,1.2257736E-3,-2.8766546E-5,7.690944E-4,-9.2449745E-6,1.8745472E-5,5.5704913E-5,1.3904572E-4],"categories":[],"categories_nodes":[],"categories_segments":[],"categories_sizes":[],"default_left":[0,0,0,0,0,0,0,0,0],"id":78,"left_children":[1,3,-1,5,7,-1,-1,-1,-1],"loss_changes":[4.479757E-4,2.2932469E-5,0E0,9.559706E-6,4.2322154E-6,0E0,0E0,0E0,0E0],"parents":[2147483647,0,0,1,1,3,3,4,4],"right_children":[2,4,-1,6,8,-1,-1,-1,-1],"split_conditions":[1E0,5E-1,1.2257736E-3,2.5E-1,7.5E-1,-9.2449745E-6,1.8745472E-5,5.5704913E-5,1.3904572E-4],"split_indices":[0,0,0,0,0,0,0,0,0],"split_type":[0,0,0,0,0,0,0,0,0],"sum_hessian":[7.31E2,7.29E2,2E0,6.92E2,3.7E1,5.35E2,1.57E2,2.9E1,8E0],"tree_param":{"num_deleted":"0","num_feature":"5","num_nodes":"9","size_leaf_vector":"1"}},{"base_weights":[5.8597532E-5,1.17419295E-5,1.1440595E-3,-2.586947E-5,6.973461E-4,-8.322202E-6,1.6885733E-5,5.0323404E-5,1.2669034E-4],"categories":[],"categories_nodes":[],"categories_segments":[],"categories_sizes":[],"default_left":[0,0,0,0,0,0,0,0,0],"id":79,"left_children":[1,3,-1,5,7,-1,-1,-1,-1],"loss_changes":[3.9024884E-4,1.8842211E-5,0E0,7.75353E-6,3.5636513E-6,0E0,0E0,0E0,0E0],"parents":[2147483647,0,0,1,1,3,3,4,4],"right_children":[2,4,-1,6,8,-1,-1,-1,-1],"split_conditions":[1E0,5E-1,1.1440595E-3,2.5E-1,7.5E-1,-8.322202E-6,1.6885733E-5,5.0323404E-5,1.2669034E-4],"split_indices":[0,0,0,0,0,0,0,0,0],"split_type":[0,0,0,0,0,0,0,0,0],"sum_hessian":[7.31E2,7.29E2,2E0,6.92E2,3.7E1,5.35E2,1.57E2,2.9E1,8E0],"tree_param":{"num_deleted":"0","num_feature":"5","num_nodes":"9","size_leaf_vector":"1"}},{"base_weights":[5.455936E-5,1.0827408E-5,1.0677815E-3,-2.3266175E-5,6.3230173E-4,-7.4915342E-6,1.5209596E-5,4.5460463E-5,1.1543698E-4],"categories":[],"categories_nodes":[],"categories_segments":[],"categories_sizes":[],"default_left":[0,0,0,0,0,0,0,0,0],"id":80,"left_children":[1,3,-1,5,7,-1,-1,-1,-1],"loss_changes":[3.3995378E-4,1.5482161E-5,0E0,6.288109E-6,3.0004767E-6,0E0,0E0,0E0,0E0],"parents":[2147483647,0,0,1,1,3,3,4,4],"right_children":[2,4,-1,6,8,-1,-1,-1,-1],"split_conditions":[1E0,5E-1,1.0677815E-3,2.5E-1,7.5E-1,-7.4915342E-6,1.5209596E-5,4.5460463E-5,1.1543698E-4],"split_indices":[0,0,0,0,0,0,0,0,0],"split_type":[0,0,0,0,0,0,0,0,0],"sum_hessian":[7.31E2,7.29E2,2E0,6.92E2,3.7E1,5.35E2,1.57E2,2.9E1,8E0],"tree_param":{"num_deleted":"0","num_feature":"5","num_nodes":"9","size_leaf_vector":"1"}},{"base_weights":[5.079658E-5,9.980011E-6,9.965897E-4,-2.0926058E-5,5.733465E-4,-6.743778E-6,1.36992985E-5,4.1069983E-5,1.05179686E-4],"categories":[],"categories_nodes":[],"categories_segments":[],"categories_sizes":[],"default_left":[0,0,0,0,0,0,0,0,0],"id":81,"left_children":[1,3,-1,5,7,-1,-1,-1,-1],"loss_changes":[2.9614122E-4,1.2722351E-5,0E0,5.099383E-6,2.5251247E-6,0E0,0E0,0E0,0E0],"parents":[2147483647,0,0,1,1,3,3,4,4],"right_children":[2,4,-1,6,8,-1,-1,-1,-1],"split_conditions":[1E0,5E-1,9.965897E-4,2.5E-1,7.5E-1,-6.743778E-6,1.36992985E-5,4.1069983E-5,1.05179686E-4],"split_indices":[0,0,0,0,0,0,0,0,0],"split_type":[0,0,0,0,0,0,0,0,0],"sum_hessian":[7.31E2,7.29E2,2E0,6.92E2,3.7E1,5.35E2,1.57E2,2.9E1,8E0],"tree_param":{"num_deleted":"0","num_feature":"5","num_nodes":"9","size_leaf_vector":"1"}},{"base_weights":[4.7283727E-5,9.187914E-6,9.3015033E-4,-1.8825627E-5,5.198247E-4,-6.0706584E-6,1.2337067E-5,3.7094356E-5,9.5833675E-5],"categories":[],"categories_nodes":[],"categories_segments":[],"categories_sizes":[],"default_left":[0,0,0,0,0,0,0,0,0],"id":82,"left_children":[1,3,-1,5,7,-1,-1,-1,-1],"loss_changes":[2.5797894E-4,1.0452249E-5,0E0,4.1345234E-6,2.1253854E-6,0E0,0E0,0E0,0E0],"parents":[2147483647,0,0,1,1,3,3,4,4],"right_children":[2,4,-1,6,8,-1,-1,-1,-1],"split_conditions":[1E0,5E-1,9.3015033E-4,2.5E-1,7.5E-1,-6.0706584E-6,1.2337067E-5,3.7094356E-5,9.5833675E-5],"split_indices":[0,0,0,0,0,0,0,0,0],"split_type":[0,0,0,0,0,0,0,0,0],"sum_hessian":[7.31E2,7.29E2,2E0,6.92E2,3.7E1,5.35E2,1.57E2,2.9E1,8E0],"tree_param":{"num_deleted":"0","num_feature":"5","num_nodes":"9","size_leaf_vector":"1"}},{"base_weights":[4.4016877E-5,8.460253E-6,8.6814567E-4,-1.693427E-5,4.7135353E-4,-5.464725E-6,1.111106E-5,3.3510525E-5,8.731418E-5],"categories":[],"categories_nodes":[],"categories_segments":[],"categories_sizes":[],"default_left":[0,0,0,0,0,0,0,0,0],"id":83,"left_children":[1,3,-1,5,7,-1,-1,-1,-1],"loss_changes":[2.2473706E-4,8.589098E-6,0E0,3.3525364E-6,1.7876391E-6,0E0,0E0,0E0,0E0],"parents":[2147483647,0,0,1,1,3,3,4,4],"right_children":[2,4,-1,6,8,-1,-1,-1,-1],"split_conditions":[1E0,5E-1,8.6814567E-4,2.5E-1,7.5E-1,-5.464725E-6,1.111106E-5,3.3510525E-5,8.731418E-5],"split_indices":[0,0,0,0,0,0,0,0,0],"split_type":[0,0,0,0,0,0,0,0,0],"sum_hessian":[7.31E2,7.29E2,2E0,6.92E2,3.7E1,5.35E2,1.57E2,2.9E1,8E0],"tree_param":{"num_deleted":"0","num_feature":"5","num_nodes":"9","size_leaf_vector":"1"}},{"base_weights":[4.0980485E-5,7.793852E-6,8.1027346E-4,-1.5227123E-5,4.2741862E-4,-4.9192718E-6,1.0009431E-5,3.0272406E-5,7.9557634E-5],"categories":[],"categories_nodes":[],"categories_segments":[],"categories_sizes":[],"default_left":[0,0,0,0,0,0,0,0,0],"id":84,"left_children":[1,3,-1,5,7,-1,-1,-1,-1],"loss_changes":[1.9577798E-4,7.0584333E-6,0E0,2.7193778E-6,1.5036367E-6,0E0,0E0,0E0,0E0],"parents":[2147483647,0,0,1,1,3,3,4,4],"right_children":[2,4,-1,6,8,-1,-1,-1,-1],"split_conditions":[1E0,5E-1,8.1027346E-4,2.5E-1,7.5E-1,-4.9192718E-6,1.0009431E-5,3.0272406E-5,7.9557634E-5],"split_indices":[0,0,0,0,0,0,0,0,0],"split_type":[0,0,0,0,0,0,0,0,0],"sum_hessian":[7.31E2,7.29E2,2E0,6.92E2,3.7E1,5.35E2,1.57E2,2.9E1,8E0],"tree_param":{"num_deleted":"0","num_feature":"5","num_nodes":"9","size_leaf_vector":"1"}},{"base_weights":[3.814409E-5,7.1699174E-6,7.5624784E-4,-1.3698006E-5,3.8754626E-4,-4.4282624E-6,9.01441E-6,2.7345419E-5,7.247925E-5],"categories":[],"categories_nodes":[],"categories_segments":[],"categories_sizes":[],"default_left":[0,0,0,0,0,0,0,0,0],"id":85,"left_children":[1,3,-1,5,7,-1,-1,-1,-1],"loss_changes":[1.7054573E-4,5.799804E-6,0E0,2.2049398E-6,1.263933E-6,0E0,0E0,0E0,0E0],"parents":[2147483647,0,0,1,1,3,3,4,4],"right_children":[2,4,-1,6,8,-1,-1,-1,-1],"split_conditions":[1E0,5E-1,7.5624784E-4,2.5E-1,7.5E-1,-4.4282624E-6,9.01441E-6,2.7345419E-5,7.247925E-5],"split_indices":[0,0,0,0,0,0,0,0,0],"split_type":[0,0,0,0,0,0,0,0,0],"sum_hessian":[7.31E2,7.29E2,2E0,6.92E2,3.7E1,5.35E2,1.57E2,2.9E1,8E0],"tree_param":{"num_deleted":"0","num_feature":"5","num_nodes":"9","size_leaf_vector":"1"}},{"base_weights":[3.5510267E-5,6.6008342E-6,7.058302E-4,-1.2318393E-5,3.5145407E-4,-3.9862625E-6,8.120077E-6,2.4706524E-5,6.603665E-5],"categories":[],"categories_nodes":[],"categories_segments":[],"categories_sizes":[],"default_left":[0,0,0,0,0,0,0,0,0],"id":86,"left_children":[1,3,-1,5,7,-1,-1,-1,-1],"loss_changes":[1.4856768E-4,4.7671097E-6,0E0,1.7883448E-6,1.062233E-6,0E0,0E0,0E0,0E0],"parents":[2147483647,0,0,1,1,3,3,4,4],"right_children":[2,4,-1,6,8,-1,-1,-1,-1],"split_conditions":[1E0,5E-1,7.058302E-4,2.5E-1,7.5E-1,-3.9862625E-6,8.120077E-6,2.4706524E-5,6.603665E-5],"split_indices":[0,0,0,0,0,0,0,0,0],"split_type":[0,0,0,0,0,0,0,0,0],"sum_hessian":[7.31E2,7.29E2,2E0,6.92E2,3.7E1,5.35E2,1.57E2,2.9E1,8E0],"tree_param":{"num_deleted":"0","num_feature":"5","num_nodes":"9","size_leaf_vector":"1"}},{"base_weights":[3.3057517E-5,6.07484E-6,6.587824E-4,-1.107745E-5,3.187186E-5,-3.5883797E-6,7.3145843E-6],"categories":[],"categories_nodes":[],"categories_segments":[],"categories_sizes":[],"default_left":[0,0,0,0,0,0,0],"id":87,"left_children":[1,3,-1,5,-1,-1,-1],"loss_changes":[1.2942524E-4,3.9181964E-6,0E0,1.4504903E-6,0E0,0E0,0E0],"parents":[2147483647,0,0,1,1,3,3],"right_children":[2,4,-1,6,-1,-1,-1],"split_conditions":[1E0,5E-1,6.587824E-4,2.5E-1,3.187186E-5,-3.5883797E-6,7.3145843E-6],"split_indices":[0,0,0,0,0,0,0],"split_type":[0,0,0,0,0,0,0],"sum_hessian":[7.31E2,7.29E2,2E0,6.92E2,3.7E1,5.35E2,1.57E2],"tree_param":{"num_deleted":"0","num_feature":"5","num_nodes":"7","size_leaf_vector":"1"}},{"base_weights":[3.0697727E-5,5.513381E-6,6.148656E-4,-9.968133E-6,2.8770222E-5,-3.2302112E-6,6.5860872E-6],"categories":[],"categories_nodes":[],"categories_segments":[],"categories_sizes":[],"default_left":[0,0,0,0,0,0,0],"id":88,"left_children":[1,3,-1,5,-1,-1,-1],"loss_changes":[1.1275031E-4,3.1920263E-6,0E0,1.175767E-6,0E0,0E0,0E0],"parents":[2147483647,0,0,1,1,3,3],"right_children":[2,4,-1,6,-1,-1,-1],"split_conditions":[1E0,5E-1,6.148656E-4,2.5E-1,2.8770222E-5,-3.2302112E-6,6.5860872E-6],"split_indices":[0,0,0,0,0,0,0],"split_type":[0,0,0,0,0,0,0],"sum_hessian":[7.31E2,7.29E2,2E0,6.92E2,3.7E1,5.35E2,1.57E2],"tree_param":{"num_deleted":"0","num_feature":"5","num_nodes":"7","size_leaf_vector":"1"}},{"base_weights":[2.8518882E-5,5.013172E-6,5.738735E-4,-1.7575807E-6,5.47621E-5,-2.907793E-6,7.656042E-6],"categories":[],"categories_nodes":[],"categories_segments":[],"categories_sizes":[],"default_left":[0,0,0,0,0,0,0],"id":89,"left_children":[1,3,-1,5,-1,-1,-1],"loss_changes":[9.8222234E-5,2.6828827E-6,0E0,1.5470716E-6,0E0,0E0,0E0],"parents":[2147483647,0,0,1,1,3,3],"right_children":[2,4,-1,6,-1,-1,-1],"split_conditions":[1E0,7.5E-1,5.738735E-4,2.5E-1,5.47621E-5,-2.907793E-6,7.656042E-6],"split_indices":[0,0,0,0,0,0,0],"split_type":[0,0,0,0,0,0,0],"sum_hessian":[7.31E2,7.29E2,2E0,7.21E2,8E0,5.35E2,1.86E2],"tree_param":{"num_deleted":"0","num_feature":"5","num_nodes":"7","size_leaf_vector":"1"}},{"base_weights":[2.6538231E-5,4.5993525E-6,5.356153E-4,-8.4433935E-7,2.4233681E-5],"categories":[],"categories_nodes":[],"categories_segments":[],"categories_sizes":[],"default_left":[0,0,0,0,0],"id":90,"left_children":[1,3,-1,-1,-1],"loss_changes":[8.556503E-5,2.265593E-6,0E0,0E0,0E0],"parents":[2147483647,0,0,1,1],"right_children":[2,4,-1,-1,-1],"split_conditions":[1E0,5E-1,5.356153E-4,-8.4433935E-7,2.4233681E-5],"split_indices":[0,0,0,0,0],"split_type":[0,0,0,0,0],"sum_hessian":[7.31E2,7.29E2,2E0,6.92E2,3.7E1],"tree_param":{"num_deleted":"0","num_feature":"5","num_nodes":"5","size_leaf_vector":"1"}},{"base_weights":[2.4646079E-5,4.16976E-6,4.999002E-4,-1.7332749E-6,4.7726102E-5,-2.53328E-6,6.5919553E-6],"categories":[],"categories_nodes":[],"categories_segments":[],"categories_sizes":[],"default_left":[0,0,0,0,0,0,0],"id":91,"left_children":[1,3,-1,5,-1,-1,-1],"loss_changes":[7.4538104E-5,2.0394793E-6,0E0,1.1543967E-6,0E0,0E0,0E0],"parents":[2147483647,0,0,1,1,3,3],"right_children":[2,4,-1,6,-1,-1,-1],"split_conditions":[1E0,7.5E-1,4.999002E-4,2.5E-1,4.7726102E-5,-2.53328E-6,6.5919553E-6],"split_indices":[0,0,0,0,0,0,0],"split_type":[0,0,0,0,0,0,0],"sum_hessian":[7.31E2,7.29E2,2E0,7.21E2,8E0,5.35E2,1.86E2],"tree_param":{"num_deleted":"0","num_feature":"5","num_nodes":"7","size_leaf_vector":"1"}},{"base_weights":[2.293165E-5,3.820398E-6,4.665693E-4,-1.5581566E-7,4.348755E-5],"categories":[],"categories_nodes":[],"categories_segments":[],"categories_sizes":[],"default_left":[0,0,0,0,0],"id":92,"left_children":[1,3,-1,-1,-1],"loss_changes":[6.493179E-5,1.6931485E-6,0E0,0E0,0E0],"parents":[2147483647,0,0,1,1],"right_children":[2,4,-1,-1,-1],"split_conditions":[1E0,7.5E-1,4.665693E-4,-1.5581566E-7,4.348755E-5],"split_indices":[0,0,0,0,0],"split_type":[0,0,0,0,0],"sum_hessian":[7.31E2,7.29E2,2E0,7.21E2,8E0],"tree_param":{"num_deleted":"0","num_feature":"5","num_nodes":"5","size_leaf_vector":"1"}},{"base_weights":[2.1339554E-5,3.5022542E-6,4.354636E-4,-6.984891E-7,1.946625E-5],"categories":[],"categories_nodes":[],"categories_segments":[],"categories_sizes":[],"default_left":[0,0,0,0,0],"id":93,"left_children":[1,3,-1,-1,-1],"loss_changes":[5.6564175E-5,1.4648091E-6,0E0,0E0,0E0],"parents":[2147483647,0,0,1,1],"right_children":[2,4,-1,-1,-1],"split_conditions":[1E0,5E-1,4.354636E-4,-6.984891E-7,1.946625E-5],"split_indices":[0,0,0,0,0],"split_type":[0,0,0,0,0],"sum_hessian":[7.31E2,7.29E2,2E0,6.92E2,3.7E1],"tree_param":{"num_deleted":"0","num_feature":"5","num_nodes":"5","size_leaf_vector":"1"}},{"base_weights":[1.9830506E-5,3.1818179E-6,4.0644011E-4,-1.5063881E-7,3.789266E-5],"categories":[],"categories_nodes":[],"categories_segments":[],"categories_sizes":[],"default_left":[0,0,0,0,0],"id":94,"left_children":[1,3,-1,-1,-1],"loss_changes":[4.9277594E-5,1.2865162E-6,0E0,0E0,0E0],"parents":[2147483647,0,0,1,1],"right_children":[2,4,-1,-1,-1],"split_conditions":[1E0,7.5E-1,4.0644011E-4,-1.5063881E-7,3.789266E-5],"split_indices":[0,0,0,0,0],"split_type":[0,0,0,0,0],"sum_hessian":[7.31E2,7.29E2,2E0,7.21E2,8E0],"tree_param":{"num_deleted":"0","num_feature":"5","num_nodes":"5","size_leaf_vector":"1"}},{"base_weights":[1.8458712E-5,2.919975E-6,3.7933988E-4,-2.1801177E-6,7.0856477E-6],"categories":[],"categories_nodes":[],"categories_segments":[],"categories_sizes":[],"default_left":[0,0,0,0,0],"id":95,"left_children":[1,3,-1,-1,-1],"loss_changes":[4.2926436E-5,1.2275568E-6,0E0,0E0,0E0],"parents":[2147483647,0,0,1,1],"right_children":[2,4,-1,-1,-1],"split_conditions":[1E0,2.5E-1,3.7933988E-4,-2.1801177E-6,7.0856477E-6],"split_indices":[0,0,0,0,0],"split_type":[0,0,0,0,0],"sum_hessian":[7.31E2,7.29E2,2E0,5.35E2,1.94E2],"tree_param":{"num_deleted":"0","num_feature":"5","num_nodes":"5","size_leaf_vector":"1"}},{"base_weights":[1.7137583E-5,2.63447E-6,3.540516E-4,-1.5605087E-7,3.388723E-5],"categories":[],"categories_nodes":[],"categories_segments":[],"categories_sizes":[],"default_left":[0,0,0,0,0],"id":96,"left_children":[1,3,-1,-1,-1],"loss_changes":[3.739584E-5,1.0302014E-6,0E0,0E0,0E0],"parents":[2147483647,0,0,1,1],"right_children":[2,4,-1,-1,-1],"split_conditions":[1E0,7.5E-1,3.540516E-4,-1.5605087E-7,3.388723E-5],"split_indices":[0,0,0,0,0],"split_type":[0,0,0,0,0],"sum_hessian":[7.31E2,7.29E2,2E0,7.21E2,8E0],"tree_param":{"num_deleted":"0","num_feature":"5","num_nodes":"5","size_leaf_vector":"1"}},{"base_weights":[1.5957354E-5,2.421011E-7,3.3044815E-4],"categories":[],"categories_nodes":[],"categories_segments":[],"categories_sizes":[],"default_left":[0,0,0],"id":97,"left_children":[1,-1,-1],"loss_changes":[3.2576678E-5,0E0,0E0],"parents":[2147483647,0,0],"right_children":[2,-1,-1],"split_conditions":[1E0,2.421011E-7,3.3044815E-4],"split_indices":[0,0,0],"split_type":[0,0,0],"sum_hessian":[7.31E2,7.29E2,2E0],"tree_param":{"num_deleted":"0","num_feature":"5","num_nodes":"3","size_leaf_vector":"1"}},{"base_weights":[1.4814357E-5,2.1802207E-7,3.0841827E-4],"categories":[],"categories_nodes":[],"categories_segments":[],"categories_sizes":[],"default_left":[0,0,0],"id":98,"left_children":[1,-1,-1],"loss_changes":[2.837937E-5,0E0,0E0],"parents":[2147483647,0,0],"right_children":[2,-1,-1],"split_conditions":[1E0,2.1802207E-7,3.0841827E-4],"split_indices":[0,0,0],"split_type":[0,0,0],"sum_hessian":[7.31E2,7.29E2,2E0],"tree_param":{"num_deleted":"0","num_feature":"5","num_nodes":"3","size_leaf_vector":"1"}},{"base_weights":[1.374889E-5,1.9570767E-7,2.878507E-4],"categories":[],"categories_nodes":[],"categories_segments":[],"categories_sizes":[],"default_left":[0,0,0],"id":99,"left_children":[1,-1,-1],"loss_changes":[2.4721832E-5,0E0,0E0],"parents":[2147483647,0,0],"right_children":[2,-1,-1],"split_conditions":[1E0,1.9570767E-7,2.878507E-4],"split_indices":[0,0,0],"split_type":[0,0,0],"sum_hessian":[7.31E2,7.29E2,2E0],"tree_param":{"num_deleted":"0","num_feature":"5","num_nodes":"3","size_leaf_vector":"1"}},{"base_weights":[1.2769188E-5,1.7631062E-7,2.6866596E-4],"categories":[],"categories_nodes":[],"categories_segments":[],"categories_sizes":[],"default_left":[0,0,0],"id":100,"left_children":[1,-1,-1],"loss_changes":[2.1537335E-5,0E0,0E0],"parents":[2147483647,0,0],"right_children":[2,-1,-1],"split_conditions":[1E0,1.7631062E-7,2.6866596E-4],"split_indices":[0,0,0],"split_type":[0,0,0],"sum_hessian":[7.31E2,7.29E2,2E0],"tree_param":{"num_deleted":"0","num_feature":"5","num_nodes":"3","size_leaf_vector":"1"}},{"base_weights":[1.18605E-5,1.5880862E-7,2.5075275E-4],"categories":[],"categories_nodes":[],"categories_segments":[],"categories_sizes":[],"default_left":[0,0,0],"id":101,"left_children":[1,-1,-1],"loss_changes":[1.8761955E-5,0E0,0E0],"parents":[2147483647,0,0],"right_children":[2,-1,-1],"split_conditions":[1E0,1.5880862E-7,2.5075275E-4],"split_indices":[0,0,0],"split_type":[0,0,0],"sum_hessian":[7.31E2,7.29E2,2E0],"tree_param":{"num_deleted":"0","num_feature":"5","num_nodes":"3","size_leaf_vector":"1"}},{"base_weights":[1.101346E-5,1.4258931E-7,2.3403169E-4],"categories":[],"categories_nodes":[],"categories_segments":[],"categories_sizes":[],"default_left":[0,0,0],"id":102,"left_children":[1,-1,-1],"loss_changes":[1.6343944E-5,0E0,0E0],"parents":[2147483647,0,0],"right_children":[2,-1,-1],"split_conditions":[1E0,1.4258931E-7,2.3403169E-4],"split_indices":[0,0,0],"split_type":[0,0,0],"sum_hessian":[7.31E2,7.29E2,2E0],"tree_param":{"num_deleted":"0","num_feature":"5","num_nodes":"3","size_leaf_vector":"1"}},{"base_weights":[1.02366575E-5,1.2884065E-7,2.184232E-4],"categories":[],"categories_nodes":[],"categories_segments":[],"categories_sizes":[],"default_left":[0,0,0],"id":103,"left_children":[1,-1,-1],"loss_changes":[1.4237115E-5,0E0,0E0],"parents":[2147483647,0,0],"right_children":[2,-1,-1],"split_conditions":[1E0,1.2884065E-7,2.184232E-4],"split_indices":[0,0,0],"split_type":[0,0,0],"sum_hessian":[7.31E2,7.29E2,2E0],"tree_param":{"num_deleted":"0","num_feature":"5","num_nodes":"3","size_leaf_vector":"1"}},{"base_weights":[9.512896E-6,1.1609955E-7,2.0386379E-4],"categories":[],"categories_nodes":[],"categories_segments":[],"categories_sizes":[],"default_left":[0,0,0],"id":104,"left_children":[1,-1,-1],"loss_changes":[1.2402874E-5,0E0,0E0],"parents":[2147483647,0,0],"right_children":[2,-1,-1],"split_conditions":[1E0,1.1609955E-7,2.0386379E-4],"split_indices":[0,0,0],"split_type":[0,0,0],"sum_hessian":[7.31E2,7.29E2,2E0],"tree_param":{"num_deleted":"0","num_feature":"5","num_nodes":"3","size_leaf_vector":"1"}},{"base_weights":[8.8407905E-6,1.0455354E-7,1.9027392E-4],"categories":[],"categories_nodes":[],"categories_segments":[],"categories_sizes":[],"default_left":[0,0,0],"id":105,"left_children":[1,-1,-1],"loss_changes":[1.0804835E-5,0E0,0E0],"parents":[2147483647,0,0],"right_children":[2,-1,-1],"split_conditions":[1E0,1.0455354E-7,1.9027392E-4],"split_indices":[0,0,0],"split_type":[0,0,0],"sum_hessian":[7.31E2,7.29E2,2E0],"tree_param":{"num_deleted":"0","num_feature":"5","num_nodes":"3","size_leaf_vector":"1"}},{"base_weights":[8.214253E-6,9.385366E-8,1.7759005E-4],"categories":[],"categories_nodes":[],"categories_segments":[],"categories_sizes":[],"default_left":[0,0,0],"id":106,"left_children":[1,-1,-1],"loss_changes":[9.41272E-6,0E0,0E0],"parents":[2147483647,0,0],"right_children":[2,-1,-1],"split_conditions":[1E0,9.385366E-8,1.7759005E-4],"split_indices":[0,0,0],"split_type":[0,0,0],"sum_hessian":[7.31E2,7.29E2,2E0],"tree_param":{"num_deleted":"0","num_feature":"5","num_nodes":"3","size_leaf_vector":"1"}}]},"name":"gbtree"},"learner_model_param":{"base_score":"3.378933E-1","boost_from_average":"1","num_class":"0","num_feature":"5","num_target":"1"},"objective":{"name":"reg:squarederror","reg_loss_param":{"scale_pos_weight":"1"}}},"version":[2,1,1]}