{"learner":{"attributes":{"best_iteration":"127","best_score":"0.2094142690162043","scikit_learn":"{\"_estimator_type\": \"regressor\"}"},"feature_names":[],"feature_types":[],"gradient_booster":{"model":{"gbtree_model_param":{"num_parallel_tree":"1","num_trees":"128"},"iteration_indptr":[0,1,2,3,4,5,6,7,8,9,10,11,12,13,14,15,16,17,18,19,20,21,22,23,24,25,26,27,28,29,30,31,32,33,34,35,36,37,38,39,40,41,42,43,44,45,46,47,48,49,50,51,52,53,54,55,56,57,58,59,60,61,62,63,64,65,66,67,68,69,70,71,72,73,74,75,76,77,78,79,80,81,82,83,84,85,86,87,88,89,90,91,92,93,94,95,96,97,98,99,100,101,102,103,104,105,106,107,108,109,110,111,112,113,114,115,116,117,118,119,120,121,122,123,124,125,126,127,128],"tree_info":[0,0,0,0,0,0,0,0,0,0,0,0,0,0,0,0,0,0,0,0,0,0,0,0,0,0,0,0,0,0,0,0,0,0,0,0,0,0,0,0,0,0,0,0,0,0,0,0,0,0,0,0,0,0,0,0,0,0,0,0,0,0,0,0,0,0,0,0,0,0,0,0,0,0,0,0,0,0,0,0,0,0,0,0,0,0,0,0,0,0,0,0,0,0,0,0,0,0,0,0,0,0,0,0,0,0,0,0,0,0,0,0,0,0,0,0,0,0,0,0,0,0,0,0,0,0,0,0],"trees":[{"base_weights":[-8.142711E-11,-2.322356E-3,1.3953488E0,8.546512E-2,1.9813953E-1],"categories":[],"categories_nodes":[],"categories_segments":[],"categories_sizes":[],"default_left":[0,0,0,0,0],"id":0,"left_children":[1,-1,3,-1,-1],"loss_changes":[2.375284E1,0E0,2.1090832E0,0E0,0E0],"parents":[2147483647,0,0,2,2],"right_children":[2,-1,4,-1,-1],"split_conditions":[3.3333334E-1,-2.322356E-3,6.666667E-1,8.546512E-2,1.9813953E-1],"split_indices":[0,0,0,0,0],"split_type":[0,0,0,0,0],"sum_hessian":[7.31E2,7.2E2,1.1E1,7E0,4E0],"tree_param":{"num_deleted":"0","num_feature":"20","num_nodes":"5","size_leaf_vector":"1"}},{"base_weights":[3.842654E-4,-2.0904427E-3,1.2794477E0,7.798692E-2,1.8228838E-1],"categories":[],"categories_nodes":[],"categories_segments":[],"categories_sizes":[],"default_left":[0,0,0,0,0],"id":1,"left_children":[1,-1,3,-1,-1],"loss_changes":[1.9958801E1,0E0,1.8362579E0,0E0,0E0],"parents":[2147483647,0,0,2,2],"right_children":[2,-1,4,-1,-1],"split_conditions":[3.3333334E-1,-2.0904427E-3,6.666667E-1,7.798692E-2,1.8228838E-1],"split_indices":[0,0,0,0,0],"split_type":[0,0,0,0,0],"sum_hessian":[7.31E2,7.2E2,1.1E1,7E0,4E0],"tree_param":{"num_deleted":"0","num_feature":"20","num_nodes":"5","size_leaf_vector":"1"}},{"base_weights":[6.9855066E-4,-1.8816881E-3,1.1731925E0,7.1163066E-2,1.6770531E-1],"categories":[],"categories_nodes":[],"categories_segments":[],"categories_sizes":[],"default_left":[0,0,0,0,0],"id":2,"left_children":[1,-1,3,-1,-1],"loss_changes":[1.67715E1,0E0,1.597311E0,0E0,0E0],"parents":[2147483647,0,0,2,2],"right_children":[2,-1,4,-1,-1],"split_conditions":[3.3333334E-1,-1.8816881E-3,6.666667E-1,7.1163066E-2,1.6770531E-1],"split_indices":[0,0,0,0,0],"split_type":[0,0,0,0,0],"sum_hessian":[7.31E2,7.2E2,1.1E1,7E0,4E0],"tree_param":{"num_deleted":"0","num_feature":"20","num_nodes":"5","size_leaf_vector":"1"}},{"base_weights":[9.524487E-4,-1.6937802E-3,1.075779E0,6.4936295E-2,1.5428889E-1],"categories":[],"categories_nodes":[],"categories_segments":[],"categories_sizes":[],"default_left":[0,0,0,0,0],"id":3,"left_children":[1,-1,3,-1,-1],"loss_changes":[1.4093788E1,0E0,1.3883028E0,0E0,0E0],"parents":[2147483647,0,0,2,2],"right_children":[2,-1,4,-1,-1],"split_conditions":[3.3333334E-1,-1.6937802E-3,6.666667E-1,6.4936295E-2,1.5428889E-1],"split_indices":[0,0,0,0,0],"split_type":[0,0,0,0,0],"sum_hessian":[7.31E2,7.2E2,1.1E1,7E0,4E0],"tree_param":{"num_deleted":"0","num_feature":"20","num_nodes":"5","size_leaf_vector":"1"}},{"base_weights":[1.1543777E-3,-1.5246371E-3,9.864698E-1,5.9254374E-2,1.4194576E-1],"categories":[],"categories_nodes":[],"categories_segments":[],"categories_sizes":[],"default_left":[0,0,0,0,0],"id":4,"left_children":[1,-1,3,-1,-1],"loss_changes":[1.1844094E1,0E0,1.2056923E0,0E0,0E0],"parents":[2147483647,0,0,2,2],"right_children":[2,-1,4,-1,-1],"split_conditions":[3.3333334E-1,-1.5246371E-3,6.666667E-1,5.9254374E-2,1.4194576E-1],"split_indices":[0,0,0,0,0],"split_type":[0,0,0,0,0],"sum_hessian":[7.31E2,7.2E2,1.1E1,7E0,4E0],"tree_param":{"num_deleted":"0","num_feature":"20","num_nodes":"5","size_leaf_vector":"1"}},{"base_weights":[1.3117206E-3,-1.3723848E-3,9.045895E-1,5.406961E-2,1.3059011E-1],"categories":[],"categories_nodes":[],"categories_segments":[],"categories_sizes":[],"default_left":[0,0,0,0,0],"id":5,"left_children":[1,-1,3,-1,-1],"loss_changes":[9.953921E0,0E0,1.04632E0,0E0,0E0],"parents":[2147483647,0,0,2,2],"right_children":[2,-1,4,-1,-1],"split_conditions":[3.3333334E-1,-1.3723848E-3,6.666667E-1,5.406961E-2,1.3059011E-1],"split_indices":[0,0,0,0,0],"split_type":[0,0,0,0,0],"sum_hessian":[7.31E2,7.2E2,1.1E1,7E0,4E0],"tree_param":{"num_deleted":"0","num_feature":"20","num_nodes":"5","size_leaf_vector":"1"}},{"base_weights":[1.4309417E-3,-1.2353366E-3,8.295189E-1,4.9338523E-2,1.201429E-1],"categories":[],"categories_nodes":[],"categories_segments":[],"categories_sizes":[],"default_left":[0,0,0,0,0],"id":6,"left_children":[1,-1,3,-1,-1],"loss_changes":[8.365748E0,0E0,9.0737057E-1,0E0,0E0],"parents":[2147483647,0,0,2,2],"right_children":[2,-1,4,-1,-1],"split_conditions":[3.3333334E-1,-1.2353366E-3,6.666667E-1,4.9338523E-2,1.201429E-1],"split_indices":[0,0,0,0,0],"split_type":[0,0,0,0,0],"sum_hessian":[7.31E2,7.2E2,1.1E1,7E0,4E0],"tree_param":{"num_deleted":"0","num_feature":"20","num_nodes":"5","size_leaf_vector":"1"}},{"base_weights":[1.5176921E-3,-1.1119744E-3,7.6069045E-1,4.5021404E-2,1.10531464E-1],"categories":[],"categories_nodes":[],"categories_segments":[],"categories_sizes":[],"default_left":[0,0,0,0,0],"id":7,"left_children":[1,-1,3,-1,-1],"loss_changes":[7.0312643E0,0E0,7.8634405E-1,0E0,0E0],"parents":[2147483647,0,0,2,2],"right_children":[2,-1,4,-1,-1],"split_conditions":[3.3333334E-1,-1.1119744E-3,6.666667E-1,4.5021404E-2,1.10531464E-1],"split_indices":[0,0,0,0,0],"split_type":[0,0,0,0,0],"sum_hessian":[7.31E2,7.2E2,1.1E1,7E0,4E0],"tree_param":{"num_deleted":"0","num_feature":"20","num_nodes":"5","size_leaf_vector":"1"}},{"base_weights":[1.5769075E-3,-1.0009311E-3,6.9758415E-1,4.108203E-2,1.01688944E-1],"categories":[],"categories_nodes":[],"categories_segments":[],"categories_sizes":[],"default_left":[0,0,0,0,0],"id":8,"left_children":[1,-1,3,-1,-1],"loss_changes":[5.9098973E0,0E0,6.810241E-1,0E0,0E0],"parents":[2147483647,0,0,2,2],"right_children":[2,-1,4,-1,-1],"split_conditions":[3.3333334E-1,-1.0009311E-3,6.666667E-1,4.108203E-2,1.01688944E-1],"split_indices":[0,0,0,0,0],"split_type":[0,0,0,0,0],"sum_hessian":[7.31E2,7.2E2,1.1E1,7E0,4E0],"tree_param":{"num_deleted":"0","num_feature":"20","num_nodes":"5","size_leaf_vector":"1"}},{"base_weights":[1.6128918E-3,-9.009768E-4,6.397233E-1,4.337834E-2,1.1129486E-1],"categories":[],"categories_nodes":[],"categories_segments":[],"categories_sizes":[],"default_left":[0,0,0,0,0],"id":9,"left_children":[1,-1,3,-1,-1],"loss_changes":[4.9675746E0,0E0,6.866932E-1,0E0,0E0],"parents":[2147483647,0,0,2,2],"right_children":[2,-1,4,-1,-1],"split_conditions":[3.3333334E-1,-9.009768E-4,1E0,4.337834E-2,1.1129486E-1],"split_indices":[0,0,0,0,0],"split_type":[0,0,0,0,0],"sum_hessian":[7.31E2,7.2E2,1.1E1,9E0,2E0],"tree_param":{"num_deleted":"0","num_feature":"20","num_nodes":"5","size_leaf_vector":"1"}},{"base_weights":[1.6616742E-3,-8.11004E-4,5.886404E-1,3.9474286E-2,1.038752E-1],"categories":[],"categories_nodes":[],"categories_segments":[],"categories_sizes":[],"default_left":[0,0,0,0,0],"id":10,"left_children":[1,-1,3,-1,-1],"loss_changes":[4.2033706E0,0E0,6.3726616E-1,0E0,0E0],"parents":[2147483647,0,0,2,2],"right_children":[2,-1,4,-1,-1],"split_conditions":[3.3333334E-1,-8.11004E-4,1E0,3.9474286E-2,1.038752E-1],"split_indices":[0,0,0,0,0],"split_type":[0,0,0,0,0],"sum_hessian":[7.31E2,7.2E2,1.1E1,9E0,2E0],"tree_param":{"num_deleted":"0","num_feature":"20","num_nodes":"5","size_leaf_vector":"1"}},{"base_weights":[1.6902316E-3,-7.300161E-4,5.417221E-1,3.59216E-2,9.6950196E-2],"categories":[],"categories_nodes":[],"categories_segments":[],"categories_sizes":[],"default_left":[0,0,0,0,0],"id":11,"left_children":[1,-1,3,-1,-1],"loss_changes":[3.5578868E0,0E0,5.886085E-1,0E0,0E0],"parents":[2147483647,0,0,2,2],"right_children":[2,-1,4,-1,-1],"split_conditions":[3.3333334E-1,-7.300161E-4,1E0,3.59216E-2,9.6950196E-2],"split_indices":[0,0,0,0,0],"split_type":[0,0,0,0,0],"sum_hessian":[7.31E2,7.2E2,1.1E1,9E0,2E0],"tree_param":{"num_deleted":"0","num_feature":"20","num_nodes":"5","size_leaf_vector":"1"}},{"base_weights":[1.7017305E-3,-6.571158E-4,4.986226E-1,3.268866E-2,9.048685E-2],"categories":[],"categories_nodes":[],"categories_segments":[],"categories_sizes":[],"default_left":[0,0,0,0,0],"id":12,"left_children":[1,-1,3,-1,-1],"loss_changes":[3.012507E0,0E0,5.414152E-1,0E0,0E0],"parents":[2147483647,0,0,2,2],"right_children":[2,-1,4,-1,-1],"split_conditions":[3.3333334E-1,-6.571158E-4,1E0,3.268866E-2,9.048685E-2],"split_indices":[0,0,0,0,0],"split_type":[0,0,0,0,0],"sum_hessian":[7.31E2,7.2E2,1.1E1,9E0,2E0],"tree_param":{"num_deleted":"0","num_feature":"20","num_nodes":"5","size_leaf_vector":"1"}},{"base_weights":[1.6989319E-3,-3.1949636E-3,7.139104E-2,-5.914953E-4,2.4234345E-2],"categories":[],"categories_nodes":[],"categories_segments":[],"categories_sizes":[],"default_left":[0,0,0,0,0],"id":13,"left_children":[1,3,-1,-1,-1],"loss_changes":[2.5536582E0,4.8763692E-1,0E0,0E0,0E0],"parents":[2147483647,0,0,1,1],"right_children":[2,4,-1,-1,-1],"split_conditions":[6.666667E-1,3.3333334E-1,7.139104E-2,-5.914953E-4,2.4234345E-2],"split_indices":[0,0,0,0,0],"split_type":[0,0,0,0,0],"sum_hessian":[7.31E2,7.27E2,4E0,7.2E2,7E0],"tree_param":{"num_deleted":"0","num_feature":"20","num_nodes":"5","size_leaf_vector":"1"}},{"base_weights":[1.6588669E-3,-2.8429907E-3,6.567975E-1,-5.324278E-4,2.211384E-2,2.9771272E-2,7.969499E-2],"categories":[],"categories_nodes":[],"categories_segments":[],"categories_sizes":[],"default_left":[0,0,0,0,0,0,0],"id":14,"left_children":[1,3,5,-1,-1,-1,-1],"loss_changes":[2.160785E0,4.0577224E-1,1.437068E-2,0E0,0E0,0E0,0E0],"parents":[2147483647,0,0,1,1,2,2],"right_children":[2,4,6,-1,-1,-1,-1],"split_conditions":[6.666667E-1,3.3333334E-1,1E0,-5.324278E-4,2.211384E-2,2.9771272E-2,7.969499E-2],"split_indices":[0,0,0,0,0,0,0],"split_type":[0,0,0,0,0,0,0],"sum_hessian":[7.31E2,7.27E2,4E0,7.2E2,7E0,2E0,2E0],"tree_param":{"num_deleted":"0","num_feature":"20","num_nodes":"7","size_leaf_vector":"1"}},{"base_weights":[1.6720068E-3,-2.529047E-3,6.13011E-1,-4.792589E-4,2.0178877E-2,2.7786518E-2,7.438199E-2],"categories":[],"categories_nodes":[],"categories_segments":[],"categories_sizes":[],"default_left":[0,0,0,0,0,0,0],"id":15,"left_children":[1,3,5,-1,-1,-1,-1],"loss_changes":[1.8815225E0,3.376539E-1,1.2518525E-2,0E0,0E0,0E0,0E0],"parents":[2147483647,0,0,1,1,2,2],"right_children":[2,4,6,-1,-1,-1,-1],"split_conditions":[6.666667E-1,3.3333334E-1,1E0,-4.792589E-4,2.0178877E-2,2.7786518E-2,7.438199E-2],"split_indices":[0,0,0,0,0,0,0],"split_type":[0,0,0,0,0,0,0],"sum_hessian":[7.31E2,7.27E2,4E0,7.2E2,7E0,2E0,2E0],"tree_param":{"num_deleted":"0","num_feature":"20","num_nodes":"7","size_leaf_vector":"1"}},{"base_weights":[1.6712932E-3,-2.2490819E-3,5.721437E-1,-4.313994E-4,1.8413229E-2,2.5934085E-2,6.942319E-2],"categories":[],"categories_nodes":[],"categories_segments":[],"categories_sizes":[],"default_left":[0,0,0,0,0,0,0],"id":16,"left_children":[1,3,5,-1,-1,-1,-1],"loss_changes":[1.6383797E0,2.8097326E-1,1.0905027E-2,0E0,0E0,0E0,0E0],"parents":[2147483647,0,0,1,1,2,2],"right_children":[2,4,6,-1,-1,-1,-1],"split_conditions":[6.666667E-1,3.3333334E-1,1E0,-4.313994E-4,1.8413229E-2,2.5934085E-2,6.942319E-2],"split_indices":[0,0,0,0,0,0,0],"split_type":[0,0,0,0,0,0,0],"sum_hessian":[7.31E2,7.27E2,4E0,7.2E2,7E0,2E0,2E0],"tree_param":{"num_deleted":"0","num_feature":"20","num_nodes":"7","size_leaf_vector":"1"}},{"base_weights":[1.6589987E-3,-1.9994737E-3,5.3400075E-1,-3.8831934E-4,1.6802069E-2,2.4205144E-2,6.479499E-2],"categories":[],"categories_nodes":[],"categories_segments":[],"categories_sizes":[],"default_left":[0,0,0,0,0,0,0],"id":17,"left_children":[1,3,5,-1,-1,-1,-1],"loss_changes":[1.42668E0,2.3380922E-1,9.499669E-3,0E0,0E0,0E0,0E0],"parents":[2147483647,0,0,1,1,2,2],"right_children":[2,4,6,-1,-1,-1,-1],"split_conditions":[6.666667E-1,3.3333334E-1,1E0,-3.8831934E-4,1.6802069E-2,2.4205144E-2,6.479499E-2],"split_indices":[0,0,0,0,0,0,0],"split_type":[0,0,0,0,0,0,0],"sum_hessian":[7.31E2,7.27E2,4E0,7.2E2,7E0,2E0,2E0],"tree_param":{"num_deleted":"0","num_feature":"20","num_nodes":"7","size_leaf_vector":"1"}},{"base_weights":[1.6371069E-3,-1.77698E-3,4.9840075E-1,-3.4954125E-4,1.5331887E-2,2.2591472E-2,6.047532E-2],"categories":[],"categories_nodes":[],"categories_segments":[],"categories_sizes":[],"default_left":[0,0,0,0,0,0,0],"id":18,"left_children":[1,3,5,-1,-1,-1,-1],"loss_changes":[1.2423536E0,1.9456373E-1,8.275032E-3,0E0,0E0,0E0,0E0],"parents":[2147483647,0,0,1,1,2,2],"right_children":[2,4,6,-1,-1,-1,-1],"split_conditions":[6.666667E-1,3.3333334E-1,1E0,-3.4954125E-4,1.5331887E-2,2.2591472E-2,6.047532E-2],"split_indices":[0,0,0,0,0,0,0],"split_type":[0,0,0,0,0,0,0],"sum_hessian":[7.31E2,7.27E2,4E0,7.2E2,7E0,2E0,2E0],"tree_param":{"num_deleted":"0","num_feature":"20","num_nodes":"7","size_leaf_vector":"1"}},{"base_weights":[1.6073432E-3,-1.5787017E-3,4.6517402E-1,-3.146356E-4,1.3990349E-2,2.1085374E-2,5.6443628E-2],"categories":[],"categories_nodes":[],"categories_segments":[],"categories_sizes":[],"default_left":[0,0,0,0,0,0,0],"id":19,"left_children":[1,3,5,-1,-1,-1,-1],"loss_changes":[1.0818574E0,1.6190706E-1,7.2085857E-3,0E0,0E0,0E0,0E0],"parents":[2147483647,0,0,1,1,2,2],"right_children":[2,4,6,-1,-1,-1,-1],"split_conditions":[6.666667E-1,3.3333334E-1,1E0,-3.146356E-4,1.3990349E-2,2.1085374E-2,5.6443628E-2],"split_indices":[0,0,0,0,0,0,0],"split_type":[0,0,0,0,0,0,0],"sum_hessian":[7.31E2,7.27E2,4E0,7.2E2,7E0,2E0,2E0],"tree_param":{"num_deleted":"0","num_feature":"20","num_nodes":"7","size_leaf_vector":"1"}},{"base_weights":[1.5712054E-3,-1.4020461E-3,4.3416238E-1,-2.832157E-4,1.27661945E-2,1.9679682E-2,5.2680712E-2],"categories":[],"categories_nodes":[],"categories_segments":[],"categories_sizes":[],"default_left":[0,0,0,0,0,0,0],"id":20,"left_children":[1,3,5,-1,-1,-1,-1],"loss_changes":[9.421088E-1,1.3473272E-1,6.279409E-3,0E0,0E0,0E0,0E0],"parents":[2147483647,0,0,1,1,2,2],"right_children":[2,4,6,-1,-1,-1,-1],"split_conditions":[6.666667E-1,3.3333334E-1,1E0,-2.832157E-4,1.27661945E-2,1.9679682E-2,5.2680712E-2],"split_indices":[0,0,0,0,0,0,0],"split_type":[0,0,0,0,0,0,0],"sum_hessian":[7.31E2,7.27E2,4E0,7.2E2,7E0,2E0,2E0],"tree_param":{"num_deleted":"0","num_feature":"20","num_nodes":"7","size_leaf_vector":"1"}},{"base_weights":[1.5299913E-3,-1.2446943E-3,4.052182E-1,-2.549334E-4,1.1649153E-2,1.8367704E-2,4.916867E-2],"categories":[],"categories_nodes":[],"categories_segments":[],"categories_sizes":[],"default_left":[0,0,0,0,0,0,0],"id":21,"left_children":[1,3,5,-1,-1,-1,-1],"loss_changes":[8.2042336E-1,1.121202E-1,5.470097E-3,0E0,0E0,0E0,0E0],"parents":[2147483647,0,0,1,1,2,2],"right_children":[2,4,6,-1,-1,-1,-1],"split_conditions":[6.666667E-1,3.3333334E-1,1E0,-2.549334E-4,1.1649153E-2,1.8367704E-2,4.916867E-2],"split_indices":[0,0,0,0,0,0,0],"split_type":[0,0,0,0,0,0,0],"sum_hessian":[7.31E2,7.27E2,4E0,7.2E2,7E0,2E0,2E0],"tree_param":{"num_deleted":"0","num_feature":"20","num_nodes":"7","size_leaf_vector":"1"}},{"base_weights":[1.4848214E-3,-1.1045733E-3,3.7820372E-1,-2.294754E-4,1.0629854E-2,1.7143195E-2,4.589076E-2],"categories":[],"categories_nodes":[],"categories_segments":[],"categories_sizes":[],"default_left":[0,0,0,0,0,0,0],"id":22,"left_children":[1,3,5,-1,-1,-1,-1],"loss_changes":[7.1446466E-1,9.3303524E-2,4.764974E-3,0E0,0E0,0E0,0E0],"parents":[2147483647,0,0,1,1,2,2],"right_children":[2,4,6,-1,-1,-1,-1],"split_conditions":[6.666667E-1,3.3333334E-1,1E0,-2.294754E-4,1.0629854E-2,1.7143195E-2,4.589076E-2],"split_indices":[0,0,0,0,0,0,0],"split_type":[0,0,0,0,0,0,0],"sum_hessian":[7.31E2,7.27E2,4E0,7.2E2,7E0,2E0,2E0],"tree_param":{"num_deleted":"0","num_feature":"20","num_nodes":"7","size_leaf_vector":"1"}},{"base_weights":[1.4366593E-3,-9.798296E-4,3.529901E-1,-2.065597E-4,9.699743E-3,1.6000312E-2,4.2831372E-2],"categories":[],"categories_nodes":[],"categories_segments":[],"categories_sizes":[],"default_left":[0,0,0,0,0,0,0],"id":23,"left_children":[1,3,5,-1,-1,-1,-1],"loss_changes":[6.221981E-1,7.764537E-2,4.150927E-3,0E0,0E0,0E0,0E0],"parents":[2147483647,0,0,1,1,2,2],"right_children":[2,4,6,-1,-1,-1,-1],"split_conditions":[6.666667E-1,3.3333334E-1,1E0,-2.065597E-4,9.699743E-3,1.6000312E-2,4.2831372E-2],"split_indices":[0,0,0,0,0,0,0],"split_type":[0,0,0,0,0,0,0],"sum_hessian":[7.31E2,7.27E2,4E0,7.2E2,7E0,2E0,2E0],"tree_param":{"num_deleted":"0","num_feature":"20","num_nodes":"7","size_leaf_vector":"1"}},{"base_weights":[1.3863331E-3,-8.6880673E-4,3.2945743E-1,-1.8593237E-4,8.851014E-3,1.4933626E-2,3.9975945E-2],"categories":[],"categories_nodes":[],"categories_segments":[],"categories_sizes":[],"default_left":[0,0,0,0,0,0,0],"id":24,"left_children":[1,3,5,-1,-1,-1,-1],"loss_changes":[5.418536E-1,6.461541E-2,3.6158562E-3,0E0,0E0,0E0,0E0],"parents":[2147483647,0,0,1,1,2,2],"right_children":[2,4,6,-1,-1,-1,-1],"split_conditions":[6.666667E-1,3.3333334E-1,1E0,-1.8593237E-4,8.851014E-3,1.4933626E-2,3.9975945E-2],"split_indices":[0,0,0,0,0,0,0],"split_type":[0,0,0,0,0,0,0],"sum_hessian":[7.31E2,7.27E2,4E0,7.2E2,7E0,2E0,2E0],"tree_param":{"num_deleted":"0","num_feature":"20","num_nodes":"7","size_leaf_vector":"1"}},{"base_weights":[1.3345509E-3,-7.7002327E-4,3.0749363E-1,-1.6736494E-4,8.076552E-3,1.39380535E-2,3.7310887E-2],"categories":[],"categories_nodes":[],"categories_segments":[],"categories_sizes":[],"default_left":[0,0,0,0,0,0,0],"id":25,"left_children":[1,3,5,-1,-1,-1,-1],"loss_changes":[4.7188964E-1,5.3772498E-2,3.1497777E-3,0E0,0E0,0E0,0E0],"parents":[2147483647,0,0,1,1,2,2],"right_children":[2,4,6,-1,-1,-1,-1],"split_conditions":[6.666667E-1,3.3333334E-1,1E0,-1.6736494E-4,8.076552E-3,1.39380535E-2,3.7310887E-2],"split_indices":[0,0,0,0,0,0,0],"split_type":[0,0,0,0,0,0,0],"sum_hessian":[7.31E2,7.27E2,4E0,7.2E2,7E0,2E0,2E0],"tree_param":{"num_deleted":"0","num_feature":"20","num_nodes":"7","size_leaf_vector":"1"}},{"base_weights":[1.2819131E-3,-6.821566E-4,2.8699407E-1,-1.5065166E-4,7.3698545E-3,1.300885E-2,3.48235E-2],"categories":[],"categories_nodes":[],"categories_segments":[],"categories_sizes":[],"default_left":[0,0,0,0,0,0,0],"id":26,"left_children":[1,3,5,-1,-1,-1,-1],"loss_changes":[4.1096383E-1,4.474941E-2,2.7438402E-3,0E0,0E0,0E0,0E0],"parents":[2147483647,0,0,1,1,2,2],"right_children":[2,4,6,-1,-1,-1,-1],"split_conditions":[6.666667E-1,3.3333334E-1,1E0,-1.5065166E-4,7.3698545E-3,1.300885E-2,3.48235E-2],"split_indices":[0,0,0,0,0,0,0],"split_type":[0,0,0,0,0,0,0],"sum_hessian":[7.31E2,7.27E2,4E0,7.2E2,7E0,2E0,2E0],"tree_param":{"num_deleted":"0","num_feature":"20","num_nodes":"7","size_leaf_vector":"1"}},{"base_weights":[1.2289289E-3,-6.040246E-4,2.678612E-1,-1.3560736E-4,6.7249904E-3,1.2141594E-2,3.2501936E-2],"categories":[],"categories_nodes":[],"categories_segments":[],"categories_sizes":[],"default_left":[0,0,0,0,0,0,0],"id":27,"left_children":[1,3,5,-1,-1,-1,-1],"loss_changes":[3.5790813E-1,3.7240658E-2,2.390176E-3,0E0,0E0,0E0,0E0],"parents":[2147483647,0,0,1,1,2,2],"right_children":[2,4,6,-1,-1,-1,-1],"split_conditions":[6.666667E-1,3.3333334E-1,1E0,-1.3560736E-4,6.7249904E-3,1.2141594E-2,3.2501936E-2],"split_indices":[0,0,0,0,0,0,0],"split_type":[0,0,0,0,0,0,0],"sum_hessian":[7.31E2,7.27E2,4E0,7.2E2,7E0,2E0,2E0],"tree_param":{"num_deleted":"0","num_feature":"20","num_nodes":"7","size_leaf_vector":"1"}},{"base_weights":[1.1760261E-3,-5.3457107E-4,2.5000376E-1,-1.22065445E-4,6.1365515E-3,1.1332154E-2,3.0335141E-2],"categories":[],"categories_nodes":[],"categories_segments":[],"categories_sizes":[],"default_left":[0,0,0,0,0,0,0],"id":28,"left_children":[1,3,5,-1,-1,-1,-1],"loss_changes":[3.1170508E-1,3.0992063E-2,2.0821095E-3,0E0,0E0,0E0,0E0],"parents":[2147483647,0,0,1,1,2,2],"right_children":[2,4,6,-1,-1,-1,-1],"split_conditions":[6.666667E-1,3.3333334E-1,1E0,-1.22065445E-4,6.1365515E-3,1.1332154E-2,3.0335141E-2],"split_indices":[0,0,0,0,0,0,0],"split_type":[0,0,0,0,0,0,0],"sum_hessian":[7.31E2,7.27E2,4E0,7.2E2,7E0,2E0,2E0],"tree_param":{"num_deleted":"0","num_feature":"20","num_nodes":"7","size_leaf_vector":"1"}},{"base_weights":[1.1235625E-3,-4.728522E-4,2.3333684E-1,-1.0987583E-4,5.5996045E-3,1.05766775E-2,2.8312793E-2],"categories":[],"categories_nodes":[],"categories_segments":[],"categories_sizes":[],"default_left":[0,0,0,0,0,0,0],"id":29,"left_children":[1,3,5,-1,-1,-1,-1],"loss_changes":[2.714691E-1,2.5792126E-2,1.8137395E-3,0E0,0E0,0E0,0E0],"parents":[2147483647,0,0,1,1,2,2],"right_children":[2,4,6,-1,-1,-1,-1],"split_conditions":[6.666667E-1,3.3333334E-1,1E0,-1.0987583E-4,5.5996045E-3,1.05766775E-2,2.8312793E-2],"split_indices":[0,0,0,0,0,0,0],"split_type":[0,0,0,0,0,0,0],"sum_hessian":[7.31E2,7.27E2,4E0,7.2E2,7E0,2E0,2E0],"tree_param":{"num_deleted":"0","num_feature":"20","num_nodes":"7","size_leaf_vector":"1"}},{"base_weights":[1.0718335E-3,-4.180263E-4,2.1778107E-1,-9.890349E-5,5.109638E-3,9.871563E-3,2.6425282E-2],"categories":[],"categories_nodes":[],"categories_segments":[],"categories_sizes":[],"default_left":[0,0,0,0,0,0,0],"id":30,"left_children":[1,3,5,-1,-1,-1,-1],"loss_changes":[2.3642923E-1,2.1464782E-2,1.5800297E-3,0E0,0E0,0E0,0E0],"parents":[2147483647,0,0,1,1,2,2],"right_children":[2,4,6,-1,-1,-1,-1],"split_conditions":[6.666667E-1,3.3333334E-1,1E0,-9.890349E-5,5.109638E-3,9.871563E-3,2.6425282E-2],"split_indices":[0,0,0,0,0,0,0],"split_type":[0,0,0,0,0,0,0],"sum_hessian":[7.31E2,7.27E2,4E0,7.2E2,7E0,2E0,2E0],"tree_param":{"num_deleted":"0","num_feature":"20","num_nodes":"7","size_leaf_vector":"1"}},{"base_weights":[1.0210808E-3,-3.6934108E-4,2.0326228E-1,-8.9026864E-5,4.662542E-3,9.213456E-3,2.4663592E-2],"categories":[],"categories_nodes":[],"categories_segments":[],"categories_sizes":[],"default_left":[0,0,0,0,0,0,0],"id":31,"left_children":[1,3,5,-1,-1,-1,-1],"loss_changes":[2.0591389E-1,1.786358E-2,1.3763756E-3,0E0,0E0,0E0,0E0],"parents":[2147483647,0,0,1,1,2,2],"right_children":[2,4,6,-1,-1,-1,-1],"split_conditions":[6.666667E-1,3.3333334E-1,1E0,-8.9026864E-5,4.662542E-3,9.213456E-3,2.4663592E-2],"split_indices":[0,0,0,0,0,0,0],"split_type":[0,0,0,0,0,0,0],"sum_hessian":[7.31E2,7.27E2,4E0,7.2E2,7E0,2E0,2E0],"tree_param":{"num_deleted":"0","num_feature":"20","num_nodes":"7","size_leaf_vector":"1"}},{"base_weights":[9.715008E-4,-3.261244E-4,1.8971142E-1,-8.0136524E-5,4.254572E-3,8.599225E-3,2.3019345E-2],"categories":[],"categories_nodes":[],"categories_segments":[],"categories_sizes":[],"default_left":[0,0,0,0,0,0,0],"id":32,"left_children":[1,3,5,-1,-1,-1,-1],"loss_changes":[1.7933868E-1,1.4866695E-2,1.1989474E-3,0E0,0E0,0E0,0E0],"parents":[2147483647,0,0,1,1,2,2],"right_children":[2,4,6,-1,-1,-1,-1],"split_conditions":[6.666667E-1,3.3333334E-1,1E0,-8.0136524E-5,4.254572E-3,8.599225E-3,2.3019345E-2],"split_indices":[0,0,0,0,0,0,0],"split_type":[0,0,0,0,0,0,0],"sum_hessian":[7.31E2,7.27E2,4E0,7.2E2,7E0,2E0,2E0],"tree_param":{"num_deleted":"0","num_feature":"20","num_nodes":"7","size_leaf_vector":"1"}},{"base_weights":[9.232481E-4,-2.8777792E-4,1.7706399E-1,-7.213398E-5,3.8822964E-3,8.0259405E-3,2.1484725E-2],"categories":[],"categories_nodes":[],"categories_segments":[],"categories_sizes":[],"default_left":[0,0,0,0,0,0,0],"id":33,"left_children":[1,3,5,-1,-1,-1,-1],"loss_changes":[1.5619463E-1,1.2372649E-2,1.0444671E-3,0E0,0E0,0E0,0E0],"parents":[2147483647,0,0,1,1,2,2],"right_children":[2,4,6,-1,-1,-1,-1],"split_conditions":[6.666667E-1,3.3333334E-1,1E0,-7.213398E-5,3.8822964E-3,8.0259405E-3,2.1484725E-2],"split_indices":[0,0,0,0,0,0,0],"split_type":[0,0,0,0,0,0,0],"sum_hessian":[7.31E2,7.27E2,4E0,7.2E2,7E0,2E0,2E0],"tree_param":{"num_deleted":"0","num_feature":"20","num_nodes":"7","size_leaf_vector":"1"}},{"base_weights":[8.764441E-4,-2.5376634E-4,1.652598E-1,-6.4930595E-5,3.5425962E-3,7.4908817E-3,2.0052416E-2],"categories":[],"categories_nodes":[],"categories_segments":[],"categories_sizes":[],"default_left":[0,0,0,0,0,0,0],"id":34,"left_children":[1,3,5,-1,-1,-1,-1],"loss_changes":[1.3603857E-1,1.0297081E-2,9.098202E-4,0E0,0E0,0E0,0E0],"parents":[2147483647,0,0,1,1,2,2],"right_children":[2,4,6,-1,-1,-1,-1],"split_conditions":[6.666667E-1,3.3333334E-1,1E0,-6.4930595E-5,3.5425962E-3,7.4908817E-3,2.0052416E-2],"split_indices":[0,0,0,0,0,0,0],"split_type":[0,0,0,0,0,0,0],"sum_hessian":[7.31E2,7.27E2,4E0,7.2E2,7E0,2E0,2E0],"tree_param":{"num_deleted":"0","num_feature":"20","num_nodes":"7","size_leaf_vector":"1"}},{"base_weights":[8.311779E-4,-2.2361275E-4,1.5424247E-1,-5.844654E-5,3.2326186E-3,6.9914903E-3,1.8715588E-2],"categories":[],"categories_nodes":[],"categories_segments":[],"categories_sizes":[],"default_left":[0,0,0,0,0,0,0],"id":35,"left_children":[1,3,5,-1,-1,-1,-1],"loss_changes":[1.18484385E-1,8.56975E-3,7.9256296E-4,0E0,0E0,0E0,0E0],"parents":[2147483647,0,0,1,1,2,2],"right_children":[2,4,6,-1,-1,-1,-1],"split_conditions":[6.666667E-1,3.3333334E-1,1E0,-5.844654E-5,3.2326186E-3,6.9914903E-3,1.8715588E-2],"split_indices":[0,0,0,0,0,0,0],"split_type":[0,0,0,0,0,0,0],"sum_hessian":[7.31E2,7.27E2,4E0,7.2E2,7E0,2E0,2E0],"tree_param":{"num_deleted":"0","num_feature":"20","num_nodes":"7","size_leaf_vector":"1"}},{"base_weights":[7.875155E-4,-1.9689115E-4,1.4395961E-1,-5.2609994E-5,2.949766E-3,6.5253894E-3,1.746788E-2],"categories":[],"categories_nodes":[],"categories_segments":[],"categories_sizes":[],"default_left":[0,0,0,0,0,0,0],"id":36,"left_children":[1,3,5,-1,-1,-1,-1],"loss_changes":[1.0319611E-1,7.132233E-3,6.9040805E-4,0E0,0E0,0E0,0E0],"parents":[2147483647,0,0,1,1,2,2],"right_children":[2,4,6,-1,-1,-1,-1],"split_conditions":[6.666667E-1,3.3333334E-1,1E0,-5.2609994E-5,2.949766E-3,6.5253894E-3,1.746788E-2],"split_indices":[0,0,0,0,0,0,0],"split_type":[0,0,0,0,0,0,0],"sum_hessian":[7.31E2,7.27E2,4E0,7.2E2,7E0,2E0,2E0],"tree_param":{"num_deleted":"0","num_feature":"20","num_nodes":"7","size_leaf_vector":"1"}},{"base_weights":[7.4549916E-4,-1.7322249E-4,1.3436227E-1,-4.735629E-5,2.6916608E-3,6.090363E-3,1.630335E-2],"categories":[],"categories_nodes":[],"categories_segments":[],"categories_sizes":[],"default_left":[0,0,0,0,0,0,0],"id":37,"left_children":[1,3,5,-1,-1,-1,-1],"loss_changes":[8.9881115E-2,5.935879E-3,6.014183E-4,0E0,0E0,0E0,0E0],"parents":[2147483647,0,0,1,1,2,2],"right_children":[2,4,6,-1,-1,-1,-1],"split_conditions":[6.666667E-1,3.3333334E-1,1E0,-4.735629E-5,2.6916608E-3,6.090363E-3,1.630335E-2],"split_indices":[0,0,0,0,0,0,0],"split_type":[0,0,0,0,0,0,0],"sum_hessian":[7.31E2,7.27E2,4E0,7.2E2,7E0,2E0,2E0],"tree_param":{"num_deleted":"0","num_feature":"20","num_nodes":"7","size_leaf_vector":"1"}},{"base_weights":[7.05154E-4,-1.5226819E-4,1.2540479E-1,-4.2627227E-5,2.4561384E-3,5.684336E-3,1.5216462E-2],"categories":[],"categories_nodes":[],"categories_segments":[],"categories_sizes":[],"default_left":[0,0,0,0,0,0,0],"id":38,"left_children":[1,3,5,-1,-1,-1,-1],"loss_changes":[7.8284696E-2,4.9402243E-3,5.239174E-4,0E0,0E0,0E0,0E0],"parents":[2147483647,0,0,1,1,2,2],"right_children":[2,4,6,-1,-1,-1,-1],"split_conditions":[6.666667E-1,3.3333334E-1,1E0,-4.2627227E-5,2.4561384E-3,5.684336E-3,1.5216462E-2],"split_indices":[0,0,0,0,0,0,0],"split_type":[0,0,0,0,0,0,0],"sum_hessian":[7.31E2,7.27E2,4E0,7.2E2,7E0,2E0,2E0],"tree_param":{"num_deleted":"0","num_feature":"20","num_nodes":"7","size_leaf_vector":"1"}},{"base_weights":[6.66489E-4,-1.3372602E-4,1.1704449E-1,-3.8370417E-5,2.241227E-3,5.3053778E-3,1.4202039E-2],"categories":[],"categories_nodes":[],"categories_segments":[],"categories_sizes":[],"default_left":[0,0,0,0,0,0,0],"id":39,"left_children":[1,3,5,-1,-1,-1,-1],"loss_changes":[6.8184935E-2,4.1116127E-3,4.5640022E-4,0E0,0E0,0E0,0E0],"parents":[2147483647,0,0,1,1,2,2],"right_children":[2,4,6,-1,-1,-1,-1],"split_conditions":[6.666667E-1,3.3333334E-1,1E0,-3.8370417E-5,2.241227E-3,5.3053778E-3,1.4202039E-2],"split_indices":[0,0,0,0,0,0,0],"split_type":[0,0,0,0,0,0,0],"sum_hessian":[7.31E2,7.27E2,4E0,7.2E2,7E0,2E0,2E0],"tree_param":{"num_deleted":"0","num_feature":"20","num_nodes":"7","size_leaf_vector":"1"}},{"base_weights":[6.294984E-4,-1.1732776E-4,1.09241486E-1,-3.4538694E-5,2.0451173E-3,4.951684E-3,1.3255231E-2],"categories":[],"categories_nodes":[],"categories_segments":[],"categories_sizes":[],"default_left":[0,0,0,0,0,0,0],"id":40,"left_children":[1,3,5,-1,-1,-1,-1],"loss_changes":[5.9388462E-2,3.421992E-3,3.9757788E-4,0E0,0E0,0E0,0E0],"parents":[2147483647,0,0,1,1,2,2],"right_children":[2,4,6,-1,-1,-1,-1],"split_conditions":[6.666667E-1,3.3333334E-1,1E0,-3.4538694E-5,2.0451173E-3,4.951684E-3,1.3255231E-2],"split_indices":[0,0,0,0,0,0,0],"split_type":[0,0,0,0,0,0,0],"sum_hessian":[7.31E2,7.27E2,4E0,7.2E2,7E0,2E0,2E0],"tree_param":{"num_deleted":"0","num_feature":"20","num_nodes":"7","size_leaf_vector":"1"}},{"base_weights":[5.941685E-4,-1.02833E-4,1.0195875E-1,-3.1089618E-5,1.8661715E-3,4.6215695E-3,1.2371556E-2],"categories":[],"categories_nodes":[],"categories_segments":[],"categories_sizes":[],"default_left":[0,0,0,0,0,0,0],"id":41,"left_children":[1,3,5,-1,-1,-1,-1],"loss_changes":[5.172721E-2,2.8480678E-3,3.4635514E-4,0E0,0E0,0E0,0E0],"parents":[2147483647,0,0,1,1,2,2],"right_children":[2,4,6,-1,-1,-1,-1],"split_conditions":[6.666667E-1,3.3333334E-1,1E0,-3.1089618E-5,1.8661715E-3,4.6215695E-3,1.2371556E-2],"split_indices":[0,0,0,0,0,0,0],"split_type":[0,0,0,0,0,0,0],"sum_hessian":[7.31E2,7.27E2,4E0,7.2E2,7E0,2E0,2E0],"tree_param":{"num_deleted":"0","num_feature":"20","num_nodes":"7","size_leaf_vector":"1"}},{"base_weights":[5.604732E-4,-9.0028894E-5,9.516148E-2,-2.7984968E-5,1.7028823E-3,4.313461E-3,1.1546787E-2],"categories":[],"categories_nodes":[],"categories_segments":[],"categories_sizes":[],"default_left":[0,0,0,0,0,0,0],"id":42,"left_children":[1,3,5,-1,-1,-1,-1],"loss_changes":[4.50545E-2,2.3704115E-3,3.0172616E-4,0E0,0E0,0E0,0E0],"parents":[2147483647,0,0,1,1,2,2],"right_children":[2,4,6,-1,-1,-1,-1],"split_conditions":[6.666667E-1,3.3333334E-1,1E0,-2.7984968E-5,1.7028823E-3,4.313461E-3,1.1546787E-2],"split_indices":[0,0,0,0,0,0,0],"split_type":[0,0,0,0,0,0,0],"sum_hessian":[7.31E2,7.27E2,4E0,7.2E2,7E0,2E0,2E0],"tree_param":{"num_deleted":"0","num_feature":"20","num_nodes":"7","size_leaf_vector":"1"}},{"base_weights":[5.2838057E-4,-7.872554E-5,8.881736E-2,-2.5190355E-5,1.5538782E-3,4.0258965E-3,1.0776997E-2],"categories":[],"categories_nodes":[],"categories_segments":[],"categories_sizes":[],"default_left":[0,0,0,0,0,0,0],"id":43,"left_children":[1,3,5,-1,-1,-1,-1],"loss_changes":[3.9242763E-2,1.9728693E-3,2.6283413E-4,0E0,0E0,0E0,0E0],"parents":[2147483647,0,0,1,1,2,2],"right_children":[2,4,6,-1,-1,-1,-1],"split_conditions":[6.666667E-1,3.3333334E-1,1E0,-2.5190355E-5,1.5538782E-3,4.0258965E-3,1.0776997E-2],"split_indices":[0,0,0,0,0,0,0],"split_type":[0,0,0,0,0,0,0],"sum_hessian":[7.31E2,7.27E2,4E0,7.2E2,7E0,2E0,2E0],"tree_param":{"num_deleted":"0","num_feature":"20","num_nodes":"7","size_leaf_vector":"1"}},{"base_weights":[4.978532E-4,-6.875329E-5,8.289619E-2,-2.2674812E-5,1.4179125E-3,3.7575008E-3,1.0058531E-2],"categories":[],"categories_nodes":[],"categories_segments":[],"categories_sizes":[],"default_left":[0,0,0,0,0,0,0],"id":44,"left_children":[1,3,5,-1,-1,-1,-1],"loss_changes":[3.4180894E-2,1.6420096E-3,2.2896752E-4,0E0,0E0,0E0,0E0],"parents":[2147483647,0,0,1,1,2,2],"right_children":[2,4,6,-1,-1,-1,-1],"split_conditions":[6.666667E-1,3.3333334E-1,1E0,-2.2674812E-5,1.4179125E-3,3.7575008E-3,1.0058531E-2],"split_indices":[0,0,0,0,0,0,0],"split_type":[0,0,0,0,0,0,0],"sum_hessian":[7.31E2,7.27E2,4E0,7.2E2,7E0,2E0,2E0],"tree_param":{"num_deleted":"0","num_feature":"20","num_nodes":"7","size_leaf_vector":"1"}},{"base_weights":[4.6884784E-4,-5.996164E-5,7.7369735E-2,-2.0410476E-5,1.2938433E-3,3.507002E-3,9.387954E-3],"categories":[],"categories_nodes":[],"categories_segments":[],"categories_sizes":[],"default_left":[0,0,0,0,0,0,0],"id":45,"left_children":[1,3,5,-1,-1,-1,-1],"loss_changes":[2.9772094E-2,1.3666428E-3,1.9944087E-4,0E0,0E0,0E0,0E0],"parents":[2147483647,0,0,1,1,2,2],"right_children":[2,4,6,-1,-1,-1,-1],"split_conditions":[6.666667E-1,3.3333334E-1,1E0,-2.0410476E-5,1.2938433E-3,3.507002E-3,9.387954E-3],"split_indices":[0,0,0,0,0,0,0],"split_type":[0,0,0,0,0,0,0],"sum_hessian":[7.31E2,7.27E2,4E0,7.2E2,7E0,2E0,2E0],"tree_param":{"num_deleted":"0","num_feature":"20","num_nodes":"7","size_leaf_vector":"1"}},{"base_weights":[4.4131873E-4,-5.2216208E-5,7.221174E-2,-1.837226E-5,1.1806324E-3,3.273201E-3,8.76209E-3],"categories":[],"categories_nodes":[],"categories_segments":[],"categories_sizes":[],"default_left":[0,0,0,0,0,0,0],"id":46,"left_children":[1,3,5,-1,-1,-1,-1],"loss_changes":[2.5932096E-2,1.137466E-3,1.7374009E-4,0E0,0E0,0E0,0E0],"parents":[2147483647,0,0,1,1,2,2],"right_children":[2,4,6,-1,-1,-1,-1],"split_conditions":[6.666667E-1,3.3333334E-1,1E0,-1.837226E-5,1.1806324E-3,3.273201E-3,8.76209E-3],"split_indices":[0,0,0,0,0,0,0],"split_type":[0,0,0,0,0,0,0],"sum_hessian":[7.31E2,7.27E2,4E0,7.2E2,7E0,2E0,2E0],"tree_param":{"num_deleted":"0","num_feature":"20","num_nodes":"7","size_leaf_vector":"1"}},{"base_weights":[4.1521594E-4,-4.5398236E-5,6.7397594E-2,-1.6537582E-5,1.0773257E-3,3.0549846E-3,8.177948E-3],"categories":[],"categories_nodes":[],"categories_segments":[],"categories_sizes":[],"default_left":[0,0,0,0,0,0,0],"id":47,"left_children":[1,3,5,-1,-1,-1,-1],"loss_changes":[2.258748E-2,9.4672275E-4,1.513511E-4,0E0,0E0,0E0,0E0],"parents":[2147483647,0,0,1,1,2,2],"right_children":[2,4,6,-1,-1,-1,-1],"split_conditions":[6.666667E-1,3.3333334E-1,1E0,-1.6537582E-5,1.0773257E-3,3.0549846E-3,8.177948E-3],"split_indices":[0,0,0,0,0,0,0],"split_type":[0,0,0,0,0,0,0],"sum_hessian":[7.31E2,7.27E2,4E0,7.2E2,7E0,2E0,2E0],"tree_param":{"num_deleted":"0","num_feature":"20","num_nodes":"7","size_leaf_vector":"1"}},{"base_weights":[3.9048865E-4,-3.940156E-5,6.29044E-2,-1.4886117E-5,9.830572E-4,2.8513193E-3,7.632748E-3],"categories":[],"categories_nodes":[],"categories_segments":[],"categories_sizes":[],"default_left":[0,0,0,0,0,0,0],"id":48,"left_children":[1,3,5,-1,-1,-1,-1],"loss_changes":[1.9674335E-2,7.8796805E-4,1.3183989E-4,0E0,0E0,0E0,0E0],"parents":[2147483647,0,0,1,1,2,2],"right_children":[2,4,6,-1,-1,-1,-1],"split_conditions":[6.666667E-1,3.3333334E-1,1E0,-1.4886117E-5,9.830572E-4,2.8513193E-3,7.632748E-3],"split_indices":[0,0,0,0,0,0,0],"split_type":[0,0,0,0,0,0,0],"sum_hessian":[7.31E2,7.27E2,4E0,7.2E2,7E0,2E0,2E0],"tree_param":{"num_deleted":"0","num_feature":"20","num_nodes":"7","size_leaf_vector":"1"}},{"base_weights":[3.670848E-4,-3.413152E-5,5.8710765E-2,-1.3399571E-5,8.970395E-4,2.6612282E-3,7.1238996E-3],"categories":[],"categories_nodes":[],"categories_segments":[],"categories_sizes":[],"default_left":[0,0,0,0,0,0,0],"id":49,"left_children":[1,3,5,-1,-1,-1,-1],"loss_changes":[1.7136978E-2,6.558412E-4,1.14854425E-4,0E0,0E0,0E0,0E0],"parents":[2147483647,0,0,1,1,2,2],"right_children":[2,4,6,-1,-1,-1,-1],"split_conditions":[6.666667E-1,3.3333334E-1,1E0,-1.3399571E-5,8.970395E-4,2.6612282E-3,7.1238996E-3],"split_indices":[0,0,0,0,0,0,0],"split_type":[0,0,0,0,0,0,0],"sum_hessian":[7.31E2,7.27E2,4E0,7.2E2,7E0,2E0,2E0],"tree_param":{"num_deleted":"0","num_feature":"20","num_nodes":"7","size_leaf_vector":"1"}},{"base_weights":[3.449509E-4,-2.950468E-5,5.4796696E-2,-1.2061472E-5,8.185476E-4,2.4838129E-3,6.64897E-3],"categories":[],"categories_nodes":[],"categories_segments":[],"categories_sizes":[],"default_left":[0,0,0,0,0,0,0],"id":50,"left_children":[1,3,5,-1,-1,-1,-1],"loss_changes":[1.4926921E-2,5.458714E-4,1.0004826E-4,0E0,0E0,0E0,0E0],"parents":[2147483647,0,0,1,1,2,2],"right_children":[2,4,6,-1,-1,-1,-1],"split_conditions":[6.666667E-1,3.3333334E-1,1E0,-1.2061472E-5,8.185476E-4,2.4838129E-3,6.64897E-3],"split_indices":[0,0,0,0,0,0,0],"split_type":[0,0,0,0,0,0,0],"sum_hessian":[7.31E2,7.27E2,4E0,7.2E2,7E0,2E0,2E0],"tree_param":{"num_deleted":"0","num_feature":"20","num_nodes":"7","size_leaf_vector":"1"}},{"base_weights":[3.240338E-4,-2.544643E-5,5.114355E-2,-1.08569975E-5,7.4692443E-4,2.3182235E-3,6.2057017E-3],"categories":[],"categories_nodes":[],"categories_segments":[],"categories_sizes":[],"default_left":[0,0,0,0,0,0,0],"id":51,"left_children":[1,3,5,-1,-1,-1,-1],"loss_changes":[1.3001927E-2,4.5434423E-4,8.71541E-5,0E0,0E0,0E0,0E0],"parents":[2147483647,0,0,1,1,2,2],"right_children":[2,4,6,-1,-1,-1,-1],"split_conditions":[6.666667E-1,3.3333334E-1,1E0,-1.08569975E-5,7.4692443E-4,2.3182235E-3,6.2057017E-3],"split_indices":[0,0,0,0,0,0,0],"split_type":[0,0,0,0,0,0,0],"sum_hessian":[7.31E2,7.27E2,4E0,7.2E2,7E0,2E0,2E0],"tree_param":{"num_deleted":"0","num_feature":"20","num_nodes":"7","size_leaf_vector":"1"}},{"base_weights":[3.042805E-4,-2.189053E-5,4.7733925E-2,-9.772804E-6,6.815702E-4,2.1636726E-3,5.791982E-3],"categories":[],"categories_nodes":[],"categories_segments":[],"categories_sizes":[],"default_left":[0,0,0,0,0,0,0],"id":52,"left_children":[1,3,5,-1,-1,-1,-1],"loss_changes":[1.1325215E-2,3.7816758E-4,7.5921416E-5,0E0,0E0,0E0,0E0],"parents":[2147483647,0,0,1,1,2,2],"right_children":[2,4,6,-1,-1,-1,-1],"split_conditions":[6.666667E-1,3.3333334E-1,1E0,-9.772804E-6,6.815702E-4,2.1636726E-3,5.791982E-3],"split_indices":[0,0,0,0,0,0,0],"split_type":[0,0,0,0,0,0,0],"sum_hessian":[7.31E2,7.27E2,4E0,7.2E2,7E0,2E0,2E0],"tree_param":{"num_deleted":"0","num_feature":"20","num_nodes":"7","size_leaf_vector":"1"}},{"base_weights":[2.856388E-4,-1.8778763E-5,4.4551708E-2,-8.796879E-6,6.2193203E-4,2.0194293E-3,5.4058554E-3],"categories":[],"categories_nodes":[],"categories_segments":[],"categories_sizes":[],"default_left":[0,0,0,0,0,0,0],"id":53,"left_children":[1,3,5,-1,-1,-1,-1],"loss_changes":[9.864805E-3,3.1476226E-4,6.613694E-5,0E0,0E0,0E0,0E0],"parents":[2147483647,0,0,1,1,2,2],"right_children":[2,4,6,-1,-1,-1,-1],"split_conditions":[6.666667E-1,3.3333334E-1,1E0,-8.796879E-6,6.2193203E-4,2.0194293E-3,5.4058554E-3],"split_indices":[0,0,0,0,0,0,0],"split_type":[0,0,0,0,0,0,0],"sum_hessian":[7.31E2,7.27E2,4E0,7.2E2,7E0,2E0,2E0],"tree_param":{"num_deleted":"0","num_feature":"20","num_nodes":"7","size_leaf_vector":"1"}},{"base_weights":[2.6805646E-4,-1.6058502E-5,4.1581582E-2,-7.918412E-6,5.6751445E-4,1.8848022E-3,5.045462E-3],"categories":[],"categories_nodes":[],"categories_segments":[],"categories_sizes":[],"default_left":[0,0,0,0,0,0,0],"id":54,"left_children":[1,3,5,-1,-1,-1,-1],"loss_changes":[8.592731E-3,2.6199117E-4,5.760882E-5,0E0,0E0,0E0,0E0],"parents":[2147483647,0,0,1,1,2,2],"right_children":[2,4,6,-1,-1,-1,-1],"split_conditions":[6.666667E-1,3.3333334E-1,1E0,-7.918412E-6,5.6751445E-4,1.8848022E-3,5.045462E-3],"split_indices":[0,0,0,0,0,0,0],"split_type":[0,0,0,0,0,0,0],"sum_hessian":[7.31E2,7.27E2,4E0,7.2E2,7E0,2E0,2E0],"tree_param":{"num_deleted":"0","num_feature":"20","num_nodes":"7","size_leaf_vector":"1"}},{"base_weights":[2.514831E-4,-1.3683799E-5,3.880949E-2,-7.1276686E-6,5.178586E-4,1.7591476E-3,4.709101E-3],"categories":[],"categories_nodes":[],"categories_segments":[],"categories_sizes":[],"default_left":[0,0,0,0,0,0,0],"id":55,"left_children":[1,3,5,-1,-1,-1,-1],"loss_changes":[7.4847247E-3,2.1806863E-4,5.0185714E-5,0E0,0E0,0E0,0E0],"parents":[2147483647,0,0,1,1,2,2],"right_children":[2,4,6,-1,-1,-1,-1],"split_conditions":[6.666667E-1,3.3333334E-1,1E0,-7.1276686E-6,5.178586E-4,1.7591476E-3,4.709101E-3],"split_indices":[0,0,0,0,0,0,0],"split_type":[0,0,0,0,0,0,0],"sum_hessian":[7.31E2,7.27E2,4E0,7.2E2,7E0,2E0,2E0],"tree_param":{"num_deleted":"0","num_feature":"20","num_nodes":"7","size_leaf_vector":"1"}},{"base_weights":[2.3586926E-4,-1.1613739E-5,3.622222E-2,-6.4158908E-6,4.725471E-4,1.6418695E-3,4.3951673E-3],"categories":[],"categories_nodes":[],"categories_segments":[],"categories_sizes":[],"default_left":[0,0,0,0,0,0,0],"id":56,"left_children":[1,3,5,-1,-1,-1,-1],"loss_changes":[6.51962E-3,1.8151032E-4,4.3722335E-5,0E0,0E0,0E0,0E0],"parents":[2147483647,0,0,1,1,2,2],"right_children":[2,4,6,-1,-1,-1,-1],"split_conditions":[6.666667E-1,3.3333334E-1,1E0,-6.4158908E-6,4.725471E-4,1.6418695E-3,4.3951673E-3],"split_indices":[0,0,0,0,0,0,0],"split_type":[0,0,0,0,0,0,0],"sum_hessian":[7.31E2,7.27E2,4E0,7.2E2,7E0,2E0,2E0],"tree_param":{"num_deleted":"0","num_feature":"20","num_nodes":"7","size_leaf_vector":"1"}},{"base_weights":[2.2116624E-4,-9.812059E-6,3.3807375E-2,-5.7751913E-6,4.3119938E-4,1.5324116E-3,4.102151E-3],"categories":[],"categories_nodes":[],"categories_segments":[],"categories_sizes":[],"default_left":[0,0,0,0,0,0,0],"id":57,"left_children":[1,3,5,-1,-1,-1,-1],"loss_changes":[5.678957E-3,1.5108097E-4,3.808504E-5,0E0,0E0,0E0,0E0],"parents":[2147483647,0,0,1,1,2,2],"right_children":[2,4,6,-1,-1,-1,-1],"split_conditions":[6.666667E-1,3.3333334E-1,1E0,-5.7751913E-6,4.3119938E-4,1.5324116E-3,4.102151E-3],"split_indices":[0,0,0,0,0,0,0],"split_type":[0,0,0,0,0,0,0],"sum_hessian":[7.31E2,7.27E2,4E0,7.2E2,7E0,2E0,2E0],"tree_param":{"num_deleted":"0","num_feature":"20","num_nodes":"7","size_leaf_vector":"1"}},{"base_weights":[2.073282E-4,-8.246291E-6,3.1553507E-2,-5.198473E-6,3.9347113E-4,1.4302492E-3,3.8286687E-3],"categories":[],"categories_nodes":[],"categories_segments":[],"categories_sizes":[],"default_left":[0,0,0,0,0,0,0],"id":58,"left_children":[1,3,5,-1,-1,-1,-1],"loss_changes":[4.946703E-3,1.2575455E-4,3.3175573E-5,0E0,0E0,0E0,0E0],"parents":[2147483647,0,0,1,1,2,2],"right_children":[2,4,6,-1,-1,-1,-1],"split_conditions":[6.666667E-1,3.3333334E-1,1E0,-5.198473E-6,3.9347113E-4,1.4302492E-3,3.8286687E-3],"split_indices":[0,0,0,0,0,0,0],"split_type":[0,0,0,0,0,0,0],"sum_hessian":[7.31E2,7.27E2,4E0,7.2E2,7E0,2E0,2E0],"tree_param":{"num_deleted":"0","num_feature":"20","num_nodes":"7","size_leaf_vector":"1"}},{"base_weights":[1.9430998E-4,-6.8881213E-6,2.9449891E-2,-4.6793466E-6,3.5904424E-4,1.3348977E-3,3.5734177E-3],"categories":[],"categories_nodes":[],"categories_segments":[],"categories_sizes":[],"default_left":[0,0,0,0,0,0,0],"id":59,"left_children":[1,3,5,-1,-1,-1,-1],"loss_changes":[4.308878E-3,1.04674386E-4,2.889894E-5,0E0,0E0,0E0,0E0],"parents":[2147483647,0,0,1,1,2,2],"right_children":[2,4,6,-1,-1,-1,-1],"split_conditions":[6.666667E-1,3.3333334E-1,1E0,-4.6793466E-6,3.5904424E-4,1.3348977E-3,3.5734177E-3],"split_indices":[0,0,0,0,0,0,0],"split_type":[0,0,0,0,0,0,0],"sum_hessian":[7.31E2,7.27E2,4E0,7.2E2,7E0,2E0,2E0],"tree_param":{"num_deleted":"0","num_feature":"20","num_nodes":"7","size_leaf_vector":"1"}},{"base_weights":[1.8206828E-4,-5.7126804E-6,2.7486563E-2,-4.212061E-6,3.2762662E-4,1.245904E-3,3.3351898E-3],"categories":[],"categories_nodes":[],"categories_segments":[],"categories_sizes":[],"default_left":[0,0,0,0,0,0,0],"id":60,"left_children":[1,3,5,-1,-1,-1,-1],"loss_changes":[3.7533145E-3,8.712676E-5,2.517458E-5,0E0,0E0,0E0,0E0],"parents":[2147483647,0,0,1,1,2,2],"right_children":[2,4,6,-1,-1,-1,-1],"split_conditions":[6.666667E-1,3.3333334E-1,1E0,-4.212061E-6,3.2762662E-4,1.245904E-3,3.3351898E-3],"split_indices":[0,0,0,0,0,0,0],"split_type":[0,0,0,0,0,0,0],"sum_hessian":[7.31E2,7.27E2,4E0,7.2E2,7E0,2E0,2E0],"tree_param":{"num_deleted":"0","num_feature":"20","num_nodes":"7","size_leaf_vector":"1"}},{"base_weights":[1.7056141E-4,-4.697357E-6,2.5654126E-2,-3.7914394E-6,2.9895754E-4,1.1628469E-3,3.1128407E-3],"categories":[],"categories_nodes":[],"categories_segments":[],"categories_sizes":[],"default_left":[0,0,0,0,0,0,0],"id":61,"left_children":[1,3,5,-1,-1,-1,-1],"loss_changes":[3.269392E-3,7.252085E-5,2.192636E-5,0E0,0E0,0E0,0E0],"parents":[2147483647,0,0,1,1,2,2],"right_children":[2,4,6,-1,-1,-1,-1],"split_conditions":[6.666667E-1,3.3333334E-1,1E0,-3.7914394E-6,2.9895754E-4,1.1628469E-3,3.1128407E-3],"split_indices":[0,0,0,0,0,0,0],"split_type":[0,0,0,0,0,0,0],"sum_hessian":[7.31E2,7.27E2,4E0,7.2E2,7E0,2E0,2E0],"tree_param":{"num_deleted":"0","num_feature":"20","num_nodes":"7","size_leaf_vector":"1"}},{"base_weights":[1.5974944E-4,-3.8223593E-6,2.3943853E-2,-3.4128213E-6,2.7279704E-4,1.0853212E-3,2.905321E-3],"categories":[],"categories_nodes":[],"categories_segments":[],"categories_sizes":[],"default_left":[0,0,0,0,0,0,0],"id":62,"left_children":[1,3,5,-1,-1,-1,-1],"loss_changes":[2.8478708E-3,6.036372E-5,1.9103289E-5,0E0,0E0,0E0,0E0],"parents":[2147483647,0,0,1,1,2,2],"right_children":[2,4,6,-1,-1,-1,-1],"split_conditions":[6.666667E-1,3.3333334E-1,1E0,-3.4128213E-6,2.7279704E-4,1.0853212E-3,2.905321E-3],"split_indices":[0,0,0,0,0,0,0],"split_type":[0,0,0,0,0,0,0],"sum_hessian":[7.31E2,7.27E2,4E0,7.2E2,7E0,2E0,2E0],"tree_param":{"num_deleted":"0","num_feature":"20","num_nodes":"7","size_leaf_vector":"1"}},{"base_weights":[1.4959405E-4,-3.0702197E-6,2.2347594E-2,-3.0720128E-6,2.4892614E-4,1.0129691E-3,2.71163E-3],"categories":[],"categories_nodes":[],"categories_segments":[],"categories_sizes":[],"default_left":[0,0,0,0,0,0,0],"id":63,"left_children":[1,3,5,-1,-1,-1,-1],"loss_changes":[2.4807004E-3,5.024494E-5,1.663831E-5,0E0,0E0,0E0,0E0],"parents":[2147483647,0,0,1,1,2,2],"right_children":[2,4,6,-1,-1,-1,-1],"split_conditions":[6.666667E-1,3.3333334E-1,1E0,-3.0720128E-6,2.4892614E-4,1.0129691E-3,2.71163E-3],"split_indices":[0,0,0,0,0,0,0],"split_type":[0,0,0,0,0,0,0],"sum_hessian":[7.31E2,7.27E2,4E0,7.2E2,7E0,2E0,2E0],"tree_param":{"num_deleted":"0","num_feature":"20","num_nodes":"7","size_leaf_vector":"1"}},{"base_weights":[1.4005932E-4,-2.4253209E-6,2.0857811E-2,-2.7652375E-6,2.271466E-4,9.4544096E-4,2.530861E-3],"categories":[],"categories_nodes":[],"categories_segments":[],"categories_sizes":[],"default_left":[0,0,0,0,0,0,0],"id":64,"left_children":[1,3,5,-1,-1,-1,-1],"loss_changes":[2.160886E-3,4.1823492E-5,1.4493242E-5,0E0,0E0,0E0,0E0],"parents":[2147483647,0,0,1,1,2,2],"right_children":[2,4,6,-1,-1,-1,-1],"split_conditions":[6.666667E-1,3.3333334E-1,1E0,-2.7652375E-6,2.271466E-4,9.4544096E-4,2.530861E-3],"split_indices":[0,0,0,0,0,0,0],"split_type":[0,0,0,0,0,0,0],"sum_hessian":[7.31E2,7.27E2,4E0,7.2E2,7E0,2E0,2E0],"tree_param":{"num_deleted":"0","num_feature":"20","num_nodes":"7","size_leaf_vector":"1"}},{"base_weights":[1.31109E-4,-1.8746376E-6,1.9467305E-2,-2.4890974E-6,2.0727068E-4,8.82411E-4,2.3621402E-3],"categories":[],"categories_nodes":[],"categories_segments":[],"categories_sizes":[],"default_left":[0,0,0,0,0,0,0],"id":65,"left_children":[1,3,5,-1,-1,-1,-1],"loss_changes":[1.8822999E-3,3.4813056E-5,1.2626406E-5,0E0,0E0,0E0,0E0],"parents":[2147483647,0,0,1,1,2,2],"right_children":[2,4,6,-1,-1,-1,-1],"split_conditions":[6.666667E-1,3.3333334E-1,1E0,-2.4890974E-6,2.0727068E-4,8.82411E-4,2.3621402E-3],"split_indices":[0,0,0,0,0,0,0],"split_type":[0,0,0,0,0,0,0],"sum_hessian":[7.31E2,7.27E2,4E0,7.2E2,7E0,2E0,2E0],"tree_param":{"num_deleted":"0","num_feature":"20","num_nodes":"7","size_leaf_vector":"1"}},{"base_weights":[1.2271032E-4,-1.4056362E-6,1.8169452E-2,-2.2405327E-6,1.8913671E-4,8.2358526E-4,2.2046566E-3],"categories":[],"categories_nodes":[],"categories_segments":[],"categories_sizes":[],"default_left":[0,0,0,0,0,0,0],"id":66,"left_children":[1,3,5,-1,-1,-1,-1],"loss_changes":[1.6396238E-3,2.8978659E-5,1.09963585E-5,0E0,0E0,0E0,0E0],"parents":[2147483647,0,0,1,1,2,2],"right_children":[2,4,6,-1,-1,-1,-1],"split_conditions":[6.666667E-1,3.3333334E-1,1E0,-2.2405327E-6,1.8913671E-4,8.2358526E-4,2.2046566E-3],"split_indices":[0,0,0,0,0,0,0],"split_type":[0,0,0,0,0,0,0],"sum_hessian":[7.31E2,7.27E2,4E0,7.2E2,7E0,2E0,2E0],"tree_param":{"num_deleted":"0","num_feature":"20","num_nodes":"7","size_leaf_vector":"1"}},{"base_weights":[1.1483157E-4,-1.0082393E-6,1.6958142E-2,-2.0167902E-6,1.7258823E-4,7.686774E-4,2.0576797E-3],"categories":[],"categories_nodes":[],"categories_segments":[],"categories_sizes":[],"default_left":[0,0,0,0,0,0,0],"id":67,"left_children":[1,3,5,-1,-1,-1,-1],"loss_changes":[1.4282411E-3,2.412188E-5,9.580166E-6,0E0,0E0,0E0,0E0],"parents":[2147483647,0,0,1,1,2,2],"right_children":[2,4,6,-1,-1,-1,-1],"split_conditions":[6.666667E-1,3.3333334E-1,1E0,-2.0167902E-6,1.7258823E-4,7.686774E-4,2.0576797E-3],"split_indices":[0,0,0,0,0,0,0],"split_type":[0,0,0,0,0,0,0],"sum_hessian":[7.31E2,7.27E2,4E0,7.2E2,7E0,2E0,2E0],"tree_param":{"num_deleted":"0","num_feature":"20","num_nodes":"7","size_leaf_vector":"1"}},{"base_weights":[1.0744206E-4,-6.73372E-7,1.582756E-2,-1.8153909E-6,1.5748442E-4,7.1743334E-4,1.9204936E-3],"categories":[],"categories_nodes":[],"categories_segments":[],"categories_sizes":[],"default_left":[0,0,0,0,0,0,0],"id":68,"left_children":[1,3,5,-1,-1,-1,-1],"loss_changes":[1.2441087E-3,2.007836E-5,8.34337E-6,0E0,0E0,0E0,0E0],"parents":[2147483647,0,0,1,1,2,2],"right_children":[2,4,6,-1,-1,-1,-1],"split_conditions":[6.666667E-1,3.3333334E-1,1E0,-1.8153909E-6,1.5748442E-4,7.1743334E-4,1.9204936E-3],"split_indices":[0,0,0,0,0,0,0],"split_type":[0,0,0,0,0,0,0],"sum_hessian":[7.31E2,7.27E2,4E0,7.2E2,7E0,2E0,2E0],"tree_param":{"num_deleted":"0","num_feature":"20","num_nodes":"7","size_leaf_vector":"1"}},{"base_weights":[1.005145E-4,-3.921172E-7,1.4772415E-2,-1.6341036E-6,1.4370531E-4,6.6960655E-4,1.7924628E-3],"categories":[],"categories_nodes":[],"categories_segments":[],"categories_sizes":[],"default_left":[0,0,0,0,0,0,0],"id":69,"left_children":[1,3,5,-1,-1,-1,-1],"loss_changes":[1.0837258E-3,1.671339E-5,7.267343E-6,0E0,0E0,0E0,0E0],"parents":[2147483647,0,0,1,1,2,2],"right_children":[2,4,6,-1,-1,-1,-1],"split_conditions":[6.666667E-1,3.3333334E-1,1E0,-1.6341036E-6,1.4370531E-4,6.6960655E-4,1.7924628E-3],"split_indices":[0,0,0,0,0,0,0],"split_type":[0,0,0,0,0,0,0],"sum_hessian":[7.31E2,7.27E2,4E0,7.2E2,7E0,2E0,2E0],"tree_param":{"num_deleted":"0","num_feature":"20","num_nodes":"7","size_leaf_vector":"1"}},{"base_weights":[9.402072E-5,-1.5776683E-7,1.3787603E-2,-1.4709198E-6,1.3113096E-4,6.2496663E-4,1.6729673E-3],"categories":[],"categories_nodes":[],"categories_segments":[],"categories_sizes":[],"default_left":[0,0,0,0,0,0,0],"id":70,"left_children":[1,3,5,-1,-1,-1,-1],"loss_changes":[9.440192E-4,1.3912241E-5,6.3307816E-6,0E0,0E0,0E0,0E0],"parents":[2147483647,0,0,1,1,2,2],"right_children":[2,4,6,-1,-1,-1,-1],"split_conditions":[6.666667E-1,3.3333334E-1,1E0,-1.4709198E-6,1.3113096E-4,6.2496663E-4,1.6729673E-3],"split_indices":[0,0,0,0,0,0,0],"split_type":[0,0,0,0,0,0,0],"sum_hessian":[7.31E2,7.27E2,4E0,7.2E2,7E0,2E0,2E0],"tree_param":{"num_deleted":"0","num_feature":"20","num_nodes":"7","size_leaf_vector":"1"}},{"base_weights":[8.793486E-5,3.612115E-8,1.2868404E-2,-1.3240318E-6,1.19657074E-4,5.83299E-4,1.561435E-3],"categories":[],"categories_nodes":[],"categories_segments":[],"categories_sizes":[],"default_left":[0,0,0,0,0,0,0],"id":71,"left_children":[1,3,5,-1,-1,-1,-1],"loss_changes":[8.2231895E-4,1.1580646E-5,5.5159326E-6,0E0,0E0,0E0,0E0],"parents":[2147483647,0,0,1,1,2,2],"right_children":[2,4,6,-1,-1,-1,-1],"split_conditions":[6.666667E-1,3.3333334E-1,1E0,-1.3240318E-6,1.19657074E-4,5.83299E-4,1.561435E-3],"split_indices":[0,0,0,0,0,0,0],"split_type":[0,0,0,0,0,0,0],"sum_hessian":[7.31E2,7.27E2,4E0,7.2E2,7E0,2E0,2E0],"tree_param":{"num_deleted":"0","num_feature":"20","num_nodes":"7","size_leaf_vector":"1"}},{"base_weights":[8.223283E-5,1.9477469E-7,1.2010527E-2,-1.1918123E-6,1.0918453E-4,5.4441293E-4,1.4573415E-3],"categories":[],"categories_nodes":[],"categories_segments":[],"categories_sizes":[],"default_left":[0,0,0,0,0,0,0],"id":72,"left_children":[1,3,5,-1,-1,-1,-1],"loss_changes":[7.163138E-4,9.639394E-6,4.805159E-6,0E0,0E0,0E0,0E0],"parents":[2147483647,0,0,1,1,2,2],"right_children":[2,4,6,-1,-1,-1,-1],"split_conditions":[6.666667E-1,3.3333334E-1,1E0,-1.1918123E-6,1.0918453E-4,5.4441293E-4,1.4573415E-3],"split_indices":[0,0,0,0,0,0,0],"split_type":[0,0,0,0,0,0,0],"sum_hessian":[7.31E2,7.27E2,4E0,7.2E2,7E0,2E0,2E0],"tree_param":{"num_deleted":"0","num_feature":"20","num_nodes":"7","size_leaf_vector":"1"}},{"base_weights":[7.689126E-5,3.2353097E-7,1.1209774E-2,-1.0727964E-6,9.962991E-5,5.0811766E-4,1.360178E-3],"categories":[],"categories_nodes":[],"categories_segments":[],"categories_sizes":[],"default_left":[0,0,0,0,0,0,0],"id":73,"left_children":[1,3,5,-1,-1,-1,-1],"loss_changes":[6.2396744E-4,8.023798E-6,4.185131E-6,0E0,0E0,0E0,0E0],"parents":[2147483647,0,0,1,1,2,2],"right_children":[2,4,6,-1,-1,-1,-1],"split_conditions":[6.666667E-1,3.3333334E-1,1E0,-1.0727964E-6,9.962991E-5,5.0811766E-4,1.360178E-3],"split_indices":[0,0,0,0,0,0,0],"split_type":[0,0,0,0,0,0,0],"sum_hessian":[7.31E2,7.27E2,4E0,7.2E2,7E0,2E0,2E0],"tree_param":{"num_deleted":"0","num_feature":"20","num_nodes":"7","size_leaf_vector":"1"}},{"base_weights":[7.188894E-5,4.26279E-7,1.0462475E-2,-9.656655E-7,9.090975E-5,4.7424636E-4,1.2694995E-3],"categories":[],"categories_nodes":[],"categories_segments":[],"categories_sizes":[],"default_left":[0,0,0,0,0,0,0],"id":74,"left_children":[1,3,5,-1,-1,-1,-1],"loss_changes":[5.4353406E-4,6.6787675E-6,3.6446145E-6,0E0,0E0,0E0,0E0],"parents":[2147483647,0,0,1,1,2,2],"right_children":[2,4,6,-1,-1,-1,-1],"split_conditions":[6.666667E-1,3.3333334E-1,1E0,-9.656655E-7,9.090975E-5,4.7424636E-4,1.2694995E-3],"split_indices":[0,0,0,0,0,0,0],"split_type":[0,0,0,0,0,0,0],"sum_hessian":[7.31E2,7.27E2,4E0,7.2E2,7E0,2E0,2E0],"tree_param":{"num_deleted":"0","num_feature":"20","num_nodes":"7","size_leaf_vector":"1"}},{"base_weights":[6.720508E-5,5.07322E-7,9.764957E-3,-8.69233E-7,8.2956256E-5,4.4263207E-4,1.184861E-3],"categories":[],"categories_nodes":[],"categories_segments":[],"categories_sizes":[],"default_left":[0,0,0,0,0,0,0],"id":75,"left_children":[1,3,5,-1,-1,-1,-1],"loss_changes":[4.7346603E-4,5.559681E-6,3.173569E-6,0E0,0E0,0E0,0E0],"parents":[2147483647,0,0,1,1,2,2],"right_children":[2,4,6,-1,-1,-1,-1],"split_conditions":[6.666667E-1,3.3333334E-1,1E0,-8.69233E-7,8.2956256E-5,4.4263207E-4,1.184861E-3],"split_indices":[0,0,0,0,0,0,0],"split_type":[0,0,0,0,0,0,0],"sum_hessian":[7.31E2,7.27E2,4E0,7.2E2,7E0,2E0,2E0],"tree_param":{"num_deleted":"0","num_feature":"20","num_nodes":"7","size_leaf_vector":"1"}},{"base_weights":[6.281974E-5,5.692179E-7,9.113932E-3,-7.824303E-7,7.569641E-5,4.1312375E-4,1.1058649E-3],"categories":[],"categories_nodes":[],"categories_segments":[],"categories_sizes":[],"default_left":[0,0,0,0,0,0,0],"id":76,"left_children":[1,3,5,-1,-1,-1,-1],"loss_changes":[4.1243026E-4,4.6278606E-6,2.763758E-6,0E0,0E0,0E0,0E0],"parents":[2147483647,0,0,1,1,2,2],"right_children":[2,4,6,-1,-1,-1,-1],"split_conditions":[6.666667E-1,3.3333334E-1,1E0,-7.824303E-7,7.569641E-5,4.1312375E-4,1.1058649E-3],"split_indices":[0,0,0,0,0,0,0],"split_type":[0,0,0,0,0,0,0],"sum_hessian":[7.31E2,7.27E2,4E0,7.2E2,7E0,2E0,2E0],"tree_param":{"num_deleted":"0","num_feature":"20","num_nodes":"7","size_leaf_vector":"1"}},{"base_weights":[5.871528E-5,6.1518546E-7,8.506346E-3,-7.0429576E-7,6.907284E-5,3.8557846E-4,1.0321458E-3],"categories":[],"categories_nodes":[],"categories_segments":[],"categories_sizes":[],"default_left":[0,0,0,0,0,0,0],"id":77,"left_children":[1,3,5,-1,-1,-1,-1],"loss_changes":[3.592663E-4,3.8523344E-6,2.4091569E-6,0E0,0E0,0E0,0E0],"parents":[2147483647,0,0,1,1,2,2],"right_children":[2,4,6,-1,-1,-1,-1],"split_conditions":[6.666667E-1,3.3333334E-1,1E0,-7.0429576E-7,6.907284E-5,3.8557846E-4,1.0321458E-3],"split_indices":[0,0,0,0,0,0,0],"split_type":[0,0,0,0,0,0,0],"sum_hessian":[7.31E2,7.27E2,4E0,7.2E2,7E0,2E0,2E0],"tree_param":{"num_deleted":"0","num_feature":"20","num_nodes":"7","size_leaf_vector":"1"}},{"base_weights":[5.4874086E-5,6.474939E-7,7.939291E-3,-6.3396385E-7,6.302819E-5,3.5987695E-4,9.633382E-4],"categories":[],"categories_nodes":[],"categories_segments":[],"categories_sizes":[],"default_left":[0,0,0,0,0,0,0],"id":78,"left_children":[1,3,5,-1,-1,-1,-1],"loss_changes":[3.1295783E-4,3.2067144E-6,2.0978914E-6,0E0,0E0,0E0,0E0],"parents":[2147483647,0,0,1,1,2,2],"right_children":[2,4,6,-1,-1,-1,-1],"split_conditions":[6.666667E-1,3.3333334E-1,1E0,-6.3396385E-7,6.302819E-5,3.5987695E-4,9.633382E-4],"split_indices":[0,0,0,0,0,0,0],"split_type":[0,0,0,0,0,0,0],"sum_hessian":[7.31E2,7.27E2,4E0,7.2E2,7E0,2E0,2E0],"tree_param":{"num_deleted":"0","num_feature":"20","num_nodes":"7","size_leaf_vector":"1"}},{"base_weights":[5.1279487E-5,6.687015E-7,7.409954E-3,-5.706554E-7,5.7515503E-5,3.358841E-4,8.9910824E-4],"categories":[],"categories_nodes":[],"categories_segments":[],"categories_sizes":[],"default_left":[0,0,0,0,0,0,0],"id":79,"left_children":[1,3,5,-1,-1,-1,-1],"loss_changes":[2.7261255E-4,2.66958E-6,1.8270221E-6,0E0,0E0,0E0,0E0],"parents":[2147483647,0,0,1,1,2,2],"right_children":[2,4,6,-1,-1,-1,-1],"split_conditions":[6.666667E-1,3.3333334E-1,1E0,-5.706554E-7,5.7515503E-5,3.358841E-4,8.9910824E-4],"split_indices":[0,0,0,0,0,0,0],"split_type":[0,0,0,0,0,0,0],"sum_hessian":[7.31E2,7.27E2,4E0,7.2E2,7E0,2E0,2E0],"tree_param":{"num_deleted":"0","num_feature":"20","num_nodes":"7","size_leaf_vector":"1"}},{"base_weights":[4.791641E-5,6.800234E-7,6.9159507E-3,-5.136691E-7,5.2482636E-5,3.1348865E-4,8.391698E-4],"categories":[],"categories_nodes":[],"categories_segments":[],"categories_sizes":[],"default_left":[0,0,0,0,0,0,0],"id":80,"left_children":[1,3,5,-1,-1,-1,-1],"loss_changes":[2.3747156E-4,2.2222287E-6,1.5924597E-6,0E0,0E0,0E0,0E0],"parents":[2147483647,0,0,1,1,2,2],"right_children":[2,4,6,-1,-1,-1,-1],"split_conditions":[6.666667E-1,3.3333334E-1,1E0,-5.136691E-7,5.2482636E-5,3.1348865E-4,8.391698E-4],"split_indices":[0,0,0,0,0,0,0],"split_type":[0,0,0,0,0,0,0],"sum_hessian":[7.31E2,7.27E2,4E0,7.2E2,7E0,2E0,2E0],"tree_param":{"num_deleted":"0","num_feature":"20","num_nodes":"7","size_leaf_vector":"1"}},{"base_weights":[4.4769895E-5,6.8312755E-7,6.454849E-3,-4.6237338E-7,4.788786E-5,2.925873E-4,7.83221E-4],"categories":[],"categories_nodes":[],"categories_segments":[],"categories_sizes":[],"default_left":[0,0,0,0,0,0,0],"id":81,"left_children":[1,3,5,-1,-1,-1,-1],"loss_changes":[2.0685856E-4,1.8496723E-6,1.3872923E-6,0E0,0E0,0E0,0E0],"parents":[2147483647,0,0,1,1,2,2],"right_children":[2,4,6,-1,-1,-1,-1],"split_conditions":[6.666667E-1,3.3333334E-1,1E0,-4.6237338E-7,4.788786E-5,2.925873E-4,7.83221E-4],"split_indices":[0,0,0,0,0,0,0],"split_type":[0,0,0,0,0,0,0],"sum_hessian":[7.31E2,7.27E2,4E0,7.2E2,7E0,2E0,2E0],"tree_param":{"num_deleted":"0","num_feature":"20","num_nodes":"7","size_leaf_vector":"1"}},{"base_weights":[4.1827792E-5,6.8020336E-7,6.0245516E-3,-4.1620015E-7,4.3699893E-5,2.7308465E-4,7.3100725E-4],"categories":[],"categories_nodes":[],"categories_segments":[],"categories_sizes":[],"default_left":[0,0,0,0,0,0,0],"id":82,"left_children":[1,3,5,-1,-1,-1,-1],"loss_changes":[1.8019574E-4,1.5398967E-6,1.2079545E-6,0E0,0E0,0E0,0E0],"parents":[2147483647,0,0,1,1,2,2],"right_children":[2,4,6,-1,-1,-1,-1],"split_conditions":[6.666667E-1,3.3333334E-1,1E0,-4.1620015E-7,4.3699893E-5,2.7308465E-4,7.3100725E-4],"split_indices":[0,0,0,0,0,0,0],"split_type":[0,0,0,0,0,0,0],"sum_hessian":[7.31E2,7.27E2,4E0,7.2E2,7E0,2E0,2E0],"tree_param":{"num_deleted":"0","num_feature":"20","num_nodes":"7","size_leaf_vector":"1"}},{"base_weights":[3.9075927E-5,6.717318E-7,5.6229113E-3,-3.746379E-7,3.9877E-5,2.548774E-4,6.822745E-4],"categories":[],"categories_nodes":[],"categories_segments":[],"categories_sizes":[],"default_left":[0,0,0,0,0,0,0],"id":83,"left_children":[1,3,5,-1,-1,-1,-1],"loss_changes":[1.5696828E-4,1.281931E-6,1.0526419E-6,0E0,0E0,0E0,0E0],"parents":[2147483647,0,0,1,1,2,2],"right_children":[2,4,6,-1,-1,-1,-1],"split_conditions":[6.666667E-1,3.3333334E-1,1E0,-3.746379E-7,3.9877E-5,2.548774E-4,6.822745E-4],"split_indices":[0,0,0,0,0,0,0],"split_type":[0,0,0,0,0,0,0],"sum_hessian":[7.31E2,7.27E2,4E0,7.2E2,7E0,2E0,2E0],"tree_param":{"num_deleted":"0","num_feature":"20","num_nodes":"7","size_leaf_vector":"1"}},{"base_weights":[3.650238E-5,6.588345E-7,5.2480225E-4,-3.3722606E-7,3.638789E-5],"categories":[],"categories_nodes":[],"categories_segments":[],"categories_sizes":[],"default_left":[0,0,0,0,0],"id":84,"left_children":[1,3,-1,-1,-1],"loss_changes":[1.3673367E-4,1.0671462E-6,0E0,0E0,0E0],"parents":[2147483647,0,0,1,1],"right_children":[2,4,-1,-1,-1],"split_conditions":[6.666667E-1,3.3333334E-1,5.2480225E-4,-3.3722606E-7,3.638789E-5],"split_indices":[0,0,0,0,0],"split_type":[0,0,0,0,0],"sum_hessian":[7.31E2,7.27E2,4E0,7.2E2,7E0],"tree_param":{"num_deleted":"0","num_feature":"20","num_nodes":"5","size_leaf_vector":"1"}},{"base_weights":[3.3618846E-5,6.427506E-8,4.8282146E-3,2.0290216E-4,6.0180033E-4],"categories":[],"categories_nodes":[],"categories_segments":[],"categories_sizes":[],"default_left":[0,0,0,0,0],"id":85,"left_children":[1,-1,3,-1,-1],"loss_changes":[1.1573125E-4,0E0,4.441579E-6,0E0,0E0],"parents":[2147483647,0,0,2,2],"right_children":[2,-1,4,-1,-1],"split_conditions":[6.666667E-1,6.427506E-8,1E0,2.0290216E-4,6.0180033E-4],"split_indices":[0,0,0,0,0],"split_type":[0,0,0,0,0],"sum_hessian":[7.31E2,7.27E2,4E0,2E0,2E0],"tree_param":{"num_deleted":"0","num_feature":"20","num_nodes":"5","size_leaf_vector":"1"}},{"base_weights":[3.135652E-5,5.786087E-8,4.5063496E-3,1.8937587E-4,5.616824E-4],"categories":[],"categories_nodes":[],"categories_segments":[],"categories_sizes":[],"default_left":[0,0,0,0,0],"id":86,"left_children":[1,-1,3,-1,-1],"loss_changes":[1.0081645E-4,0E0,3.869165E-6,0E0,0E0],"parents":[2147483647,0,0,2,2],"right_children":[2,-1,4,-1,-1],"split_conditions":[6.666667E-1,5.786087E-8,1E0,1.8937587E-4,5.616824E-4],"split_indices":[0,0,0,0,0],"split_type":[0,0,0,0,0],"sum_hessian":[7.31E2,7.27E2,4E0,2E0,2E0],"tree_param":{"num_deleted":"0","num_feature":"20","num_nodes":"5","size_leaf_vector":"1"}},{"base_weights":[2.9246752E-5,5.2081056E-8,4.2058947E-3,1.7674765E-4,5.242348E-4],"categories":[],"categories_nodes":[],"categories_segments":[],"categories_sizes":[],"default_left":[0,0,0,0,0],"id":87,"left_children":[1,-1,3,-1,-1],"loss_changes":[8.7821805E-5,0E0,3.370813E-6,0E0,0E0],"parents":[2147483647,0,0,2,2],"right_children":[2,-1,4,-1,-1],"split_conditions":[6.666667E-1,5.2081056E-8,1E0,1.7674765E-4,5.242348E-4],"split_indices":[0,0,0,0,0],"split_type":[0,0,0,0,0],"sum_hessian":[7.31E2,7.27E2,4E0,2E0,2E0],"tree_param":{"num_deleted":"0","num_feature":"20","num_nodes":"5","size_leaf_vector":"1"}},{"base_weights":[2.7279464E-5,4.6872866E-8,3.9254664E-3,1.6496182E-4,4.892826E-4],"categories":[],"categories_nodes":[],"categories_segments":[],"categories_sizes":[],"default_left":[0,0,0,0,0],"id":88,"left_children":[1,-1,3,-1,-1],"loss_changes":[7.650187E-5,0E0,2.9365183E-6,0E0,0E0],"parents":[2147483647,0,0,2,2],"right_children":[2,-1,4,-1,-1],"split_conditions":[6.666667E-1,4.6872866E-8,1E0,1.6496182E-4,4.892826E-4],"split_indices":[0,0,0,0,0],"split_type":[0,0,0,0,0],"sum_hessian":[7.31E2,7.27E2,4E0,2E0,2E0],"tree_param":{"num_deleted":"0","num_feature":"20","num_nodes":"5","size_leaf_vector":"1"}},{"base_weights":[2.54453E-5,4.2179774E-8,3.6637783E-3,1.5396277E-4,4.5666695E-4],"categories":[],"categories_nodes":[],"categories_segments":[],"categories_sizes":[],"default_left":[0,0,0,0,0],"id":89,"left_children":[1,-1,3,-1,-1],"loss_changes":[6.664255E-5,0E0,2.5584086E-6,0E0,0E0],"parents":[2147483647,0,0,2,2],"right_children":[2,-1,4,-1,-1],"split_conditions":[6.666667E-1,4.2179774E-8,1E0,1.5396277E-4,4.5666695E-4],"split_indices":[0,0,0,0,0],"split_type":[0,0,0,0,0],"sum_hessian":[7.31E2,7.27E2,4E0,2E0,2E0],"tree_param":{"num_deleted":"0","num_feature":"20","num_nodes":"5","size_leaf_vector":"1"}},{"base_weights":[2.3734963E-5,3.795083E-8,3.4195422E-3,1.4369488E-4,4.2622886E-4],"categories":[],"categories_nodes":[],"categories_segments":[],"categories_sizes":[],"default_left":[0,0,0,0,0],"id":90,"left_children":[1,-1,3,-1,-1],"loss_changes":[5.805408E-5,0E0,2.2294262E-6,0E0,0E0],"parents":[2147483647,0,0,2,2],"right_children":[2,-1,4,-1,-1],"split_conditions":[6.666667E-1,3.795083E-8,1E0,1.4369488E-4,4.2622886E-4],"split_indices":[0,0,0,0,0],"split_type":[0,0,0,0,0],"sum_hessian":[7.31E2,7.27E2,4E0,2E0,2E0],"tree_param":{"num_deleted":"0","num_feature":"20","num_nodes":"5","size_leaf_vector":"1"}},{"base_weights":[2.2139853E-5,3.4140125E-8,3.1915666E-3,1.3411841E-4,3.9780937E-4],"categories":[],"categories_nodes":[],"categories_segments":[],"categories_sizes":[],"default_left":[0,0,0,0,0],"id":91,"left_children":[1,-1,3,-1,-1],"loss_changes":[5.0571758E-5,0E0,1.9415238E-6,0E0,0E0],"parents":[2147483647,0,0,2,2],"right_children":[2,-1,4,-1,-1],"split_conditions":[6.666667E-1,3.4140125E-8,1E0,1.3411841E-4,3.9780937E-4],"split_indices":[0,0,0,0,0],"split_type":[0,0,0,0,0],"sum_hessian":[7.31E2,7.27E2,4E0,2E0,2E0],"tree_param":{"num_deleted":"0","num_feature":"20","num_nodes":"5","size_leaf_vector":"1"}},{"base_weights":[2.0652065E-5,3.0706314E-8,2.978754E-3,1.2517771E-4,3.7128132E-4],"categories":[],"categories_nodes":[],"categories_segments":[],"categories_sizes":[],"default_left":[0,0,0,0,0],"id":92,"left_children":[1,-1,3,-1,-1],"loss_changes":[4.4052744E-5,0E0,1.6908998E-6,0E0,0E0],"parents":[2147483647,0,0,2,2],"right_children":[2,-1,4,-1,-1],"split_conditions":[6.666667E-1,3.0706314E-8,1E0,1.2517771E-4,3.7128132E-4],"split_indices":[0,0,0,0,0],"split_type":[0,0,0,0,0],"sum_hessian":[7.31E2,7.27E2,4E0,2E0,2E0],"tree_param":{"num_deleted":"0","num_feature":"20","num_nodes":"5","size_leaf_vector":"1"}},{"base_weights":[1.9265042E-5,2.7612112E-8,2.780199E-3,1.1683306E-4,3.4653346E-4],"categories":[],"categories_nodes":[],"categories_segments":[],"categories_sizes":[],"default_left":[0,0,0,0,0],"id":93,"left_children":[1,-1,3,-1,-1],"loss_changes":[3.8375914E-5,0E0,1.4730831E-6,0E0,0E0],"parents":[2147483647,0,0,2,2],"right_children":[2,-1,4,-1,-1],"split_conditions":[6.666667E-1,2.7612112E-8,1E0,1.1683306E-4,3.4653346E-4],"split_indices":[0,0,0,0,0],"split_type":[0,0,0,0,0],"sum_hessian":[7.31E2,7.27E2,4E0,2E0,2E0],"tree_param":{"num_deleted":"0","num_feature":"20","num_nodes":"5","size_leaf_vector":"1"}},{"base_weights":[1.7972181E-5,2.488125E-8,2.5949E-3,1.0904471E-4,3.2343864E-4],"categories":[],"categories_nodes":[],"categories_segments":[],"categories_sizes":[],"default_left":[0,0,0,0,0],"id":94,"left_children":[1,-1,3,-1,-1],"loss_changes":[3.343114E-5,0E0,1.2834571E-6,0E0,0E0],"parents":[2147483647,0,0,2,2],"right_children":[2,-1,4,-1,-1],"split_conditions":[6.666667E-1,2.488125E-8,1E0,1.0904471E-4,3.2343864E-4],"split_indices":[0,0,0,0,0],"split_type":[0,0,0,0,0],"sum_hessian":[7.31E2,7.27E2,4E0,2E0,2E0],"tree_param":{"num_deleted":"0","num_feature":"20","num_nodes":"5","size_leaf_vector":"1"}},{"base_weights":[1.676571E-5,2.2420464E-8,2.421856E-3,1.01772945E-4,3.018697E-4],"categories":[],"categories_nodes":[],"categories_segments":[],"categories_sizes":[],"default_left":[0,0,0,0,0],"id":95,"left_children":[1,-1,3,-1,-1],"loss_changes":[2.912121E-5,0E0,1.1179854E-6,0E0,0E0],"parents":[2147483647,0,0,2,2],"right_children":[2,-1,4,-1,-1],"split_conditions":[6.666667E-1,2.2420464E-8,1E0,1.01772945E-4,3.018697E-4],"split_indices":[0,0,0,0,0],"split_type":[0,0,0,0,0],"sum_hessian":[7.31E2,7.27E2,4E0,2E0,2E0],"tree_param":{"num_deleted":"0","num_feature":"20","num_nodes":"5","size_leaf_vector":"1"}},{"base_weights":[1.564081E-5,2.0203062E-8,2.2603989E-4],"categories":[],"categories_nodes":[],"categories_segments":[],"categories_sizes":[],"default_left":[0,0,0],"id":96,"left_children":[1,-1,-1],"loss_changes":[2.5367974E-5,0E0,0E0],"parents":[2147483647,0,0],"right_children":[2,-1,-1],"split_conditions":[6.666667E-1,2.0203062E-8,2.2603989E-4],"split_indices":[0,0,0],"split_type":[0,0,0],"sum_hessian":[7.31E2,7.27E2,4E0],"tree_param":{"num_deleted":"0","num_feature":"20","num_nodes":"3","size_leaf_vector":"1"}},{"base_weights":[1.43858515E-5,1.8204956E-8,2.0795823E-3,7.991791E-5,2.6667913E-4],"categories":[],"categories_nodes":[],"categories_segments":[],"categories_sizes":[],"default_left":[0,0,0,0,0],"id":97,"left_children":[1,-1,3,-1,-1],"loss_changes":[2.1471846E-5,0E0,1.6280774E-6,0E0,0E0],"parents":[2147483647,0,0,2,2],"right_children":[2,-1,4,-1,-1],"split_conditions":[6.666667E-1,1.8204956E-8,1E0,7.991791E-5,2.6667913E-4],"split_indices":[0,0,0,0,0],"split_type":[0,0,0,0,0],"sum_hessian":[7.31E2,7.27E2,4E0,2E0,2E0],"tree_param":{"num_deleted":"0","num_feature":"20","num_nodes":"5","size_leaf_vector":"1"}},{"base_weights":[1.3420785E-5,1.6404472E-8,1.9409179E-3,7.459323E-5,2.488931E-4],"categories":[],"categories_nodes":[],"categories_segments":[],"categories_sizes":[],"default_left":[0,0,0,0,0],"id":98,"left_children":[1,-1,3,-1,-1],"loss_changes":[1.8703988E-5,0E0,1.417764E-6,0E0,0E0],"parents":[2147483647,0,0,2,2],"right_children":[2,-1,4,-1,-1],"split_conditions":[6.666667E-1,1.6404472E-8,1E0,7.459323E-5,2.488931E-4],"split_indices":[0,0,0,0,0],"split_type":[0,0,0,0,0],"sum_hessian":[7.31E2,7.27E2,4E0,2E0,2E0],"tree_param":{"num_deleted":"0","num_feature":"20","num_nodes":"5","size_leaf_vector":"1"}},{"base_weights":[1.2520676E-5,1.4782043E-8,1.8115044E-3,6.9618225E-5,2.3229916E-4],"categories":[],"categories_nodes":[],"categories_segments":[],"categories_sizes":[],"default_left":[0,0,0,0,0],"id":99,"left_children":[1,-1,3,-1,-1],"loss_changes":[1.6293001E-5,0E0,1.2351411E-6,0E0,0E0],"parents":[2147483647,0,0,2,2],"right_children":[2,-1,4,-1,-1],"split_conditions":[6.666667E-1,1.4782043E-8,1E0,6.9618225E-5,2.3229916E-4],"split_indices":[0,0,0,0,0],"split_type":[0,0,0,0,0],"sum_hessian":[7.31E2,7.27E2,4E0,2E0,2E0],"tree_param":{"num_deleted":"0","num_feature":"20","num_nodes":"5","size_leaf_vector":"1"}},{"base_weights":[1.1681443E-5,1.33200855E-8,1.6907692E-3,6.497701E-5,2.1681786E-4],"categories":[],"categories_nodes":[],"categories_segments":[],"categories_sizes":[],"default_left":[0,0,0,0,0],"id":100,"left_children":[1,-1,3,-1,-1],"loss_changes":[1.4193629E-5,0E0,1.0760959E-6,0E0,0E0],"parents":[2147483647,0,0,2,2],"right_children":[2,-1,4,-1,-1],"split_conditions":[6.666667E-1,1.33200855E-8,1E0,6.497701E-5,2.1681786E-4],"split_indices":[0,0,0,0,0],"split_type":[0,0,0,0,0],"sum_hessian":[7.31E2,7.27E2,4E0,2E0,2E0],"tree_param":{"num_deleted":"0","num_feature":"20","num_nodes":"5","size_leaf_vector":"1"}},{"base_weights":[1.0898692E-5,1.2002722E-8,1.5780926E-4],"categories":[],"categories_nodes":[],"categories_segments":[],"categories_sizes":[],"default_left":[0,0,0],"id":101,"left_children":[1,-1,-1],"loss_changes":[1.2364943E-5,0E0,0E0],"parents":[2147483647,0,0],"right_children":[2,-1,-1],"split_conditions":[6.666667E-1,1.2002722E-8,1.5780926E-4],"split_indices":[0,0,0],"split_type":[0,0,0],"sum_hessian":[7.31E2,7.27E2,4E0],"tree_param":{"num_deleted":"0","num_feature":"20","num_nodes":"3","size_leaf_vector":"1"}},{"base_weights":[1.0024411E-5,2.1677313E-6,1.9184749E-4,-3.5706572E-7,4.1568877E-5],"categories":[],"categories_nodes":[],"categories_segments":[],"categories_sizes":[],"default_left":[0,0,0,0,0],"id":102,"left_children":[1,3,-1,-1,-1],"loss_changes":[1.0971509E-5,1.7337336E-6,0E0,0E0,0E0],"parents":[2147483647,0,0,1,1],"right_children":[2,4,-1,-1,-1],"split_conditions":[1E0,3.3333334E-1,1.9184749E-4,-3.5706572E-7,4.1568877E-5],"split_indices":[0,0,0,0,0],"split_type":[0,0,0,0,0],"sum_hessian":[7.31E2,7.29E2,2E0,7.2E2,9E0],"tree_param":{"num_deleted":"0","num_feature":"20","num_nodes":"5","size_leaf_vector":"1"}},{"base_weights":[9.340277E-6,2.0075506E-6,1.7905235E-4,-3.2140866E-7,3.7828686E-5],"categories":[],"categories_nodes":[],"categories_segments":[],"categories_sizes":[],"default_left":[0,0,0,0,0],"id":103,"left_children":[1,3,-1,-1,-1],"loss_changes":[9.557006E-6,1.4355154E-6,0E0,0E0,0E0],"parents":[2147483647,0,0,1,1],"right_children":[2,4,-1,-1,-1],"split_conditions":[1E0,3.3333334E-1,1.7905235E-4,-3.2140866E-7,3.7828686E-5],"split_indices":[0,0,0,0,0],"split_type":[0,0,0,0,0],"sum_hessian":[7.31E2,7.29E2,2E0,7.2E2,9E0],"tree_param":{"num_deleted":"0","num_feature":"20","num_nodes":"5","size_leaf_vector":"1"}},{"base_weights":[8.702009E-6,1.8580888E-6,1.6711553E-4,-2.893124E-7,3.442347E-5],"categories":[],"categories_nodes":[],"categories_segments":[],"categories_sizes":[],"default_left":[0,0,0,0,0],"id":104,"left_children":[1,3,-1,-1,-1],"loss_changes":[8.325369E-6,1.1884898E-6,0E0,0E0,0E0],"parents":[2147483647,0,0,1,1],"right_children":[2,4,-1,-1,-1],"split_conditions":[1E0,3.3333334E-1,1.6711553E-4,-2.893124E-7,3.442347E-5],"split_indices":[0,0,0,0,0],"split_type":[0,0,0,0,0],"sum_hessian":[7.31E2,7.29E2,2E0,7.2E2,9E0],"tree_param":{"num_deleted":"0","num_feature":"20","num_nodes":"5","size_leaf_vector":"1"}},{"base_weights":[8.106352E-6,1.7186936E-7,1.5597344E-4],"categories":[],"categories_nodes":[],"categories_segments":[],"categories_sizes":[],"default_left":[0,0,0],"id":105,"left_children":[1,-1,-1],"loss_changes":[7.252368E-6,0E0,0E0],"parents":[2147483647,0,0],"right_children":[2,-1,-1],"split_conditions":[1E0,1.7186936E-7,1.5597344E-4],"split_indices":[0,0,0],"split_type":[0,0,0],"sum_hessian":[7.31E2,7.29E2,2E0],"tree_param":{"num_deleted":"0","num_feature":"20","num_nodes":"3","size_leaf_vector":"1"}},{"base_weights":[7.5092375E-6,-2.0105418E-8,1.1286258E-4],"categories":[],"categories_nodes":[],"categories_segments":[],"categories_sizes":[],"default_left":[0,0,0],"id":106,"left_children":[1,-1,-1],"loss_changes":[6.327735E-6,0E0,0E0],"parents":[2147483647,0,0],"right_children":[2,-1,-1],"split_conditions":[6.666667E-1,-2.0105418E-8,1.1286258E-4],"split_indices":[0,0,0],"split_type":[0,0,0],"sum_hessian":[7.31E2,7.27E2,4E0],"tree_param":{"num_deleted":"0","num_feature":"20","num_nodes":"3","size_leaf_vector":"1"}},{"base_weights":[6.9124476E-6,1.2576767E-7,1.3806025E-4],"categories":[],"categories_nodes":[],"categories_segments":[],"categories_sizes":[],"default_left":[0,0,0],"id":107,"left_children":[1,-1,-1],"loss_changes":[5.684368E-6,0E0,0E0],"parents":[2147483647,0,0],"right_children":[2,-1,-1],"split_conditions":[1E0,1.2576767E-7,1.3806025E-4],"split_indices":[0,0,0],"split_type":[0,0,0],"sum_hessian":[7.31E2,7.29E2,2E0],"tree_param":{"num_deleted":"0","num_feature":"20","num_nodes":"3","size_leaf_vector":"1"}},{"base_weights":[6.4101055E-6,1.1321621E-7,1.288573E-4],"categories":[],"categories_nodes":[],"categories_segments":[],"categories_sizes":[],"default_left":[0,0,0],"id":108,"left_children":[1,-1,-1],"loss_changes":[4.952119E-6,0E0,0E0],"parents":[2147483647,0,0],"right_children":[2,-1,-1],"split_conditions":[1E0,1.1321621E-7,1.288573E-4],"split_indices":[0,0,0],"split_type":[0,0,0],"sum_hessian":[7.31E2,7.29E2,2E0],"tree_param":{"num_deleted":"0","num_feature":"20","num_nodes":"3","size_leaf_vector":"1"}},{"base_weights":[5.9455147E-6,1.0190272E-7,1.2027422E-4],"categories":[],"categories_nodes":[],"categories_segments":[],"categories_sizes":[],"default_left":[0,0,0],"id":109,"left_children":[1,-1,-1],"loss_changes":[4.3146492E-6,0E0,0E0],"parents":[2147483647,0,0],"right_children":[2,-1,-1],"split_conditions":[1E0,1.0190272E-7,1.2027422E-4],"split_indices":[0,0,0],"split_type":[0,0,0],"sum_hessian":[7.31E2,7.29E2,2E0],"tree_param":{"num_deleted":"0","num_feature":"20","num_nodes":"3","size_leaf_vector":"1"}},{"base_weights":[5.5155024E-6,-5.2174894E-8,8.834362E-5],"categories":[],"categories_nodes":[],"categories_segments":[],"categories_sizes":[],"default_left":[0,0,0],"id":110,"left_children":[1,-1,-1],"loss_changes":[3.8802277E-6,0E0,0E0],"parents":[2147483647,0,0],"right_children":[2,-1,-1],"split_conditions":[6.666667E-1,-5.2174894E-8,8.834362E-5],"split_indices":[0,0,0],"split_type":[0,0,0],"sum_hessian":[7.31E2,7.27E2,4E0],"tree_param":{"num_deleted":"0","num_feature":"20","num_nodes":"3","size_leaf_vector":"1"}},{"base_weights":[5.0843664E-6,7.270713E-8,1.0636648E-4],"categories":[],"categories_nodes":[],"categories_segments":[],"categories_sizes":[],"default_left":[0,0,0],"id":111,"left_children":[1,-1,-1],"loss_changes":[3.3756112E-6,0E0,0E0],"parents":[2147483647,0,0],"right_children":[2,-1,-1],"split_conditions":[1E0,7.270713E-8,1.0636648E-4],"split_indices":[0,0,0],"split_type":[0,0,0],"sum_hessian":[7.31E2,7.29E2,2E0],"tree_param":{"num_deleted":"0","num_feature":"20","num_nodes":"3","size_leaf_vector":"1"}},{"base_weights":[4.721424E-6,-5.4205533E-8,7.701397E-5],"categories":[],"categories_nodes":[],"categories_segments":[],"categories_sizes":[],"default_left":[0,0,0],"id":112,"left_children":[1,-1,-1],"loss_changes":[2.949472E-6,0E0,0E0],"parents":[2147483647,0,0],"right_children":[2,-1,-1],"split_conditions":[6.666667E-1,-5.4205533E-8,7.701397E-5],"split_indices":[0,0,0],"split_type":[0,0,0],"sum_hessian":[7.31E2,7.27E2,4E0],"tree_param":{"num_deleted":"0","num_feature":"20","num_nodes":"3","size_leaf_vector":"1"}},{"base_weights":[4.354495E-6,4.9751236E-8,9.414355E-5],"categories":[],"categories_nodes":[],"categories_segments":[],"categories_sizes":[],"default_left":[0,0,0],"id":113,"left_children":[1,-1,-1],"loss_changes":[2.6452033E-6,0E0,0E0],"parents":[2147483647,0,0],"right_children":[2,-1,-1],"split_conditions":[1E0,4.9751236E-8,9.414355E-5],"split_indices":[0,0,0],"split_type":[0,0,0],"sum_hessian":[7.31E2,7.29E2,2E0],"tree_param":{"num_deleted":"0","num_feature":"20","num_nodes":"3","size_leaf_vector":"1"}},{"base_weights":[4.04768E-6,4.4787118E-8,8.786519E-5],"categories":[],"categories_nodes":[],"categories_segments":[],"categories_sizes":[],"default_left":[0,0,0],"id":114,"left_children":[1,-1,-1],"loss_changes":[2.3042412E-6,0E0,0E0],"parents":[2147483647,0,0],"right_children":[2,-1,-1],"split_conditions":[1E0,4.4787118E-8,8.786519E-5],"split_indices":[0,0,0],"split_type":[0,0,0],"sum_hessian":[7.31E2,7.29E2,2E0],"tree_param":{"num_deleted":"0","num_feature":"20","num_nodes":"3","size_leaf_vector":"1"}},{"base_weights":[3.7626842E-6,-3.1569604E-7,4.1920444E-5],"categories":[],"categories_nodes":[],"categories_segments":[],"categories_sizes":[],"default_left":[0,0,0],"id":115,"left_children":[1,-1,-1],"loss_changes":[2.1056105E-6,0E0,0E0],"parents":[2147483647,0,0],"right_children":[2,-1,-1],"split_conditions":[3.3333334E-1,-3.1569604E-7,4.1920444E-5],"split_indices":[0,0,0],"split_type":[0,0,0],"sum_hessian":[7.31E2,7.2E2,1.1E1],"tree_param":{"num_deleted":"0","num_feature":"20","num_nodes":"3","size_leaf_vector":"1"}},{"base_weights":[3.4432035E-6,1.9773335E-8,7.9202655E-5],"categories":[],"categories_nodes":[],"categories_segments":[],"categories_sizes":[],"default_left":[0,0,0],"id":116,"left_children":[1,-1,-1],"loss_changes":[1.8732682E-6,0E0,0E0],"parents":[2147483647,0,0],"right_children":[2,-1,-1],"split_conditions":[1E0,1.9773335E-8,7.9202655E-5],"split_indices":[0,0,0],"split_type":[0,0,0],"sum_hessian":[7.31E2,7.29E2,2E0],"tree_param":{"num_deleted":"0","num_feature":"20","num_nodes":"3","size_leaf_vector":"1"}},{"base_weights":[3.2074838E-6,1.7823089E-8,7.392566E-5],"categories":[],"categories_nodes":[],"categories_segments":[],"categories_sizes":[],"default_left":[0,0,0],"id":117,"left_children":[1,-1,-1],"loss_changes":[1.6319931E-6,0E0,0E0],"parents":[2147483647,0,0],"right_children":[2,-1,-1],"split_conditions":[1E0,1.7823089E-8,7.392566E-5],"split_indices":[0,0,0],"split_type":[0,0,0],"sum_hessian":[7.31E2,7.29E2,2E0],"tree_param":{"num_deleted":"0","num_feature":"20","num_nodes":"3","size_leaf_vector":"1"}},{"base_weights":[2.9880136E-6,-2.8792462E-7,3.552636E-5],"categories":[],"categories_nodes":[],"categories_segments":[],"categories_sizes":[],"default_left":[0,0,0],"id":118,"left_children":[1,-1,-1],"loss_changes":[1.513988E-6,0E0,0E0],"parents":[2147483647,0,0],"right_children":[2,-1,-1],"split_conditions":[3.3333334E-1,-2.8792462E-7,3.552636E-5],"split_indices":[0,0,0],"split_type":[0,0,0],"sum_hessian":[7.31E2,7.2E2,1.1E1],"tree_param":{"num_deleted":"0","num_feature":"20","num_nodes":"3","size_leaf_vector":"1"}},{"base_weights":[2.7373821E-6,6.660706E-10,6.663005E-5],"categories":[],"categories_nodes":[],"categories_segments":[],"categories_sizes":[],"default_left":[0,0,0],"id":119,"left_children":[1,-1,-1],"loss_changes":[1.3263839E-6,0E0,0E0],"parents":[2147483647,0,0],"right_children":[2,-1,-1],"split_conditions":[1E0,6.660706E-10,6.663005E-5],"split_indices":[0,0,0],"split_type":[0,0,0],"sum_hessian":[7.31E2,7.29E2,2E0],"tree_param":{"num_deleted":"0","num_feature":"20","num_nodes":"3","size_leaf_vector":"1"}},{"base_weights":[2.5549816E-6,-7.678576E-8,4.858494E-5],"categories":[],"categories_nodes":[],"categories_segments":[],"categories_sizes":[],"default_left":[0,0,0],"id":120,"left_children":[1,-1,-1],"loss_changes":[1.1758989E-6,0E0,0E0],"parents":[2147483647,0,0],"right_children":[2,-1,-1],"split_conditions":[6.666667E-1,-7.678576E-8,4.858494E-5],"split_indices":[0,0,0],"split_type":[0,0,0],"sum_hessian":[7.31E2,7.27E2,4E0],"tree_param":{"num_deleted":"0","num_feature":"20","num_nodes":"3","size_leaf_vector":"1"}},{"base_weights":[2.3653006E-6,-2.515707E-7,2.954354E-5],"categories":[],"categories_nodes":[],"categories_segments":[],"categories_sizes":[],"default_left":[0,0,0],"id":121,"left_children":[1,-1,-1],"loss_changes":[1.0478527E-6,0E0,0E0],"parents":[2147483647,0,0],"right_children":[2,-1,-1],"split_conditions":[3.3333334E-1,-2.515707E-7,2.954354E-5],"split_indices":[0,0,0],"split_type":[0,0,0],"sum_hessian":[7.31E2,7.2E2,1.1E1],"tree_param":{"num_deleted":"0","num_feature":"20","num_nodes":"3","size_leaf_vector":"1"}},{"base_weights":[2.168481E-6],"categories":[],"categories_nodes":[],"categories_segments":[],"categories_sizes":[],"default_left":[0],"id":122,"left_children":[-1],"loss_changes":[0E0],"parents":[2147483647],"right_children":[-1],"split_conditions":[2.168481E-7],"split_indices":[0],"split_type":[0],"sum_hessian":[7.31E2],"tree_param":{"num_deleted":"0","num_feature":"20","num_nodes":"1","size_leaf_vector":"1"}},{"base_weights":[1.9516049E-6],"categories":[],"categories_nodes":[],"categories_segments":[],"categories_sizes":[],"default_left":[0],"id":123,"left_children":[-1],"loss_changes":[0E0],"parents":[2147483647],"right_children":[-1],"split_conditions":[1.951605E-7],"split_indices":[0],"split_type":[0],"sum_hessian":[7.31E2],"tree_param":{"num_deleted":"0","num_feature":"20","num_nodes":"1","size_leaf_vector":"1"}},{"base_weights":[1.7566309E-6],"categories":[],"categories_nodes":[],"categories_segments":[],"categories_sizes":[],"default_left":[0],"id":124,"left_children":[-1],"loss_changes":[0E0],"parents":[2147483647],"right_children":[-1],"split_conditions":[1.7566309E-7],"split_indices":[0],"split_type":[0],"sum_hessian":[7.31E2],"tree_param":{"num_deleted":"0","num_feature":"20","num_nodes":"1","size_leaf_vector":"1"}},{"base_weights":[1.5811605E-6],"categories":[],"categories_nodes":[],"categories_segments":[],"categories_sizes":[],"default_left":[0],"id":125,"left_children":[-1],"loss_changes":[0E0],"parents":[2147483647],"right_children":[-1],"split_conditions":[1.5811605E-7],"split_indices":[0],"split_type":[0],"sum_hessian":[7.31E2],"tree_param":{"num_deleted":"0","num_feature":"20","num_nodes":"1","size_leaf_vector":"1"}},{"base_weights":[1.4229494E-6],"categories":[],"categories_nodes":[],"categories_segments":[],"categories_sizes":[],"default_left":[0],"id":126,"left_children":[-1],"loss_changes":[0E0],"parents":[2147483647],"right_children":[-1],"split_conditions":[1.4229494E-7],"split_indices":[0],"split_type":[0],"sum_hessian":[7.31E2],"tree_param":{"num_deleted":"0","num_feature":"20","num_nodes":"1","size_leaf_vector":"1"}},{"base_weights":[1.28087E-6],"categories":[],"categories_nodes":[],"categories_segments":[],"categories_sizes":[],"default_left":[0],"id":127,"left_children":[-1],"loss_changes":[0E0],"parents":[2147483647],"right_children":[-1],"split_conditions":[1.2808701E-7],"split_indices":[0],"split_type":[0],"sum_hessian":[7.31E2],"tree_param":{"num_deleted":"0","num_feature":"20","num_nodes":"1","size_leaf_vector":"1"}}]},"name":"gbtree"},"learner_model_param":{"base_score":"2.3255814E-2","boost_from_average":"1","num_class":"0","num_feature":"20","num_target":"1"},"objective":{"name":"reg:squarederror","reg_loss_param":{"scale_pos_weight":"1"}}},"version":[2,1,1]}