{"learner":{"attributes":{"best_iteration":"127","best_score":"0.5905502795745053","scikit_learn":"{\"_estimator_type\": \"regressor\"}"},"feature_names":[],"feature_types":[],"gradient_booster":{"model":{"gbtree_model_param":{"num_parallel_tree":"1","num_trees":"128"},"iteration_indptr":[0,1,2,3,4,5,6,7,8,9,10,11,12,13,14,15,16,17,18,19,20,21,22,23,24,25,26,27,28,29,30,31,32,33,34,35,36,37,38,39,40,41,42,43,44,45,46,47,48,49,50,51,52,53,54,55,56,57,58,59,60,61,62,63,64,65,66,67,68,69,70,71,72,73,74,75,76,77,78,79,80,81,82,83,84,85,86,87,88,89,90,91,92,93,94,95,96,97,98,99,100,101,102,103,104,105,106,107,108,109,110,111,112,113,114,115,116,117,118,119,120,121,122,123,124,125,126,127,128],"tree_info":[0,0,0,0,0,0,0,0,0,0,0,0,0,0,0,0,0,0,0,0,0,0,0,0,0,0,0,0,0,0,0,0,0,0,0,0,0,0,0,0,0,0,0,0,0,0,0,0,0,0,0,0,0,0,0,0,0,0,0,0,0,0,0,0,0,0,0,0,0,0,0,0,0,0,0,0,0,0,0,0,0,0,0,0,0,0,0,0,0,0,0,0,0,0,0,0,0,0,0,0,0,0,0,0,0,0,0,0,0,0,0,0,0,0,0,0,0,0,0,0,0,0,0,0,0,0,0,0],"trees":[{"base_weights":[2.1781752E-9,-9.0153515E-3,1.0492004E0,8.915185E-2,1.8086335E-1],"categories":[],"categories_nodes":[],"categories_segments":[],"categories_sizes":[],"default_left":[0,0,0,0,0],"id":0,"left_children":[1,-1,3,-1,-1],"loss_changes":[6.9333824E1,0E0,5.3329964E0,0E0,0E0],"parents":[2147483647,0,0,2,2],"right_children":[2,-1,4,-1,-1],"split_conditions":[3.3333334E-1,-9.0153515E-3,6.666667E-1,8.915185E-2,1.8086335E-1],"split_indices":[0,0,0,0,0],"split_type":[0,0,0,0,0],"sum_hessian":[7.31E2,6.74E2,5.7E1,4.9E1,8E0],"tree_param":{"num_deleted":"0","num_feature":"5","num_nodes":"5","size_leaf_vector":"1"}},{"base_weights":[3.5655903E-4,-8.115153E-3,9.489358E-1,8.0414966E-2,1.6478662E-1],"categories":[],"categories_nodes":[],"categories_segments":[],"categories_sizes":[],"default_left":[0,0,0,0,0],"id":1,"left_children":[1,-1,3,-1,-1],"loss_changes":[5.6672962E1,0E0,4.5442085E0,0E0,0E0],"parents":[2147483647,0,0,2,2],"right_children":[2,-1,4,-1,-1],"split_conditions":[3.3333334E-1,-8.115153E-3,6.666667E-1,8.0414966E-2,1.6478662E-1],"split_indices":[0,0,0,0,0],"split_type":[0,0,0,0,0],"sum_hessian":[7.31E2,6.74E2,5.7E1,4.9E1,8E0],"tree_param":{"num_deleted":"0","num_feature":"5","num_nodes":"5","size_leaf_vector":"1"}},{"base_weights":[6.447912E-4,-7.3048393E-3,8.582699E-1,7.25343E-2,1.5013891E-1],"categories":[],"categories_nodes":[],"categories_segments":[],"categories_sizes":[],"default_left":[0,0,0,0,0],"id":2,"left_children":[1,-1,3,-1,-1],"loss_changes":[4.6325916E1,0E0,3.8692741E0,0E0,0E0],"parents":[2147483647,0,0,2,2],"right_children":[2,-1,4,-1,-1],"split_conditions":[3.3333334E-1,-7.3048393E-3,6.666667E-1,7.25343E-2,1.5013891E-1],"split_indices":[0,0,0,0,0],"split_type":[0,0,0,0,0],"sum_hessian":[7.31E2,6.74E2,5.7E1,4.9E1,8E0],"tree_param":{"num_deleted":"0","num_feature":"5","num_nodes":"5","size_leaf_vector":"1"}},{"base_weights":[8.7452924E-4,-6.5754377E-3,7.762821E-1,6.542594E-2,1.3679324E-1],"categories":[],"categories_nodes":[],"categories_segments":[],"categories_sizes":[],"default_left":[0,0,0,0,0],"id":3,"left_children":[1,-1,3,-1,-1],"loss_changes":[3.78695E1,0E0,3.2923088E0,0E0,0E0],"parents":[2147483647,0,0,2,2],"right_children":[2,-1,4,-1,-1],"split_conditions":[3.3333334E-1,-6.5754377E-3,6.666667E-1,6.542594E-2,1.3679324E-1],"split_indices":[0,0,0,0,0],"split_type":[0,0,0,0,0],"sum_hessian":[7.31E2,6.74E2,5.7E1,4.9E1,8E0],"tree_param":{"num_deleted":"0","num_feature":"5","num_nodes":"5","size_leaf_vector":"1"}},{"base_weights":[1.0543548E-3,-5.918868E-3,7.0214045E-1,5.90142E-2,1.2463384E-1],"categories":[],"categories_nodes":[],"categories_segments":[],"categories_sizes":[],"default_left":[0,0,0,0,0],"id":4,"left_children":[1,-1,3,-1,-1],"loss_changes":[3.0957983E1,0E0,2.7995415E0,0E0,0E0],"parents":[2147483647,0,0,2,2],"right_children":[2,-1,4,-1,-1],"split_conditions":[3.3333334E-1,-5.918868E-3,6.666667E-1,5.90142E-2,1.2463384E-1],"split_indices":[0,0,0,0,0],"split_type":[0,0,0,0,0],"sum_hessian":[7.31E2,6.74E2,5.7E1,4.9E1,8E0],"tree_param":{"num_deleted":"0","num_feature":"5","num_nodes":"5","size_leaf_vector":"1"}},{"base_weights":[1.1917192E-3,-5.327858E-3,6.3509274E-1,5.323081E-2,1.13555275E-1],"categories":[],"categories_nodes":[],"categories_segments":[],"categories_sizes":[],"default_left":[0,0,0,0,0],"id":5,"left_children":[1,-1,3,-1,-1],"loss_changes":[2.5308903E1,0E0,2.3790321E0,0E0,0E0],"parents":[2147483647,0,0,2,2],"right_children":[2,-1,4,-1,-1],"split_conditions":[3.3333334E-1,-5.327858E-3,6.666667E-1,5.323081E-2,1.13555275E-1],"split_indices":[0,0,0,0,0],"split_type":[0,0,0,0,0],"sum_hessian":[7.31E2,6.74E2,5.7E1,4.9E1,8E0],"tree_param":{"num_deleted":"0","num_feature":"5","num_nodes":"5","size_leaf_vector":"1"}},{"base_weights":[1.2931173E-3,-4.7958614E-3,5.744591E-1,4.801419E-2,1.0346147E-1],"categories":[],"categories_nodes":[],"categories_segments":[],"categories_sizes":[],"default_left":[0,0,0,0,0],"id":6,"left_children":[1,-1,3,-1,-1],"loss_changes":[2.069148E1,0E0,2.0204735E0,0E0,0E0],"parents":[2147483647,0,0,2,2],"right_children":[2,-1,4,-1,-1],"split_conditions":[3.3333334E-1,-4.7958614E-3,6.666667E-1,4.801419E-2,1.0346147E-1],"split_indices":[0,0,0,0,0],"split_type":[0,0,0,0,0],"sum_hessian":[7.31E2,6.74E2,5.7E1,4.9E1,8E0],"tree_param":{"num_deleted":"0","num_feature":"5","num_nodes":"5","size_leaf_vector":"1"}},{"base_weights":[1.3641884E-3,-4.316986E-3,5.196248E-1,4.3308802E-2,9.426489E-2],"categories":[],"categories_nodes":[],"categories_segments":[],"categories_sizes":[],"default_left":[0,0,0,0,0],"id":7,"left_children":[1,-1,3,-1,-1],"loss_changes":[1.6917171E1,0E0,1.7149658E0,0E0,0E0],"parents":[2147483647,0,0,2,2],"right_children":[2,-1,4,-1,-1],"split_conditions":[3.3333334E-1,-4.316986E-3,6.666667E-1,4.3308802E-2,9.426489E-2],"split_indices":[0,0,0,0,0],"split_type":[0,0,0,0,0],"sum_hessian":[7.31E2,6.74E2,5.7E1,4.9E1,8E0],"tree_param":{"num_deleted":"0","num_feature":"5","num_nodes":"5","size_leaf_vector":"1"}},{"base_weights":[1.4098147E-3,-3.8859267E-3,4.7003433E-1,3.9064538E-2,8.5885786E-2],"categories":[],"categories_nodes":[],"categories_segments":[],"categories_sizes":[],"default_left":[0,0,0,0,0],"id":8,"left_children":[1,-1,3,-1,-1],"loss_changes":[1.3831894E1,0E0,1.4548521E0,0E0,0E0],"parents":[2147483647,0,0,2,2],"right_children":[2,-1,4,-1,-1],"split_conditions":[3.3333334E-1,-3.8859267E-3,6.666667E-1,3.9064538E-2,8.5885786E-2],"split_indices":[0,0,0,0,0],"split_type":[0,0,0,0,0],"sum_hessian":[7.31E2,6.74E2,5.7E1,4.9E1,8E0],"tree_param":{"num_deleted":"0","num_feature":"5","num_nodes":"5","size_leaf_vector":"1"}},{"base_weights":[1.434221E-3,-3.4979102E-3,4.251852E-1,3.5236217E-2,7.82515E-2],"categories":[],"categories_nodes":[],"categories_segments":[],"categories_sizes":[],"default_left":[0,0,0,0,0],"id":9,"left_children":[1,-1,3,-1,-1],"loss_changes":[1.1309765E1,0E0,1.2335386E0,0E0,0E0],"parents":[2147483647,0,0,2,2],"right_children":[2,-1,4,-1,-1],"split_conditions":[3.3333334E-1,-3.4979102E-3,6.666667E-1,3.5236217E-2,7.82515E-2],"split_indices":[0,0,0,0,0],"split_type":[0,0,0,0,0],"sum_hessian":[7.31E2,6.74E2,5.7E1,4.9E1,8E0],"tree_param":{"num_deleted":"0","num_feature":"5","num_nodes":"5","size_leaf_vector":"1"}},{"base_weights":[1.4410565E-3,-3.1486375E-3,3.8462335E-1,3.1783067E-2,7.129581E-2],"categories":[],"categories_nodes":[],"categories_segments":[],"categories_sizes":[],"default_left":[0,0,0,0,0],"id":10,"left_children":[1,-1,3,-1,-1],"loss_changes":[9.247907E0,0E0,1.0453615E0,0E0,0E0],"parents":[2147483647,0,0,2,2],"right_children":[2,-1,4,-1,-1],"split_conditions":[3.3333334E-1,-3.1486375E-3,6.666667E-1,3.1783067E-2,7.129581E-2],"split_indices":[0,0,0,0,0],"split_type":[0,0,0,0,0],"sum_hessian":[7.31E2,6.74E2,5.7E1,4.9E1,8E0],"tree_param":{"num_deleted":"0","num_feature":"5","num_nodes":"5","size_leaf_vector":"1"}},{"base_weights":[1.4334688E-3,-2.83424E-3,3.4793827E-1,2.8668327E-2,6.495841E-2],"categories":[],"categories_nodes":[],"categories_segments":[],"categories_sizes":[],"default_left":[0,0,0,0,0],"id":11,"left_children":[1,-1,3,-1,-1],"loss_changes":[7.562258E0,0E0,8.854594E-1,0E0,0E0],"parents":[2147483647,0,0,2,2],"right_children":[2,-1,4,-1,-1],"split_conditions":[3.3333334E-1,-2.83424E-3,6.666667E-1,2.8668327E-2,6.495841E-2],"split_indices":[0,0,0,0,0],"split_type":[0,0,0,0,0],"sum_hessian":[7.31E2,6.74E2,5.7E1,4.9E1,8E0],"tree_param":{"num_deleted":"0","num_feature":"5","num_nodes":"5","size_leaf_vector":"1"}},{"base_weights":[1.4141536E-3,-2.551236E-3,3.1475866E-1,2.5858829E-2,5.918432E-2],"categories":[],"categories_nodes":[],"categories_segments":[],"categories_sizes":[],"default_left":[0,0,0,0,0],"id":12,"left_children":[1,-1,3,-1,-1],"loss_changes":[6.1841154E0,0E0,7.4966526E-1,0E0,0E0],"parents":[2147483647,0,0,2,2],"right_children":[2,-1,4,-1,-1],"split_conditions":[3.3333334E-1,-2.551236E-3,6.666667E-1,2.5858829E-2,5.918432E-2],"split_indices":[0,0,0,0,0],"split_type":[0,0,0,0,0],"sum_hessian":[7.31E2,6.74E2,5.7E1,4.9E1,8E0],"tree_param":{"num_deleted":"0","num_feature":"5","num_nodes":"5","size_leaf_vector":"1"}},{"base_weights":[1.3854322E-3,-2.2964904E-3,2.8474906E-1,2.3324665E-2,5.3923488E-2],"categories":[],"categories_nodes":[],"categories_segments":[],"categories_sizes":[],"default_left":[0,0,0,0,0],"id":13,"left_children":[1,-1,3,-1,-1],"loss_changes":[5.0573387E0,0E0,6.344104E-1,0E0,0E0],"parents":[2147483647,0,0,2,2],"right_children":[2,-1,4,-1,-1],"split_conditions":[3.3333334E-1,-2.2964904E-3,6.666667E-1,2.3324665E-2,5.3923488E-2],"split_indices":[0,0,0,0,0],"split_type":[0,0,0,0,0],"sum_hessian":[7.31E2,6.74E2,5.7E1,4.9E1,8E0],"tree_param":{"num_deleted":"0","num_feature":"5","num_nodes":"5","size_leaf_vector":"1"}},{"base_weights":[1.3492819E-3,-2.0671815E-3,2.5760603E-1,2.1038847E-2,4.913029E-2],"categories":[],"categories_nodes":[],"categories_segments":[],"categories_sizes":[],"default_left":[0,0,0,0,0],"id":14,"left_children":[1,-1,3,-1,-1],"loss_changes":[4.136041E0,0E0,5.366423E-1,0E0,0E0],"parents":[2147483647,0,0,2,2],"right_children":[2,-1,4,-1,-1],"split_conditions":[3.3333334E-1,-2.0671815E-3,6.666667E-1,2.1038847E-2,4.913029E-2],"split_indices":[0,0,0,0,0],"split_type":[0,0,0,0,0],"sum_hessian":[7.31E2,6.74E2,5.7E1,4.9E1,8E0],"tree_param":{"num_deleted":"0","num_feature":"5","num_nodes":"5","size_leaf_vector":"1"}},{"base_weights":[1.3073906E-3,-1.8607695E-3,2.3305523E-1,1.897704E-2,4.476315E-1,3.312623E-2,6.892928E-2],"categories":[],"categories_nodes":[],"categories_segments":[],"categories_sizes":[],"default_left":[0,0,0,0,0,0,0],"id":15,"left_children":[1,-1,3,-1,5,-1,-1],"loss_changes":[3.3827202E0,0E0,4.537511E-1,0E0,2.4760723E-2,0E0,0E0],"parents":[2147483647,0,0,2,2,4,4],"right_children":[2,-1,4,-1,6,-1,-1],"split_conditions":[3.3333334E-1,-1.8607695E-3,6.666667E-1,1.897704E-2,1E0,3.312623E-2,6.892928E-2],"split_indices":[0,0,0,0,0,0,0],"split_type":[0,0,0,0,0,0,0],"sum_hessian":[7.31E2,6.74E2,5.7E1,4.9E1,8E0,7E0,1E0],"tree_param":{"num_deleted":"0","num_feature":"5","num_nodes":"7","size_leaf_vector":"1"}},{"base_weights":[1.339454E-3,-1.6749682E-3,2.1183647E-1,1.711729E-2,4.1420785E-1,3.0227682E-2,6.548281E-2],"categories":[],"categories_nodes":[],"categories_segments":[],"categories_sizes":[],"default_left":[0,0,0,0,0,0,0],"id":16,"left_children":[1,-1,3,-1,5,-1,-1],"loss_changes":[2.7907915E0,0E0,4.0638924E-1,0E0,4.4456482E-2,0E0,0E0],"parents":[2147483647,0,0,2,2,4,4],"right_children":[2,-1,4,-1,6,-1,-1],"split_conditions":[3.3333334E-1,-1.6749682E-3,6.666667E-1,1.711729E-2,1E0,3.0227682E-2,6.548281E-2],"split_indices":[0,0,0,0,0,0,0],"split_type":[0,0,0,0,0,0,0],"sum_hessian":[7.31E2,6.74E2,5.7E1,4.9E1,8E0,7E0,1E0],"tree_param":{"num_deleted":"0","num_feature":"5","num_nodes":"7","size_leaf_vector":"1"}},{"base_weights":[1.3573583E-3,-1.5077196E-3,1.9259816E-1,1.5439798E-2,3.8342157E-1,2.7582763E-2,6.2208664E-2],"categories":[],"categories_nodes":[],"categories_segments":[],"categories_sizes":[],"default_left":[0,0,0,0,0,0,0],"id":17,"left_children":[1,-1,3,-1,5,-1,-1],"loss_changes":[2.3035486E0,0E0,3.6359072E-1,0E0,5.9521556E-2,0E0,0E0],"parents":[2147483647,0,0,2,2,4,4],"right_children":[2,-1,4,-1,6,-1,-1],"split_conditions":[3.3333334E-1,-1.5077196E-3,6.666667E-1,1.5439798E-2,1E0,2.7582763E-2,6.2208664E-2],"split_indices":[0,0,0,0,0,0,0],"split_type":[0,0,0,0,0,0,0],"sum_hessian":[7.31E2,6.74E2,5.7E1,4.9E1,8E0,7E0,1E0],"tree_param":{"num_deleted":"0","num_feature":"5","num_nodes":"7","size_leaf_vector":"1"}},{"base_weights":[1.363321E-3,-1.357171E-3,1.7515267E-1,1.574893E-1,5.9098233E-2,1.3926697E-2,2.5169272E-2],"categories":[],"categories_nodes":[],"categories_segments":[],"categories_sizes":[],"default_left":[0,0,0,0,0,0,0],"id":18,"left_children":[1,-1,3,5,-1,-1,-1],"loss_changes":[1.9023191E0,0E0,3.3293366E-1,6.279409E-2,0E0,0E0,0E0],"parents":[2147483647,0,0,2,2,3,3],"right_children":[2,-1,4,6,-1,-1,-1],"split_conditions":[3.3333334E-1,-1.357171E-3,1E0,6.666667E-1,5.9098233E-2,1.3926697E-2,2.5169272E-2],"split_indices":[0,0,0,0,0,0,0],"split_type":[0,0,0,0,0,0,0],"sum_hessian":[7.31E2,6.74E2,5.7E1,5.6E1,1E0,4.9E1,7E0],"tree_param":{"num_deleted":"0","num_feature":"5","num_nodes":"7","size_leaf_vector":"1"}},{"base_weights":[1.3592807E-3,-1.2216549E-3,1.5933041E-1,1.4242628E-1,5.614332E-2,1.2561882E-2,2.296696E-2],"categories":[],"categories_nodes":[],"categories_segments":[],"categories_sizes":[],"default_left":[0,0,0,0,0,0,0],"id":19,"left_children":[1,-1,3,5,-1,-1,-1],"loss_changes":[1.5717858E0,0E0,3.142749E-1,5.4730535E-2,0E0,0E0,0E0],"parents":[2147483647,0,0,2,2,3,3],"right_children":[2,-1,4,6,-1,-1,-1],"split_conditions":[3.3333334E-1,-1.2216549E-3,1E0,6.666667E-1,5.614332E-2,1.2561882E-2,2.296696E-2],"split_indices":[0,0,0,0,0,0,0],"split_type":[0,0,0,0,0,0,0],"sum_hessian":[7.31E2,6.74E2,5.7E1,5.6E1,1E0,4.9E1,7E0],"tree_param":{"num_deleted":"0","num_feature":"5","num_nodes":"7","size_leaf_vector":"1"}},{"base_weights":[1.3469204E-3,-1.0996704E-3,1.4497796E-1,1.2880698E-1,5.3336155E-2,1.133082E-2,2.0957349E-2],"categories":[],"categories_nodes":[],"categories_segments":[],"categories_sizes":[],"default_left":[0,0,0,0,0,0,0],"id":20,"left_children":[1,-1,3,5,-1,-1,-1],"loss_changes":[1.2993772E0,0E0,2.955705E-1,4.7605217E-2,0E0,0E0,0E0],"parents":[2147483647,0,0,2,2,3,3],"right_children":[2,-1,4,6,-1,-1,-1],"split_conditions":[3.3333334E-1,-1.0996704E-3,1E0,6.666667E-1,5.3336155E-2,1.133082E-2,2.0957349E-2],"split_indices":[0,0,0,0,0,0,0],"split_type":[0,0,0,0,0,0,0],"sum_hessian":[7.31E2,6.74E2,5.7E1,5.6E1,1E0,4.9E1,7E0],"tree_param":{"num_deleted":"0","num_feature":"5","num_nodes":"7","size_leaf_vector":"1"}},{"base_weights":[1.3276975E-3,-9.898663E-4,1.3195641E-1,1.16492726E-1,5.066935E-2,1.0220397E-2,1.9123582E-2],"categories":[],"categories_nodes":[],"categories_segments":[],"categories_sizes":[],"default_left":[0,0,0,0,0,0,0],"id":21,"left_children":[1,-1,3,5,-1,-1,-1],"loss_changes":[1.0747733E0,0E0,2.7707338E-1,4.133016E-2,0E0,0E0,0E0],"parents":[2147483647,0,0,2,2,3,3],"right_children":[2,-1,4,6,-1,-1,-1],"split_conditions":[3.3333334E-1,-9.898663E-4,1E0,6.666667E-1,5.066935E-2,1.0220397E-2,1.9123582E-2],"split_indices":[0,0,0,0,0,0,0],"split_type":[0,0,0,0,0,0,0],"sum_hessian":[7.31E2,6.74E2,5.7E1,5.6E1,1E0,4.9E1,7E0],"tree_param":{"num_deleted":"0","num_feature":"5","num_nodes":"7","size_leaf_vector":"1"}},{"base_weights":[1.3028829E-3,-8.910263E-4,1.2014031E-1,1.0535825E-1,4.8135877E-2,9.218797E-3,1.7450271E-2],"categories":[],"categories_nodes":[],"categories_segments":[],"categories_sizes":[],"default_left":[0,0,0,0,0,0,0],"id":22,"left_children":[1,-1,3,5,-1,-1,-1],"loss_changes":[8.895018E-1,0E0,2.5897884E-1,3.5820067E-2,0E0,0E0,0E0],"parents":[2147483647,0,0,2,2,3,3],"right_children":[2,-1,4,6,-1,-1,-1],"split_conditions":[3.3333334E-1,-8.910263E-4,1E0,6.666667E-1,4.8135877E-2,9.218797E-3,1.7450271E-2],"split_indices":[0,0,0,0,0,0,0],"split_type":[0,0,0,0,0,0,0],"sum_hessian":[7.31E2,6.74E2,5.7E1,5.6E1,1E0,4.9E1,7E0],"tree_param":{"num_deleted":"0","num_feature":"5","num_nodes":"7","size_leaf_vector":"1"}},{"base_weights":[1.2735694E-3,-8.0205576E-4,1.09416015E-1,9.5290296E-2,4.572909E-2,8.315354E-3,1.5923377E-2],"categories":[],"categories_nodes":[],"categories_segments":[],"categories_sizes":[],"default_left":[0,0,0,0,0,0,0],"id":23,"left_children":[1,-1,3,5,-1,-1,-1],"loss_changes":[7.3660314E-1,0E0,2.4143553E-1,3.0995011E-2,0E0,0E0,0E0],"parents":[2147483647,0,0,2,2,3,3],"right_children":[2,-1,4,6,-1,-1,-1],"split_conditions":[3.3333334E-1,-8.0205576E-4,1E0,6.666667E-1,4.572909E-2,8.315354E-3,1.5923377E-2],"split_indices":[0,0,0,0,0,0,0],"split_type":[0,0,0,0,0,0,0],"sum_hessian":[7.31E2,6.74E2,5.7E1,5.6E1,1E0,4.9E1,7E0],"tree_param":{"num_deleted":"0","num_feature":"5","num_nodes":"7","size_leaf_vector":"1"}},{"base_weights":[1.2407033E-3,-7.2196894E-4,9.9680774E-2,8.6186536E-2,4.3442633E-2,7.500452E-3,1.453008E-2],"categories":[],"categories_nodes":[],"categories_segments":[],"categories_sizes":[],"default_left":[0,0,0,0,0,0,0],"id":24,"left_children":[1,-1,3,5,-1,-1,-1],"loss_changes":[6.103598E-1,0E0,2.2455221E-1,2.6779741E-2,0E0,0E0,0E0],"parents":[2147483647,0,0,2,2,3,3],"right_children":[2,-1,4,6,-1,-1,-1],"split_conditions":[3.3333334E-1,-7.2196894E-4,1E0,6.666667E-1,4.3442633E-2,7.500452E-3,1.453008E-2],"split_indices":[0,0,0,0,0,0,0],"split_type":[0,0,0,0,0,0,0],"sum_hessian":[7.31E2,6.74E2,5.7E1,5.6E1,1E0,4.9E1,7E0],"tree_param":{"num_deleted":"0","num_feature":"5","num_nodes":"7","size_leaf_vector":"1"}},{"base_weights":[1.2050895E-3,-6.4987905E-4,9.084153E-2,7.795437E-2,4.1270494E-2,6.765406E-3,1.32587E-2],"categories":[],"categories_nodes":[],"categories_segments":[],"categories_sizes":[],"default_left":[0,0,0,0,0,0,0],"id":25,"left_children":[1,-1,3,5,-1,-1,-1],"loss_changes":[5.0607175E-1,0E0,2.0840645E-1,2.310571E-2,0E0,0E0,0E0],"parents":[2147483647,0,0,2,2,3,3],"right_children":[2,-1,4,6,-1,-1,-1],"split_conditions":[3.3333334E-1,-6.4987905E-4,1E0,6.666667E-1,4.1270494E-2,6.765406E-3,1.32587E-2],"split_indices":[0,0,0,0,0,0,0],"split_type":[0,0,0,0,0,0,0],"sum_hessian":[7.31E2,6.74E2,5.7E1,5.6E1,1E0,4.9E1,7E0],"tree_param":{"num_deleted":"0","num_feature":"5","num_nodes":"7","size_leaf_vector":"1"}},{"base_weights":[1.1674275E-3,-5.849874E-4,8.2814164E-2,7.0510216E-2,3.920697E-2,6.1023943E-3,1.2098565E-2],"categories":[],"categories_nodes":[],"categories_segments":[],"categories_sizes":[],"default_left":[0,0,0,0,0,0,0],"id":26,"left_children":[1,-1,3,5,-1,-1,-1],"loss_changes":[4.1987634E-1,0E0,1.9304886E-1,1.9909918E-2,0E0,0E0,0E0],"parents":[2147483647,0,0,2,2,3,3],"right_children":[2,-1,4,6,-1,-1,-1],"split_conditions":[3.3333334E-1,-5.849874E-4,1E0,6.666667E-1,3.920697E-2,6.1023943E-3,1.2098565E-2],"split_indices":[0,0,0,0,0,0,0],"split_type":[0,0,0,0,0,0,0],"sum_hessian":[7.31E2,6.74E2,5.7E1,5.6E1,1E0,4.9E1,7E0],"tree_param":{"num_deleted":"0","num_feature":"5","num_nodes":"7","size_leaf_vector":"1"}},{"base_weights":[1.1283127E-3,-5.265753E-4,7.552256E-2,6.377852E-2,3.7246622E-2,5.504361E-3,1.1039942E-2],"categories":[],"categories_nodes":[],"categories_segments":[],"categories_sizes":[],"default_left":[0,0,0,0,0,0,0],"id":27,"left_children":[1,-1,3,5,-1,-1,-1],"loss_changes":[3.485967E-1,0E0,1.7850897E-1,1.7135277E-2,0E0,0E0,0E0],"parents":[2147483647,0,0,2,2,3,3],"right_children":[2,-1,4,6,-1,-1,-1],"split_conditions":[3.3333334E-1,-5.265753E-4,1E0,6.666667E-1,3.7246622E-2,5.504361E-3,1.1039942E-2],"split_indices":[0,0,0,0,0,0,0],"split_type":[0,0,0,0,0,0,0],"sum_hessian":[7.31E2,6.74E2,5.7E1,5.6E1,1E0,4.9E1,7E0],"tree_param":{"num_deleted":"0","num_feature":"5","num_nodes":"7","size_leaf_vector":"1"}},{"base_weights":[1.0882459E-3,-4.7399578E-4,6.889772E-2,5.7690907E-2,3.5384286E-2,4.9649323E-3,1.0073944E-2],"categories":[],"categories_nodes":[],"categories_segments":[],"categories_sizes":[],"default_left":[0,0,0,0,0,0,0],"id":28,"left_children":[1,-1,3,5,-1,-1,-1],"loss_changes":[2.896184E-1,0E0,1.6479933E-1,1.4730513E-2,0E0,0E0,0E0],"parents":[2147483647,0,0,2,2,3,3],"right_children":[2,-1,4,6,-1,-1,-1],"split_conditions":[3.3333334E-1,-4.7399578E-4,1E0,6.666667E-1,3.5384286E-2,4.9649323E-3,1.0073944E-2],"split_indices":[0,0,0,0,0,0,0],"split_type":[0,0,0,0,0,0,0],"sum_hessian":[7.31E2,6.74E2,5.7E1,5.6E1,1E0,4.9E1,7E0],"tree_param":{"num_deleted":"0","num_feature":"5","num_nodes":"7","size_leaf_vector":"1"}},{"base_weights":[1.0476573E-3,-4.2666643E-4,6.2877305E-2,5.218565E-2,3.361508E-2,4.478368E-3,9.192477E-3],"categories":[],"categories_nodes":[],"categories_segments":[],"categories_sizes":[],"default_left":[0,0,0,0,0,0,0],"id":29,"left_children":[1,-1,3,5,-1,-1,-1],"loss_changes":[2.4079077E-1,0E0,1.5191896E-1,1.26497E-2,0E0,0E0,0E0],"parents":[2147483647,0,0,2,2,3,3],"right_children":[2,-1,4,6,-1,-1,-1],"split_conditions":[3.3333334E-1,-4.2666643E-4,1E0,6.666667E-1,3.361508E-2,4.478368E-3,9.192477E-3],"split_indices":[0,0,0,0,0,0,0],"split_type":[0,0,0,0,0,0,0],"sum_hessian":[7.31E2,6.74E2,5.7E1,5.6E1,1E0,4.9E1,7E0],"tree_param":{"num_deleted":"0","num_feature":"5","num_nodes":"7","size_leaf_vector":"1"}},{"base_weights":[1.0069051E-3,1.3456657E-4,3.193432E-2,-3.84063E-4,4.72069E-2,4.039485E-3,8.3881365E-3],"categories":[],"categories_nodes":[],"categories_segments":[],"categories_sizes":[],"default_left":[0,0,0,0,0,0,0],"id":30,"left_children":[1,3,-1,-1,5,-1,-1],"loss_changes":[2.0323126E-1,1.3696733E-1,0E0,0E0,1.085183E-2,0E0,0E0],"parents":[2147483647,0,0,1,1,4,4],"right_children":[2,4,-1,-1,6,-1,-1],"split_conditions":[1E0,3.3333334E-1,3.193432E-2,-3.84063E-4,6.666667E-1,4.039485E-3,8.3881365E-3],"split_indices":[0,0,0,0,0,0,0],"split_type":[0,0,0,0,0,0,0],"sum_hessian":[7.31E2,7.3E2,1E0,6.74E2,5.6E1,4.9E1,7E0],"tree_param":{"num_deleted":"0","num_feature":"5","num_nodes":"7","size_leaf_vector":"1"}},{"base_weights":[9.662948E-4,1.3758636E-4,3.0337607E-2,-3.457136E-4,4.2704254E-2,3.6436175E-3,7.6541724E-3],"categories":[],"categories_nodes":[],"categories_segments":[],"categories_sizes":[],"default_left":[0,0,0,0,0,0,0],"id":31,"left_children":[1,3,-1,-1,5,-1,-1],"loss_changes":[1.8340445E-1,1.1200186E-1,0E0,0E0,9.300575E-3,0E0,0E0],"parents":[2147483647,0,0,1,1,4,4],"right_children":[2,4,-1,-1,6,-1,-1],"split_conditions":[1E0,3.3333334E-1,3.0337607E-2,-3.457136E-4,6.666667E-1,3.6436175E-3,7.6541724E-3],"split_indices":[0,0,0,0,0,0,0],"split_type":[0,0,0,0,0,0,0],"sum_hessian":[7.31E2,7.3E2,1E0,6.74E2,5.6E1,4.9E1,7E0],"tree_param":{"num_deleted":"0","num_feature":"5","num_nodes":"7","size_leaf_vector":"1"}},{"base_weights":[9.2607096E-4,1.3880899E-4,2.8820729E-2,-3.1119346E-4,3.863202E-2,3.2865412E-3,6.984431E-3],"categories":[],"categories_nodes":[],"categories_segments":[],"categories_sizes":[],"default_left":[0,0,0,0,0,0,0],"id":32,"left_children":[1,3,-1,-1,5,-1,-1],"loss_changes":[1.655132E-1,9.159139E-2,0E0,0E0,7.963903E-3,0E0,0E0],"parents":[2147483647,0,0,1,1,4,4],"right_children":[2,4,-1,-1,6,-1,-1],"split_conditions":[1E0,3.3333334E-1,2.8820729E-2,-3.1119346E-4,6.666667E-1,3.2865412E-3,6.984431E-3],"split_indices":[0,0,0,0,0,0,0],"split_type":[0,0,0,0,0,0,0],"sum_hessian":[7.31E2,7.3E2,1E0,6.74E2,5.6E1,4.9E1,7E0],"tree_param":{"num_deleted":"0","num_feature":"5","num_nodes":"7","size_leaf_vector":"1"}},{"base_weights":[8.8644243E-4,1.3855268E-4,2.7379692E-2,-2.801202E-4,3.4949005E-2,2.9644603E-3,6.3732895E-3],"categories":[],"categories_nodes":[],"categories_segments":[],"categories_sizes":[],"default_left":[0,0,0,0,0,0,0],"id":33,"left_children":[1,3,-1,-1,5,-1,-1],"loss_changes":[1.4936836E-1,7.4904196E-2,0E0,0E0,6.8134964E-3,0E0,0E0],"parents":[2147483647,0,0,1,1,4,4],"right_children":[2,4,-1,-1,6,-1,-1],"split_conditions":[1E0,3.3333334E-1,2.7379692E-2,-2.801202E-4,6.666667E-1,2.9644603E-3,6.3732895E-3],"split_indices":[0,0,0,0,0,0,0],"split_type":[0,0,0,0,0,0,0],"sum_hessian":[7.31E2,7.3E2,1E0,6.74E2,5.6E1,4.9E1,7E0],"tree_param":{"num_deleted":"0","num_feature":"5","num_nodes":"7","size_leaf_vector":"1"}},{"base_weights":[8.475774E-4,1.3708974E-4,2.6010705E-2,-2.5214968E-4,3.1617947E-2,2.6739456E-3,5.8156266E-3],"categories":[],"categories_nodes":[],"categories_segments":[],"categories_sizes":[],"default_left":[0,0,0,0,0,0,0],"id":34,"left_children":[1,3,-1,-1,5,-1,-1],"loss_changes":[1.3479923E-1,6.1260458E-2,0E0,0E0,5.824551E-3,0E0,0E0],"parents":[2147483647,0,0,1,1,4,4],"right_children":[2,4,-1,-1,6,-1,-1],"split_conditions":[1E0,3.3333334E-1,2.6010705E-2,-2.5214968E-4,6.666667E-1,2.6739456E-3,5.8156266E-3],"split_indices":[0,0,0,0,0,0,0],"split_type":[0,0,0,0,0,0,0],"sum_hessian":[7.31E2,7.3E2,1E0,6.74E2,5.6E1,4.9E1,7E0],"tree_param":{"num_deleted":"0","num_feature":"5","num_nodes":"7","size_leaf_vector":"1"}},{"base_weights":[8.096082E-4,1.3465101E-4,2.4710167E-2,-2.2697207E-4,2.860511E-2,2.411901E-3,5.3067594E-3],"categories":[],"categories_nodes":[],"categories_segments":[],"categories_sizes":[],"default_left":[0,0,0,0,0,0,0],"id":35,"left_children":[1,3,-1,-1,5,-1,-1],"loss_changes":[1.2165192E-1,5.0104477E-2,0E0,0E0,4.9753077E-3,0E0,0E0],"parents":[2147483647,0,0,1,1,4,4],"right_children":[2,4,-1,-1,6,-1,-1],"split_conditions":[1E0,3.3333334E-1,2.4710167E-2,-2.2697207E-4,6.666667E-1,2.411901E-3,5.3067594E-3],"split_indices":[0,0,0,0,0,0,0],"split_type":[0,0,0,0,0,0,0],"sum_hessian":[7.31E2,7.3E2,1E0,6.74E2,5.6E1,4.9E1,7E0],"tree_param":{"num_deleted":"0","num_feature":"5","num_nodes":"7","size_leaf_vector":"1"}},{"base_weights":[7.726394E-4,1.3143486E-4,2.3474658E-2,-2.0430847E-4,2.5880018E-2,2.1755346E-3,4.8424215E-3],"categories":[],"categories_nodes":[],"categories_segments":[],"categories_sizes":[],"default_left":[0,0,0,0,0,0,0],"id":36,"left_children":[1,3,-1,-1,5,-1,-1],"loss_changes":[1.0978755E-1,4.0982146E-2,0E0,0E0,4.2467974E-3,0E0,0E0],"parents":[2147483647,0,0,1,1,4,4],"right_children":[2,4,-1,-1,6,-1,-1],"split_conditions":[1E0,3.3333334E-1,2.3474658E-2,-2.0430847E-4,6.666667E-1,2.1755346E-3,4.8424215E-3],"split_indices":[0,0,0,0,0,0,0],"split_type":[0,0,0,0,0,0,0],"sum_hessian":[7.31E2,7.3E2,1E0,6.74E2,5.6E1,4.9E1,7E0],"tree_param":{"num_deleted":"0","num_feature":"5","num_nodes":"7","size_leaf_vector":"1"}},{"base_weights":[7.367547E-4,1.2761418E-4,2.2300923E-2,-1.8390789E-4,2.3415161E-2,1.9623346E-3,4.4187116E-3],"categories":[],"categories_nodes":[],"categories_segments":[],"categories_sizes":[],"default_left":[0,0,0,0,0,0,0],"id":37,"left_children":[1,3,-1,-1,5,-1,-1],"loss_changes":[9.908081E-2,3.3522464E-2,0E0,0E0,3.6224127E-3,0E0,0E0],"parents":[2147483647,0,0,1,1,4,4],"right_children":[2,4,-1,-1,6,-1,-1],"split_conditions":[1E0,3.3333334E-1,2.2300923E-2,-1.8390789E-4,6.666667E-1,1.9623346E-3,4.4187116E-3],"split_indices":[0,0,0,0,0,0,0],"split_type":[0,0,0,0,0,0,0],"sum_hessian":[7.31E2,7.3E2,1E0,6.74E2,5.6E1,4.9E1,7E0],"tree_param":{"num_deleted":"0","num_feature":"5","num_nodes":"7","size_leaf_vector":"1"}},{"base_weights":[7.0200884E-4,1.2332827E-4,2.1185875E-2,-1.6554435E-4,2.1185566E-2,1.7700231E-3,4.0320726E-3],"categories":[],"categories_nodes":[],"categories_segments":[],"categories_sizes":[],"default_left":[0,0,0,0,0,0,0],"id":38,"left_children":[1,3,-1,-1,5,-1,-1],"loss_changes":[8.9418635E-2,2.7421923E-2,0E0,0E0,3.0877832E-3,0E0,0E0],"parents":[2147483647,0,0,1,1,4,4],"right_children":[2,4,-1,-1,6,-1,-1],"split_conditions":[1E0,3.3333334E-1,2.1185875E-2,-1.6554435E-4,6.666667E-1,1.7700231E-3,4.0320726E-3],"split_indices":[0,0,0,0,0,0,0],"split_type":[0,0,0,0,0,0,0],"sum_hessian":[7.31E2,7.3E2,1E0,6.74E2,5.6E1,4.9E1,7E0],"tree_param":{"num_deleted":"0","num_feature":"5","num_nodes":"7","size_leaf_vector":"1"}},{"base_weights":[6.6845136E-4,1.1870695E-4,2.0126581E-2,-1.4901445E-4,1.916881E-2,1.596561E-3,3.679271E-3],"categories":[],"categories_nodes":[],"categories_segments":[],"categories_sizes":[],"default_left":[0,0,0,0,0,0,0],"id":39,"left_children":[1,3,-1,-1,5,-1,-1],"loss_changes":[8.069908E-2,2.2432826E-2,0E0,0E0,2.6303958E-3,0E0,0E0],"parents":[2147483647,0,0,1,1,4,4],"right_children":[2,4,-1,-1,6,-1,-1],"split_conditions":[1E0,3.3333334E-1,2.0126581E-2,-1.4901445E-4,6.666667E-1,1.596561E-3,3.679271E-3],"split_indices":[0,0,0,0,0,0,0],"split_type":[0,0,0,0,0,0,0],"sum_hessian":[7.31E2,7.3E2,1E0,6.74E2,5.6E1,4.9E1,7E0],"tree_param":{"num_deleted":"0","num_feature":"5","num_nodes":"7","size_leaf_vector":"1"}},{"base_weights":[6.361047E-4,1.1384902E-4,1.9120252E-2,-1.3413507E-4,1.734448E-2,1.4400972E-3,3.3573345E-3],"categories":[],"categories_nodes":[],"categories_segments":[],"categories_sizes":[],"default_left":[0,0,0,0,0,0,0],"id":40,"left_children":[1,3,-1,-1,5,-1,-1],"loss_changes":[7.2830096E-2,1.8352365E-2,0E0,0E0,2.2393893E-3,0E0,0E0],"parents":[2147483647,0,0,1,1,4,4],"right_children":[2,4,-1,-1,6,-1,-1],"split_conditions":[1E0,3.3333334E-1,1.9120252E-2,-1.3413507E-4,6.666667E-1,1.4400972E-3,3.3573345E-3],"split_indices":[0,0,0,0,0,0,0],"split_type":[0,0,0,0,0,0,0],"sum_hessian":[7.31E2,7.3E2,1E0,6.74E2,5.6E1,4.9E1,7E0],"tree_param":{"num_deleted":"0","num_feature":"5","num_nodes":"7","size_leaf_vector":"1"}},{"base_weights":[6.049853E-4,1.0884321E-4,1.8164242E-2,-1.2074143E-4,1.5694194E-2,1.2989667E-3,3.0635714E-3],"categories":[],"categories_nodes":[],"categories_segments":[],"categories_sizes":[],"default_left":[0,0,0,0,0,0,0],"id":41,"left_children":[1,3,-1,-1,5,-1,-1],"loss_changes":[6.572867E-2,1.5014928E-2,0E0,0E0,1.9054087E-3,0E0,0E0],"parents":[2147483647,0,0,1,1,4,4],"right_children":[2,4,-1,-1,6,-1,-1],"split_conditions":[1E0,3.3333334E-1,1.8164242E-2,-1.2074143E-4,6.666667E-1,1.2989667E-3,3.0635714E-3],"split_indices":[0,0,0,0,0,0,0],"split_type":[0,0,0,0,0,0,0],"sum_hessian":[7.31E2,7.3E2,1E0,6.74E2,5.6E1,4.9E1,7E0],"tree_param":{"num_deleted":"0","num_feature":"5","num_nodes":"7","size_leaf_vector":"1"}},{"base_weights":[5.7509646E-4,1.03761915E-4,1.7256035E-2,-1.0868517E-4,1.4201314E-2,1.1716682E-3,2.79551E-3],"categories":[],"categories_nodes":[],"categories_segments":[],"categories_sizes":[],"default_left":[0,0,0,0,0,0,0],"id":42,"left_children":[1,3,-1,-1,5,-1,-1],"loss_changes":[5.931991E-2,1.2285078E-2,0E0,0E0,1.6203262E-3,0E0,0E0],"parents":[2147483647,0,0,1,1,4,4],"right_children":[2,4,-1,-1,6,-1,-1],"split_conditions":[1E0,3.3333334E-1,1.7256035E-2,-1.0868517E-4,6.666667E-1,1.1716682E-3,2.79551E-3],"split_indices":[0,0,0,0,0,0,0],"split_type":[0,0,0,0,0,0,0],"sum_hessian":[7.31E2,7.3E2,1E0,6.74E2,5.6E1,4.9E1,7E0],"tree_param":{"num_deleted":"0","num_feature":"5","num_nodes":"7","size_leaf_vector":"1"}},{"base_weights":[5.464337E-4,9.8665965E-5,1.6393233E-2,-9.783275E-5,1.2850805E-2,1.0568466E-3,2.5509074E-3],"categories":[],"categories_nodes":[],"categories_segments":[],"categories_sizes":[],"default_left":[0,0,0,0,0,0,0],"id":43,"left_children":[1,3,-1,-1,5,-1,-1],"loss_changes":[5.353616E-2,1.0052105E-2,0E0,0E0,1.3771644E-3,0E0,0E0],"parents":[2147483647,0,0,1,1,4,4],"right_children":[2,4,-1,-1,6,-1,-1],"split_conditions":[1E0,3.3333334E-1,1.6393233E-2,-9.783275E-5,6.666667E-1,1.0568466E-3,2.5509074E-3],"split_indices":[0,0,0,0,0,0,0],"split_type":[0,0,0,0,0,0,0],"sum_hessian":[7.31E2,7.3E2,1E0,6.74E2,5.6E1,4.9E1,7E0],"tree_param":{"num_deleted":"0","num_feature":"5","num_nodes":"7","size_leaf_vector":"1"}},{"base_weights":[5.189798E-4,9.360018E-5,1.5573573E-2,-8.806397E-5,1.162901E-2,9.5327536E-4,2.3276985E-3],"categories":[],"categories_nodes":[],"categories_segments":[],"categories_sizes":[],"default_left":[0,0,0,0,0,0,0],"id":44,"left_children":[1,3,-1,-1,5,-1,-1],"loss_changes":[4.8316482E-2,8.225406E-3,0E0,0E0,1.1698836E-3,0E0,0E0],"parents":[2147483647,0,0,1,1,4,4],"right_children":[2,4,-1,-1,6,-1,-1],"split_conditions":[1E0,3.3333334E-1,1.5573573E-2,-8.806397E-5,6.666667E-1,9.5327536E-4,2.3276985E-3],"split_indices":[0,0,0,0,0,0,0],"split_type":[0,0,0,0,0,0,0],"sum_hessian":[7.31E2,7.3E2,1E0,6.74E2,5.6E1,4.9E1,7E0],"tree_param":{"num_deleted":"0","num_feature":"5","num_nodes":"7","size_leaf_vector":"1"}},{"base_weights":[4.927206E-4,8.860945E-5,1.4794898E-2,-7.927062E-5,1.0523687E-2,8.5985614E-4,2.1240264E-3],"categories":[],"categories_nodes":[],"categories_segments":[],"categories_sizes":[],"default_left":[0,0,0,0,0,0,0],"id":45,"left_children":[1,3,-1,-1,5,-1,-1],"loss_changes":[4.360583E-2,6.7310547E-3,0E0,0E0,9.933179E-4,0E0,0E0],"parents":[2147483647,0,0,1,1,4,4],"right_children":[2,4,-1,-1,6,-1,-1],"split_conditions":[1E0,3.3333334E-1,1.4794898E-2,-7.927062E-5,6.666667E-1,8.5985614E-4,2.1240264E-3],"split_indices":[0,0,0,0,0,0,0],"split_type":[0,0,0,0,0,0,0],"sum_hessian":[7.31E2,7.3E2,1E0,6.74E2,5.6E1,4.9E1,7E0],"tree_param":{"num_deleted":"0","num_feature":"5","num_nodes":"7","size_leaf_vector":"1"}},{"base_weights":[4.6762783E-4,8.3721534E-5,1.4055157E-2,-7.13553E-5,9.523662E-3,7.755902E-4,1.9381702E-3],"categories":[],"categories_nodes":[],"categories_segments":[],"categories_sizes":[],"default_left":[0,0,0,0,0,0,0],"id":46,"left_children":[1,3,-1,-1,5,-1,-1],"loss_changes":[3.9354537E-2,5.508465E-3,0E0,0E0,8.429964E-4,0E0,0E0],"parents":[2147483647,0,0,1,1,4,4],"right_children":[2,4,-1,-1,6,-1,-1],"split_conditions":[1E0,3.3333334E-1,1.4055157E-2,-7.13553E-5,6.666667E-1,7.755902E-4,1.9381702E-3],"split_indices":[0,0,0,0,0,0,0],"split_type":[0,0,0,0,0,0,0],"sum_hessian":[7.31E2,7.3E2,1E0,6.74E2,5.6E1,4.9E1,7E0],"tree_param":{"num_deleted":"0","num_feature":"5","num_nodes":"7","size_leaf_vector":"1"}},{"base_weights":[4.4367628E-4,7.896464E-5,1.3352394E-2,-6.423034E-5,8.618911E-3,6.995838E-4,1.7685756E-3],"categories":[],"categories_nodes":[],"categories_segments":[],"categories_sizes":[],"default_left":[0,0,0,0,0,0,0],"id":47,"left_children":[1,3,-1,-1,5,-1,-1],"loss_changes":[3.5517752E-2,4.508197E-3,0E0,0E0,7.1509415E-4,0E0,0E0],"parents":[2147483647,0,0,1,1,4,4],"right_children":[2,4,-1,-1,6,-1,-1],"split_conditions":[1E0,3.3333334E-1,1.3352394E-2,-6.423034E-5,6.666667E-1,6.995838E-4,1.7685756E-3],"split_indices":[0,0,0,0,0,0,0],"split_type":[0,0,0,0,0,0,0],"sum_hessian":[7.31E2,7.3E2,1E0,6.74E2,5.6E1,4.9E1,7E0],"tree_param":{"num_deleted":"0","num_feature":"5","num_nodes":"7","size_leaf_vector":"1"}},{"base_weights":[4.2083382E-4,7.4356874E-5,1.2684775E-2,-5.7816822E-5,7.800323E-3,6.31025E-4,1.613824E-3],"categories":[],"categories_nodes":[],"categories_segments":[],"categories_sizes":[],"default_left":[0,0,0,0,0,0,0],"id":48,"left_children":[1,3,-1,-1,5,-1,-1],"loss_changes":[3.2055106E-2,3.6897634E-3,0E0,0E0,6.06338E-4,0E0,0E0],"parents":[2147483647,0,0,1,1,4,4],"right_children":[2,4,-1,-1,6,-1,-1],"split_conditions":[1E0,3.3333334E-1,1.2684775E-2,-5.7816822E-5,6.666667E-1,6.31025E-4,1.613824E-3],"split_indices":[0,0,0,0,0,0,0],"split_type":[0,0,0,0,0,0,0],"sum_hessian":[7.31E2,7.3E2,1E0,6.74E2,5.6E1,4.9E1,7E0],"tree_param":{"num_deleted":"0","num_feature":"5","num_nodes":"7","size_leaf_vector":"1"}},{"base_weights":[3.990661E-4,6.991207E-5,1.2050534E-2,-5.2043702E-5,7.059662E-3,5.6918355E-4,1.4726118E-3],"categories":[],"categories_nodes":[],"categories_segments":[],"categories_sizes":[],"default_left":[0,0,0,0,0,0,0],"id":49,"left_children":[1,3,-1,-1,5,-1,-1],"loss_changes":[2.893007E-2,3.020067E-3,0E0,0E0,5.1390496E-4,0E0,0E0],"parents":[2147483647,0,0,1,1,4,4],"right_children":[2,4,-1,-1,6,-1,-1],"split_conditions":[1E0,3.3333334E-1,1.2050534E-2,-5.2043702E-5,6.666667E-1,5.6918355E-4,1.4726118E-3],"split_indices":[0,0,0,0,0,0,0],"split_type":[0,0,0,0,0,0,0],"sum_hessian":[7.31E2,7.3E2,1E0,6.74E2,5.6E1,4.9E1,7E0],"tree_param":{"num_deleted":"0","num_feature":"5","num_nodes":"7","size_leaf_vector":"1"}},{"base_weights":[3.7834153E-4,6.564427E-5,1.1448002E-2,-4.6847046E-5,6.3895355E-3,5.134055E-4,1.3437599E-3],"categories":[],"categories_nodes":[],"categories_segments":[],"categories_sizes":[],"default_left":[0,0,0,0,0,0,0],"id":50,"left_children":[1,3,-1,-1,5,-1,-1],"loss_changes":[2.610972E-2,2.4720796E-3,0E0,0E0,4.3538725E-4,0E0,0E0],"parents":[2147483647,0,0,1,1,4,4],"right_children":[2,4,-1,-1,6,-1,-1],"split_conditions":[1E0,3.3333334E-1,1.1448002E-2,-4.6847046E-5,6.666667E-1,5.134055E-4,1.3437599E-3],"split_indices":[0,0,0,0,0,0,0],"split_type":[0,0,0,0,0,0,0],"sum_hessian":[7.31E2,7.3E2,1E0,6.74E2,5.6E1,4.9E1,7E0],"tree_param":{"num_deleted":"0","num_feature":"5","num_nodes":"7","size_leaf_vector":"1"}},{"base_weights":[3.5861833E-4,6.15547E-5,1.0875607E-2,-4.2169282E-5,5.7831425E-3,4.630889E-4,1.2261838E-3],"categories":[],"categories_nodes":[],"categories_segments":[],"categories_sizes":[],"default_left":[0,0,0,0,0,0,0],"id":51,"left_children":[1,3,-1,-1,5,-1,-1],"loss_changes":[2.3564393E-2,2.0236121E-3,0E0,0E0,3.687275E-4,0E0,0E0],"parents":[2147483647,0,0,1,1,4,4],"right_children":[2,4,-1,-1,6,-1,-1],"split_conditions":[1E0,3.3333334E-1,1.0875607E-2,-4.2169282E-5,6.666667E-1,4.630889E-4,1.2261838E-3],"split_indices":[0,0,0,0,0,0,0],"split_type":[0,0,0,0,0,0,0],"sum_hessian":[7.31E2,7.3E2,1E0,6.74E2,5.6E1,4.9E1,7E0],"tree_param":{"num_deleted":"0","num_feature":"5","num_nodes":"7","size_leaf_vector":"1"}},{"base_weights":[3.3986525E-4,5.7653808E-5,1.0331822E-2,-3.7958598E-5,5.2344818E-3,4.1770816E-4,1.1188925E-3],"categories":[],"categories_nodes":[],"categories_segments":[],"categories_sizes":[],"default_left":[0,0,0,0,0,0,0],"id":52,"left_children":[1,3,-1,-1,5,-1,-1],"loss_changes":[2.1267183E-2,1.6566166E-3,0E0,0E0,3.12148E-4,0E0,0E0],"parents":[2147483647,0,0,1,1,4,4],"right_children":[2,4,-1,-1,6,-1,-1],"split_conditions":[1E0,3.3333334E-1,1.0331822E-2,-3.7958598E-5,6.666667E-1,4.1770816E-4,1.1188925E-3],"split_indices":[0,0,0,0,0,0,0],"split_type":[0,0,0,0,0,0,0],"sum_hessian":[7.31E2,7.3E2,1E0,6.74E2,5.6E1,4.9E1,7E0],"tree_param":{"num_deleted":"0","num_feature":"5","num_nodes":"7","size_leaf_vector":"1"}},{"base_weights":[3.2204037E-4,5.3938427E-5,9.815228E-3,-3.416836E-5,4.73799E-3,3.7677266E-4,1.0209888E-3],"categories":[],"categories_nodes":[],"categories_segments":[],"categories_sizes":[],"default_left":[0,0,0,0,0,0,0],"id":53,"left_children":[1,3,-1,-1,5,-1,-1],"loss_changes":[1.9193951E-2,1.3562451E-3,0E0,0E0,2.6415533E-4,0E0,0E0],"parents":[2147483647,0,0,1,1,4,4],"right_children":[2,4,-1,-1,6,-1,-1],"split_conditions":[1E0,3.3333334E-1,9.815228E-3,-3.416836E-5,6.666667E-1,3.7677266E-4,1.0209888E-3],"split_indices":[0,0,0,0,0,0,0],"split_type":[0,0,0,0,0,0,0],"sum_hessian":[7.31E2,7.3E2,1E0,6.74E2,5.6E1,4.9E1,7E0],"tree_param":{"num_deleted":"0","num_feature":"5","num_nodes":"7","size_leaf_vector":"1"}},{"base_weights":[3.0510838E-4,5.041038E-5,9.324468E-3,-3.075659E-5,4.2887186E-3,3.3985006E-4,9.3164894E-4],"categories":[],"categories_nodes":[],"categories_segments":[],"categories_sizes":[],"default_left":[0,0,0,0,0,0,0],"id":54,"left_children":[1,3,-1,-1,5,-1,-1],"loss_changes":[1.7322851E-2,1.1104023E-3,0E0,0E0,2.2345898E-4,0E0,0E0],"parents":[2147483647,0,0,1,1,4,4],"right_children":[2,4,-1,-1,6,-1,-1],"split_conditions":[1E0,3.3333334E-1,9.324468E-3,-3.075659E-5,6.666667E-1,3.3985006E-4,9.3164894E-4],"split_indices":[0,0,0,0,0,0,0],"split_type":[0,0,0,0,0,0,0],"sum_hessian":[7.31E2,7.3E2,1E0,6.74E2,5.6E1,4.9E1,7E0],"tree_param":{"num_deleted":"0","num_feature":"5","num_nodes":"7","size_leaf_vector":"1"}},{"base_weights":[2.8903E-4,4.706588E-5,8.85824E-3,-2.7685484E-5,3.8821436E-3,3.0654325E-4,8.5013214E-4],"categories":[],"categories_nodes":[],"categories_segments":[],"categories_sizes":[],"default_left":[0,0,0,0,0,0,0],"id":55,"left_children":[1,3,-1,-1,5,-1,-1],"loss_changes":[1.563415E-2,9.091677E-4,0E0,0E0,1.8897414E-4,0E0,0E0],"parents":[2147483647,0,0,1,1,4,4],"right_children":[2,4,-1,-1,6,-1,-1],"split_conditions":[1E0,3.3333334E-1,8.85824E-3,-2.7685484E-5,6.666667E-1,3.0654325E-4,8.5013214E-4],"split_indices":[0,0,0,0,0,0,0],"split_type":[0,0,0,0,0,0,0],"sum_hessian":[7.31E2,7.3E2,1E0,6.74E2,5.6E1,4.9E1,7E0],"tree_param":{"num_deleted":"0","num_feature":"5","num_nodes":"7","size_leaf_vector":"1"}},{"base_weights":[2.7377106E-4,4.390399E-5,8.415329E-3,-2.492104E-5,3.5142251E-3,2.7650167E-4,7.7574997E-4],"categories":[],"categories_nodes":[],"categories_segments":[],"categories_sizes":[],"default_left":[0,0,0,0,0,0,0],"id":56,"left_children":[1,3,-1,-1,5,-1,-1],"loss_changes":[1.4110099E-2,7.4444973E-4,0E0,0E0,1.5975896E-4,0E0,0E0],"parents":[2147483647,0,0,1,1,4,4],"right_children":[2,4,-1,-1,6,-1,-1],"split_conditions":[1E0,3.3333334E-1,8.415329E-3,-2.492104E-5,6.666667E-1,2.7650167E-4,7.7574997E-4],"split_indices":[0,0,0,0,0,0,0],"split_type":[0,0,0,0,0,0,0],"sum_hessian":[7.31E2,7.3E2,1E0,6.74E2,5.6E1,4.9E1,7E0],"tree_param":{"num_deleted":"0","num_feature":"5","num_nodes":"7","size_leaf_vector":"1"}},{"base_weights":[2.5929415E-4,4.0919214E-5,7.994569E-3,-2.2432627E-5,3.1812661E-3,2.4940408E-4,7.078767E-4],"categories":[],"categories_nodes":[],"categories_segments":[],"categories_sizes":[],"default_left":[0,0,0,0,0,0,0],"id":57,"left_children":[1,3,-1,-1,5,-1,-1],"loss_changes":[1.2734634E-2,6.096095E-4,0E0,0E0,1.350175E-4,0E0,0E0],"parents":[2147483647,0,0,1,1,4,4],"right_children":[2,4,-1,-1,6,-1,-1],"split_conditions":[1E0,3.3333334E-1,7.994569E-3,-2.2432627E-5,6.666667E-1,2.4940408E-4,7.078767E-4],"split_indices":[0,0,0,0,0,0,0],"split_type":[0,0,0,0,0,0,0],"sum_hessian":[7.31E2,7.3E2,1E0,6.74E2,5.6E1,4.9E1,7E0],"tree_param":{"num_deleted":"0","num_feature":"5","num_nodes":"7","size_leaf_vector":"1"}},{"base_weights":[2.455646E-4,3.8107486E-5,7.594836E-3,-2.0192687E-5,2.8799511E-3,2.2496426E-4,6.459385E-4],"categories":[],"categories_nodes":[],"categories_segments":[],"categories_sizes":[],"default_left":[0,0,0,0,0,0,0],"id":58,"left_children":[1,3,-1,-1,5,-1,-1],"loss_changes":[1.14932265E-2,4.992259E-4,0E0,0E0,1.1406909E-4,0E0,0E0],"parents":[2147483647,0,0,1,1,4,4],"right_children":[2,4,-1,-1,6,-1,-1],"split_conditions":[1E0,3.3333334E-1,7.594836E-3,-2.0192687E-5,6.666667E-1,2.2496426E-4,6.459385E-4],"split_indices":[0,0,0,0,0,0,0],"split_type":[0,0,0,0,0,0,0],"sum_hessian":[7.31E2,7.3E2,1E0,6.74E2,5.6E1,4.9E1,7E0],"tree_param":{"num_deleted":"0","num_feature":"5","num_nodes":"7","size_leaf_vector":"1"}},{"base_weights":[2.3254634E-4,3.5461053E-5,7.2150948E-3,-1.817641E-5,2.607242E-3,2.0291936E-4,5.89414E-4],"categories":[],"categories_nodes":[],"categories_segments":[],"categories_sizes":[],"default_left":[0,0,0,0,0,0,0],"id":59,"left_children":[1,3,-1,-1,5,-1,-1],"loss_changes":[1.0372852E-2,4.088511E-4,0E0,0E0,9.633883E-5,0E0,0E0],"parents":[2147483647,0,0,1,1,4,4],"right_children":[2,4,-1,-1,6,-1,-1],"split_conditions":[1E0,3.3333334E-1,7.2150948E-3,-1.817641E-5,6.666667E-1,2.0291936E-4,5.89414E-4],"split_indices":[0,0,0,0,0,0,0],"split_type":[0,0,0,0,0,0,0],"sum_hessian":[7.31E2,7.3E2,1E0,6.74E2,5.6E1,4.9E1,7E0],"tree_param":{"num_deleted":"0","num_feature":"5","num_nodes":"7","size_leaf_vector":"1"}},{"base_weights":[2.2020818E-4,3.297608E-5,6.8543437E-3,-1.6361462E-5,2.3604454E-3,1.8303574E-4,5.37844E-4],"categories":[],"categories_nodes":[],"categories_segments":[],"categories_sizes":[],"default_left":[0,0,0,0,0,0,0],"id":60,"left_children":[1,3,-1,-1,5,-1,-1],"loss_changes":[9.361705E-3,3.3486172E-4,0E0,0E0,8.1344275E-5,0E0,0E0],"parents":[2147483647,0,0,1,1,4,4],"right_children":[2,4,-1,-1,6,-1,-1],"split_conditions":[1E0,3.3333334E-1,6.8543437E-3,-1.6361462E-5,6.666667E-1,1.8303574E-4,5.37844E-4],"split_indices":[0,0,0,0,0,0,0],"split_type":[0,0,0,0,0,0,0],"sum_hessian":[7.31E2,7.3E2,1E0,6.74E2,5.6E1,4.9E1,7E0],"tree_param":{"num_deleted":"0","num_feature":"5","num_nodes":"7","size_leaf_vector":"1"}},{"base_weights":[2.0851279E-4,3.0641295E-5,6.5116286E-3,-1.4727741E-5,2.1370356E-3,1.6509724E-4,4.9078016E-4],"categories":[],"categories_nodes":[],"categories_segments":[],"categories_sizes":[],"default_left":[0,0,0,0,0,0,0],"id":61,"left_children":[1,3,-1,-1,5,-1,-1],"loss_changes":[8.449122E-3,2.7426938E-4,0E0,0E0,6.8663125E-5,0E0,0E0],"parents":[2147483647,0,0,1,1,4,4],"right_children":[2,4,-1,-1,6,-1,-1],"split_conditions":[1E0,3.3333334E-1,6.5116286E-3,-1.4727741E-5,6.666667E-1,1.6509724E-4,4.9078016E-4],"split_indices":[0,0,0,0,0,0,0],"split_type":[0,0,0,0,0,0,0],"sum_hessian":[7.31E2,7.3E2,1E0,6.74E2,5.6E1,4.9E1,7E0],"tree_param":{"num_deleted":"0","num_feature":"5","num_nodes":"7","size_leaf_vector":"1"}},{"base_weights":[1.9743243E-4,2.8453702E-5,6.1860443E-3,-1.3257147E-5,1.9348316E-3,1.4891695E-4,4.4783653E-4],"categories":[],"categories_nodes":[],"categories_segments":[],"categories_sizes":[],"default_left":[0,0,0,0,0,0,0],"id":62,"left_children":[1,3,-1,-1,5,-1,-1],"loss_changes":[7.6254876E-3,2.2465512E-4,0E0,0E0,5.7943646E-5,0E0,0E0],"parents":[2147483647,0,0,1,1,4,4],"right_children":[2,4,-1,-1,6,-1,-1],"split_conditions":[1E0,3.3333334E-1,6.1860443E-3,-1.3257147E-5,6.666667E-1,1.4891695E-4,4.4783653E-4],"split_indices":[0,0,0,0,0,0,0],"split_type":[0,0,0,0,0,0,0],"sum_hessian":[7.31E2,7.3E2,1E0,6.74E2,5.6E1,4.9E1,7E0],"tree_param":{"num_deleted":"0","num_feature":"5","num_nodes":"7","size_leaf_vector":"1"}},{"base_weights":[1.8693857E-4,2.6407877E-5,5.8767437E-3,-1.1933397E-5,1.7518349E-3,1.3432551E-4,4.0864796E-4],"categories":[],"categories_nodes":[],"categories_segments":[],"categories_sizes":[],"default_left":[0,0,0,0,0,0,0],"id":63,"left_children":[1,3,-1,-1,5,-1,-1],"loss_changes":[6.882153E-3,1.8403136E-4,0E0,0E0,4.8882488E-5,0E0,0E0],"parents":[2147483647,0,0,1,1,4,4],"right_children":[2,4,-1,-1,6,-1,-1],"split_conditions":[1E0,3.3333334E-1,5.8767437E-3,-1.1933397E-5,6.666667E-1,1.3432551E-4,4.0864796E-4],"split_indices":[0,0,0,0,0,0,0],"split_type":[0,0,0,0,0,0,0],"sum_hessian":[7.31E2,7.3E2,1E0,6.74E2,5.6E1,4.9E1,7E0],"tree_param":{"num_deleted":"0","num_feature":"5","num_nodes":"7","size_leaf_vector":"1"}},{"base_weights":[1.769969E-4,2.4491968E-5,5.582905E-3,-1.07418255E-5,1.586157E-3,1.2115932E-4,3.7289114E-4],"categories":[],"categories_nodes":[],"categories_segments":[],"categories_sizes":[],"default_left":[0,0,0,0,0,0,0],"id":64,"left_children":[1,3,-1,-1,5,-1,-1],"loss_changes":[6.211272E-3,1.5075607E-4,0E0,0E0,4.123019E-5,0E0,0E0],"parents":[2147483647,0,0,1,1,4,4],"right_children":[2,4,-1,-1,6,-1,-1],"split_conditions":[1E0,3.3333334E-1,5.582905E-3,-1.07418255E-5,6.666667E-1,1.2115932E-4,3.7289114E-4],"split_indices":[0,0,0,0,0,0,0],"split_type":[0,0,0,0,0,0,0],"sum_hessian":[7.31E2,7.3E2,1E0,6.74E2,5.6E1,4.9E1,7E0],"tree_param":{"num_deleted":"0","num_feature":"5","num_nodes":"7","size_leaf_vector":"1"}},{"base_weights":[1.6758342E-4,2.270284E-5,5.3037643E-3,-9.669234E-6,1.4361949E-3,1.0928405E-4,3.4026356E-4],"categories":[],"categories_nodes":[],"categories_segments":[],"categories_sizes":[],"default_left":[0,0,0,0,0,0,0],"id":65,"left_children":[1,3,-1,-1,5,-1,-1],"loss_changes":[5.6058024E-3,1.2350544E-4,0E0,0E0,3.4767072E-5,0E0,0E0],"parents":[2147483647,0,0,1,1,4,4],"right_children":[2,4,-1,-1,6,-1,-1],"split_conditions":[1E0,3.3333334E-1,5.3037643E-3,-9.669234E-6,6.666667E-1,1.0928405E-4,3.4026356E-4],"split_indices":[0,0,0,0,0,0,0],"split_type":[0,0,0,0,0,0,0],"sum_hessian":[7.31E2,7.3E2,1E0,6.74E2,5.6E1,4.9E1,7E0],"tree_param":{"num_deleted":"0","num_feature":"5","num_nodes":"7","size_leaf_vector":"1"}},{"base_weights":[1.5867376E-4,2.1036612E-5,5.0385715E-3,-8.703743E-6,1.3004917E-3,9.8577024E-5,3.10494E-4],"categories":[],"categories_nodes":[],"categories_segments":[],"categories_sizes":[],"default_left":[0,0,0,0,0,0,0],"id":66,"left_children":[1,3,-1,-1,5,-1,-1],"loss_changes":[5.059334E-3,1.01192876E-4,0E0,0E0,2.9309464E-5,0E0,0E0],"parents":[2147483647,0,0,1,1,4,4],"right_children":[2,4,-1,-1,6,-1,-1],"split_conditions":[1E0,3.3333334E-1,5.0385715E-3,-8.703743E-6,6.666667E-1,9.8577024E-5,3.10494E-4],"split_indices":[0,0,0,0,0,0,0],"split_type":[0,0,0,0,0,0,0],"sum_hessian":[7.31E2,7.3E2,1E0,6.74E2,5.6E1,4.9E1,7E0],"tree_param":{"num_deleted":"0","num_feature":"5","num_nodes":"7","size_leaf_vector":"1"}},{"base_weights":[1.5023568E-4,1.9479598E-5,4.7866465E-3,-7.834659E-6,1.1776058E-3,8.8915585E-5,2.8332174E-4],"categories":[],"categories_nodes":[],"categories_segments":[],"categories_sizes":[],"default_left":[0,0,0,0,0,0,0],"id":67,"left_children":[1,3,-1,-1,5,-1,-1],"loss_changes":[4.5661526E-3,8.291096E-5,0E0,0E0,2.470181E-5,0E0,0E0],"parents":[2147483647,0,0,1,1,4,4],"right_children":[2,4,-1,-1,6,-1,-1],"split_conditions":[1E0,3.3333334E-1,4.7866465E-3,-7.834659E-6,6.666667E-1,8.8915585E-5,2.8332174E-4],"split_indices":[0,0,0,0,0,0,0],"split_type":[0,0,0,0,0,0,0],"sum_hessian":[7.31E2,7.3E2,1E0,6.74E2,5.6E1,4.9E1,7E0],"tree_param":{"num_deleted":"0","num_feature":"5","num_nodes":"7","size_leaf_vector":"1"}},{"base_weights":[1.422476E-4,1.802879E-5,4.54731E-3,-7.052354E-6,1.0663584E-3,8.0200436E-5,2.585277E-4],"categories":[],"categories_nodes":[],"categories_segments":[],"categories_sizes":[],"default_left":[0,0,0,0,0,0,0],"id":68,"left_children":[1,3,-1,-1,5,-1,-1],"loss_changes":[4.121031E-3,6.793541E-5,0E0,0E0,2.0813939E-5,0E0,0E0],"parents":[2147483647,0,0,1,1,4,4],"right_children":[2,4,-1,-1,6,-1,-1],"split_conditions":[1E0,3.3333334E-1,4.54731E-3,-7.052354E-6,6.666667E-1,8.0200436E-5,2.585277E-4],"split_indices":[0,0,0,0,0,0,0],"split_type":[0,0,0,0,0,0,0],"sum_hessian":[7.31E2,7.3E2,1E0,6.74E2,5.6E1,4.9E1,7E0],"tree_param":{"num_deleted":"0","num_feature":"5","num_nodes":"7","size_leaf_vector":"1"}},{"base_weights":[1.3468586E-4,1.6677444E-5,4.319942E-3,-6.3481634E-6,9.656371E-4,7.233811E-5,2.3590327E-4],"categories":[],"categories_nodes":[],"categories_segments":[],"categories_sizes":[],"default_left":[0,0,0,0,0,0,0],"id":69,"left_children":[1,3,-1,-1,5,-1,-1],"loss_changes":[3.7193042E-3,5.566681E-5,0E0,0E0,1.7534348E-5,0E0,0E0],"parents":[2147483647,0,0,1,1,4,4],"right_children":[2,4,-1,-1,6,-1,-1],"split_conditions":[1E0,3.3333334E-1,4.319942E-3,-6.3481634E-6,6.666667E-1,7.233811E-5,2.3590327E-4],"split_indices":[0,0,0,0,0,0,0],"split_type":[0,0,0,0,0,0,0],"sum_hessian":[7.31E2,7.3E2,1E0,6.74E2,5.6E1,4.9E1,7E0],"tree_param":{"num_deleted":"0","num_feature":"5","num_nodes":"7","size_leaf_vector":"1"}},{"base_weights":[1.2752973E-4,1.5421101E-5,4.103947E-3,-5.7142875E-6,8.744608E-4,6.524682E-5,2.1526069E-4],"categories":[],"categories_nodes":[],"categories_segments":[],"categories_sizes":[],"default_left":[0,0,0,0,0,0,0],"id":70,"left_children":[1,3,-1,-1,5,-1,-1],"loss_changes":[3.3567445E-3,4.56171E-5,0E0,0E0,1.4768611E-5,0E0,0E0],"parents":[2147483647,0,0,1,1,4,4],"right_children":[2,4,-1,-1,6,-1,-1],"split_conditions":[1E0,3.3333334E-1,4.103947E-3,-5.7142875E-6,6.666667E-1,6.524682E-5,2.1526069E-4],"split_indices":[0,0,0,0,0,0,0],"split_type":[0,0,0,0,0,0,0],"sum_hessian":[7.31E2,7.3E2,1E0,6.74E2,5.6E1,4.9E1,7E0],"tree_param":{"num_deleted":"0","num_feature":"5","num_nodes":"7","size_leaf_vector":"1"}},{"base_weights":[1.20757046E-4,1.4253246E-5,3.8987517E-3,-5.143705E-6,7.9191464E-4,5.885065E-5,1.9642264E-4],"categories":[],"categories_nodes":[],"categories_segments":[],"categories_sizes":[],"default_left":[0,0,0,0,0,0,0],"id":71,"left_children":[1,3,-1,-1,5,-1,-1],"loss_changes":[3.0295274E-3,3.7383732E-5,0E0,0E0,1.2436132E-5,0E0,0E0],"parents":[2147483647,0,0,1,1,4,4],"right_children":[2,4,-1,-1,6,-1,-1],"split_conditions":[1E0,3.3333334E-1,3.8987517E-3,-5.143705E-6,6.666667E-1,5.885065E-5,1.9642264E-4],"split_indices":[0,0,0,0,0,0,0],"split_type":[0,0,0,0,0,0,0],"sum_hessian":[7.31E2,7.3E2,1E0,6.74E2,5.6E1,4.9E1,7E0],"tree_param":{"num_deleted":"0","num_feature":"5","num_nodes":"7","size_leaf_vector":"1"}},{"base_weights":[1.14350136E-4,1.3171167E-5,3.7038089E-3,-4.630097E-6,7.1721536E-4,5.308533E-5,1.7923267E-4],"categories":[],"categories_nodes":[],"categories_segments":[],"categories_sizes":[],"default_left":[0,0,0,0,0,0,0],"id":72,"left_children":[1,3,-1,-1,5,-1,-1],"loss_changes":[2.7341952E-3,3.0640917E-5,0E0,0E0,1.0469055E-5,0E0,0E0],"parents":[2147483647,0,0,1,1,4,4],"right_children":[2,4,-1,-1,6,-1,-1],"split_conditions":[1E0,3.3333334E-1,3.7038089E-3,-4.630097E-6,6.666667E-1,5.308533E-5,1.7923267E-4],"split_indices":[0,0,0,0,0,0,0],"split_type":[0,0,0,0,0,0,0],"sum_hessian":[7.31E2,7.3E2,1E0,6.74E2,5.6E1,4.9E1,7E0],"tree_param":{"num_deleted":"0","num_feature":"5","num_nodes":"7","size_leaf_vector":"1"}},{"base_weights":[1.0828393E-4,1.2163465E-5,3.5186172E-3,-4.1677736E-6,6.495432E-4,4.788077E-5,1.6354471E-4],"categories":[],"categories_nodes":[],"categories_segments":[],"categories_sizes":[],"default_left":[0,0,0,0,0,0,0],"id":73,"left_children":[1,3,-1,-1,5,-1,-1],"loss_changes":[2.4676586E-3,2.5113008E-5,0E0,0E0,8.811676E-6,0E0,0E0],"parents":[2147483647,0,0,1,1,4,4],"right_children":[2,4,-1,-1,6,-1,-1],"split_conditions":[1E0,3.3333334E-1,3.5186172E-3,-4.1677736E-6,6.666667E-1,4.788077E-5,1.6354471E-4],"split_indices":[0,0,0,0,0,0,0],"split_type":[0,0,0,0,0,0,0],"sum_hessian":[7.31E2,7.3E2,1E0,6.74E2,5.6E1,4.9E1,7E0],"tree_param":{"num_deleted":"0","num_feature":"5","num_nodes":"7","size_leaf_vector":"1"}},{"base_weights":[1.025467E-4,1.1231768E-5,3.342688E-3,-3.7516133E-6,5.883125E-4,4.319024E-5,1.4923365E-4],"categories":[],"categories_nodes":[],"categories_segments":[],"categories_sizes":[],"default_left":[0,0,0,0,0,0,0],"id":74,"left_children":[1,3,-1,-1,5,-1,-1],"loss_changes":[2.2271073E-3,2.0586178E-5,0E0,0E0,7.4151685E-6,0E0,0E0],"parents":[2147483647,0,0,1,1,4,4],"right_children":[2,4,-1,-1,6,-1,-1],"split_conditions":[1E0,3.3333334E-1,3.342688E-3,-3.7516133E-6,6.666667E-1,4.319024E-5,1.4923365E-4],"split_indices":[0,0,0,0,0,0,0],"split_type":[0,0,0,0,0,0,0],"sum_hessian":[7.31E2,7.3E2,1E0,6.74E2,5.6E1,4.9E1,7E0],"tree_param":{"num_deleted":"0","num_feature":"5","num_nodes":"7","size_leaf_vector":"1"}},{"base_weights":[9.711467E-5,1.0364987E-5,3.1755567E-3,-3.3770077E-6,5.328352E-4,3.895533E-5,1.3617426E-4],"categories":[],"categories_nodes":[],"categories_segments":[],"categories_sizes":[],"default_left":[0,0,0,0,0,0,0],"id":75,"left_children":[1,3,-1,-1,5,-1,-1],"loss_changes":[2.010007E-3,1.687431E-5,0E0,0E0,6.239272E-6,0E0,0E0],"parents":[2147483647,0,0,1,1,4,4],"right_children":[2,4,-1,-1,6,-1,-1],"split_conditions":[1E0,3.3333334E-1,3.1755567E-3,-3.3770077E-6,6.666667E-1,3.895533E-5,1.3617426E-4],"split_indices":[0,0,0,0,0,0,0],"split_type":[0,0,0,0,0,0,0],"sum_hessian":[7.31E2,7.3E2,1E0,6.74E2,5.6E1,4.9E1,7E0],"tree_param":{"num_deleted":"0","num_feature":"5","num_nodes":"7","size_leaf_vector":"1"}},{"base_weights":[9.197472E-5,9.562052E-6,3.0167818E-3,-3.0398069E-6,4.8260626E-4,3.5135152E-5,1.2426228E-4],"categories":[],"categories_nodes":[],"categories_segments":[],"categories_sizes":[],"default_left":[0,0,0,0,0,0,0],"id":76,"left_children":[1,3,-1,-1,5,-1,-1],"loss_changes":[1.8140691E-3,1.3832694E-5,0E0,0E0,5.2494806E-6,0E0,0E0],"parents":[2147483647,0,0,1,1,4,4],"right_children":[2,4,-1,-1,6,-1,-1],"split_conditions":[1E0,3.3333334E-1,3.0167818E-3,-3.0398069E-6,6.666667E-1,3.5135152E-5,1.2426228E-4],"split_indices":[0,0,0,0,0,0,0],"split_type":[0,0,0,0,0,0,0],"sum_hessian":[7.31E2,7.3E2,1E0,6.74E2,5.6E1,4.9E1,7E0],"tree_param":{"num_deleted":"0","num_feature":"5","num_nodes":"7","size_leaf_vector":"1"}},{"base_weights":[8.711455E-5,8.822063E-6,2.8659464E-3,-2.7362764E-6,4.3717184E-4,3.169465E-5,1.1339337E-4],"categories":[],"categories_nodes":[],"categories_segments":[],"categories_sizes":[],"default_left":[0,0,0,0,0,0,0],"id":77,"left_children":[1,3,-1,-1,5,-1,-1],"loss_changes":[1.6372314E-3,1.134229E-5,0E0,0E0,4.415403E-6,0E0,0E0],"parents":[2147483647,0,0,1,1,4,4],"right_children":[2,4,-1,-1,6,-1,-1],"split_conditions":[1E0,3.3333334E-1,2.8659464E-3,-2.7362764E-6,6.666667E-1,3.169465E-5,1.1339337E-4],"split_indices":[0,0,0,0,0,0,0],"split_type":[0,0,0,0,0,0,0],"sum_hessian":[7.31E2,7.3E2,1E0,6.74E2,5.6E1,4.9E1,7E0],"tree_param":{"num_deleted":"0","num_feature":"5","num_nodes":"7","size_leaf_vector":"1"}},{"base_weights":[8.251192E-5,8.1338285E-6,2.722645E-3,-2.4630542E-6,3.9599027E-4,2.8587105E-5,1.0347366E-4],"categories":[],"categories_nodes":[],"categories_segments":[],"categories_sizes":[],"default_left":[0,0,0,0,0,0,0],"id":78,"left_children":[1,3,-1,-1,5,-1,-1],"loss_changes":[1.4776236E-3,9.299208E-6,0E0,0E0,3.7134796E-6,0E0,0E0],"parents":[2147483647,0,0,1,1,4,4],"right_children":[2,4,-1,-1,6,-1,-1],"split_conditions":[1E0,3.3333334E-1,2.722645E-3,-2.4630542E-6,6.666667E-1,2.8587105E-5,1.0347366E-4],"split_indices":[0,0,0,0,0,0,0],"split_type":[0,0,0,0,0,0,0],"sum_hessian":[7.31E2,7.3E2,1E0,6.74E2,5.6E1,4.9E1,7E0],"tree_param":{"num_deleted":"0","num_feature":"5","num_nodes":"7","size_leaf_vector":"1"}},{"base_weights":[7.815556E-5,7.4961827E-6,2.586508E-3,-2.217114E-6,3.586882E-4,2.5783302E-5,9.4419716E-5],"categories":[],"categories_nodes":[],"categories_segments":[],"categories_sizes":[],"default_left":[0,0,0,0,0,0,0],"id":79,"left_children":[1,3,-1,-1,5,-1,-1],"loss_changes":[1.3335743E-3,7.624188E-6,0E0,0E0,3.1224972E-6,0E0,0E0],"parents":[2147483647,0,0,1,1,4,4],"right_children":[2,4,-1,-1,6,-1,-1],"split_conditions":[1E0,3.3333334E-1,2.586508E-3,-2.217114E-6,6.666667E-1,2.5783302E-5,9.4419716E-5],"split_indices":[0,0,0,0,0,0,0],"split_type":[0,0,0,0,0,0,0],"sum_hessian":[7.31E2,7.3E2,1E0,6.74E2,5.6E1,4.9E1,7E0],"tree_param":{"num_deleted":"0","num_feature":"5","num_nodes":"7","size_leaf_vector":"1"}},{"base_weights":[7.403288E-5,6.906315E-6,2.4571777E-3,-1.995731E-6,3.24907E-4,2.3254037E-5,8.6158514E-5],"categories":[],"categories_nodes":[],"categories_segments":[],"categories_sizes":[],"default_left":[0,0,0,0,0,0,0],"id":80,"left_children":[1,3,-1,-1,5,-1,-1],"loss_changes":[1.2035673E-3,6.2511617E-6,0E0,0E0,2.6252023E-6,0E0,0E0],"parents":[2147483647,0,0,1,1,4,4],"right_children":[2,4,-1,-1,6,-1,-1],"split_conditions":[1E0,3.3333334E-1,2.4571777E-3,-1.995731E-6,6.666667E-1,2.3254037E-5,8.6158514E-5],"split_indices":[0,0,0,0,0,0,0],"split_type":[0,0,0,0,0,0,0],"sum_hessian":[7.31E2,7.3E2,1E0,6.74E2,5.6E1,4.9E1,7E0],"tree_param":{"num_deleted":"0","num_feature":"5","num_nodes":"7","size_leaf_vector":"1"}},{"base_weights":[7.013345E-5,6.362895E-6,2.3343207E-3,-1.7964534E-6,2.9433923E-4,2.0975947E-5,7.8617035E-5],"categories":[],"categories_nodes":[],"categories_segments":[],"categories_sizes":[],"default_left":[0,0,0,0,0,0,0],"id":81,"left_children":[1,3,-1,-1,5,-1,-1],"loss_changes":[1.0862396E-3,5.1264724E-6,0E0,0E0,2.206234E-6,0E0,0E0],"parents":[2147483647,0,0,1,1,4,4],"right_children":[2,4,-1,-1,6,-1,-1],"split_conditions":[1E0,3.3333334E-1,2.3343207E-3,-1.7964534E-6,6.666667E-1,2.0975947E-5,7.8617035E-5],"split_indices":[0,0,0,0,0,0,0],"split_type":[0,0,0,0,0,0,0],"sum_hessian":[7.31E2,7.3E2,1E0,6.74E2,5.6E1,4.9E1,7E0],"tree_param":{"num_deleted":"0","num_feature":"5","num_nodes":"7","size_leaf_vector":"1"}},{"base_weights":[6.644285E-5,5.8606192E-6,2.2176027E-3,-1.6170742E-6,2.666555E-4,1.8919825E-5,7.174313E-5],"categories":[],"categories_nodes":[],"categories_segments":[],"categories_sizes":[],"default_left":[0,0,0,0,0,0,0],"id":82,"left_children":[1,3,-1,-1,5,-1,-1],"loss_changes":[9.80346E-4,4.2043944E-6,0E0,0E0,1.8544661E-6,0E0,0E0],"parents":[2147483647,0,0,1,1,4,4],"right_children":[2,4,-1,-1,6,-1,-1],"split_conditions":[1E0,3.3333334E-1,2.2176027E-3,-1.6170742E-6,6.666667E-1,1.8919825E-5,7.174313E-5],"split_indices":[0,0,0,0,0,0,0],"split_type":[0,0,0,0,0,0,0],"sum_hessian":[7.31E2,7.3E2,1E0,6.74E2,5.6E1,4.9E1,7E0],"tree_param":{"num_deleted":"0","num_feature":"5","num_nodes":"7","size_leaf_vector":"1"}},{"base_weights":[6.295131E-5,5.3978574E-6,2.1067262E-3,-1.4556063E-6,2.4159958E-4,1.7068149E-5,6.5463784E-5],"categories":[],"categories_nodes":[],"categories_segments":[],"categories_sizes":[],"default_left":[0,0,0,0,0,0,0],"id":83,"left_children":[1,3,-1,-1,5,-1,-1],"loss_changes":[8.847795E-4,3.4488298E-6,0E0,0E0,1.5579028E-6,0E0,0E0],"parents":[2147483647,0,0,1,1,4,4],"right_children":[2,4,-1,-1,6,-1,-1],"split_conditions":[1E0,3.3333334E-1,2.1067262E-3,-1.4556063E-6,6.666667E-1,1.7068149E-5,6.5463784E-5],"split_indices":[0,0,0,0,0,0,0],"split_type":[0,0,0,0,0,0,0],"sum_hessian":[7.31E2,7.3E2,1E0,6.74E2,5.6E1,4.9E1,7E0],"tree_param":{"num_deleted":"0","num_feature":"5","num_nodes":"7","size_leaf_vector":"1"}},{"base_weights":[5.9646653E-5,4.970577E-6,2.001393E-3,-1.5821678E-6,5.9737267E-5,-1.3102613E-6,1.5397549E-5],"categories":[],"categories_nodes":[],"categories_segments":[],"categories_sizes":[],"default_left":[0,0,0,0,0,0,0],"id":84,"left_children":[1,3,-1,5,-1,-1,-1],"loss_changes":[7.9852843E-4,2.8385846E-6,0E0,1.2994931E-6,0E0,0E0,0E0],"parents":[2147483647,0,0,1,1,3,3],"right_children":[2,4,-1,6,-1,-1,-1],"split_conditions":[1E0,6.666667E-1,2.001393E-3,3.3333334E-1,5.9737267E-5,-1.3102613E-6,1.5397549E-5],"split_indices":[0,0,0,0,0,0,0],"split_type":[0,0,0,0,0,0,0],"sum_hessian":[7.31E2,7.3E2,1E0,7.23E2,7E0,6.74E2,4.9E1],"tree_param":{"num_deleted":"0","num_feature":"5","num_nodes":"7","size_leaf_vector":"1"}},{"base_weights":[5.6518566E-5,4.57595E-6,1.9013286E-3,-1.4031699E-6,5.4511427E-5,-1.1794293E-6,1.3890504E-5],"categories":[],"categories_nodes":[],"categories_segments":[],"categories_sizes":[],"default_left":[0,0,0,0,0,0,0],"id":85,"left_children":[1,3,-1,5,-1,-1,-1],"loss_changes":[7.206871E-4,2.3633154E-6,0E0,1.0572012E-6,0E0,0E0,0E0],"parents":[2147483647,0,0,1,1,3,3],"right_children":[2,4,-1,6,-1,-1,-1],"split_conditions":[1E0,6.666667E-1,1.9013286E-3,3.3333334E-1,5.4511427E-5,-1.1794293E-6,1.3890504E-5],"split_indices":[0,0,0,0,0,0,0],"split_type":[0,0,0,0,0,0,0],"sum_hessian":[7.31E2,7.3E2,1E0,7.23E2,7E0,6.74E2,4.9E1],"tree_param":{"num_deleted":"0","num_feature":"5","num_nodes":"7","size_leaf_vector":"1"}},{"base_weights":[5.3556396E-5,4.210804E-6,1.8062592E-3,-1.2451189E-7,4.9744547E-5],"categories":[],"categories_nodes":[],"categories_segments":[],"categories_sizes":[],"default_left":[0,0,0,0,0],"id":86,"left_children":[1,3,-1,-1,-1],"loss_changes":[6.5042777E-4,1.9677773E-6,0E0,0E0,0E0],"parents":[2147483647,0,0,1,1],"right_children":[2,4,-1,-1,-1],"split_conditions":[1E0,6.666667E-1,1.8062592E-3,-1.2451189E-7,4.9744547E-5],"split_indices":[0,0,0,0,0],"split_type":[0,0,0,0,0],"sum_hessian":[7.31E2,7.3E2,1E0,7.23E2,7E0],"tree_param":{"num_deleted":"0","num_feature":"5","num_nodes":"5","size_leaf_vector":"1"}},{"base_weights":[5.0736082E-5,3.857576E-6,1.7159462E-3,-1.0492284E-6,1.7372244E-5],"categories":[],"categories_nodes":[],"categories_segments":[],"categories_sizes":[],"default_left":[0,0,0,0,0],"id":87,"left_children":[1,3,-1,-1,-1],"loss_changes":[5.870209E-4,1.7836622E-6,0E0,0E0,0E0],"parents":[2147483647,0,0,1,1],"right_children":[2,4,-1,-1,-1],"split_conditions":[1E0,3.3333334E-1,1.7159462E-3,-1.0492284E-6,1.7372244E-5],"split_indices":[0,0,0,0,0],"split_type":[0,0,0,0,0],"sum_hessian":[7.31E2,7.3E2,1E0,6.74E2,5.6E1],"tree_param":{"num_deleted":"0","num_feature":"5","num_nodes":"5","size_leaf_vector":"1"}},{"base_weights":[4.8030546E-5,3.4956681E-6,1.6301513E-3,-1.3182687E-7,4.3871998E-5],"categories":[],"categories_nodes":[],"categories_segments":[],"categories_sizes":[],"default_left":[0,0,0,0,0],"id":88,"left_children":[1,3,-1,-1,-1],"loss_changes":[5.2979885E-4,1.5321274E-6,0E0,0E0,0E0],"parents":[2147483647,0,0,1,1],"right_children":[2,4,-1,-1,-1],"split_conditions":[1E0,6.666667E-1,1.6301513E-3,-1.3182687E-7,4.3871998E-5],"split_indices":[0,0,0,0,0],"split_type":[0,0,0,0,0],"sum_hessian":[7.31E2,7.3E2,1E0,7.23E2,7E0],"tree_param":{"num_deleted":"0","num_feature":"5","num_nodes":"5","size_leaf_vector":"1"}},{"base_weights":[4.5513527E-5,3.20512E-6,1.5486479E-3,-9.3129785E-7,1.5138953E-5],"categories":[],"categories_nodes":[],"categories_segments":[],"categories_sizes":[],"default_left":[0,0,0,0,0],"id":89,"left_children":[1,3,-1,-1,-1],"loss_changes":[4.7815326E-4,1.3574054E-6,0E0,0E0,0E0],"parents":[2147483647,0,0,1,1],"right_children":[2,4,-1,-1,-1],"split_conditions":[1E0,3.3333334E-1,1.5486479E-3,-9.3129785E-7,1.5138953E-5],"split_indices":[0,0,0,0,0],"split_type":[0,0,0,0,0],"sum_hessian":[7.31E2,7.3E2,1E0,6.74E2,5.6E1],"tree_param":{"num_deleted":"0","num_feature":"5","num_nodes":"5","size_leaf_vector":"1"}},{"base_weights":[4.309701E-5,2.9039961E-6,1.4712096E-3,-1.3451363E-7,3.8708746E-5],"categories":[],"categories_nodes":[],"categories_segments":[],"categories_sizes":[],"default_left":[0,0,0,0,0],"id":90,"left_children":[1,3,-1,-1,-1],"loss_changes":[4.3153806E-4,1.193839E-6,0E0,0E0,0E0],"parents":[2147483647,0,0,1,1],"right_children":[2,4,-1,-1,-1],"split_conditions":[1E0,6.666667E-1,1.4712096E-3,-1.3451363E-7,3.8708746E-5],"split_indices":[0,0,0,0,0],"split_type":[0,0,0,0,0],"sum_hessian":[7.31E2,7.3E2,1E0,7.23E2,7E0],"tree_param":{"num_deleted":"0","num_feature":"5","num_nodes":"5","size_leaf_vector":"1"}},{"base_weights":[4.0848405E-5,2.6650114E-6,1.3976455E-3,-8.248746E-7,1.31860115E-5],"categories":[],"categories_nodes":[],"categories_segments":[],"categories_sizes":[],"default_left":[0,0,0,0,0],"id":91,"left_children":[1,3,-1,-1,-1],"loss_changes":[3.8946635E-4,1.0318006E-6,0E0,0E0,0E0],"parents":[2147483647,0,0,1,1],"right_children":[2,4,-1,-1,-1],"split_conditions":[1E0,3.3333334E-1,1.3976455E-3,-8.248746E-7,1.31860115E-5],"split_indices":[0,0,0,0,0],"split_type":[0,0,0,0,0],"sum_hessian":[7.31E2,7.3E2,1E0,6.74E2,5.6E1],"tree_param":{"num_deleted":"0","num_feature":"5","num_nodes":"5","size_leaf_vector":"1"}},{"base_weights":[3.8690305E-5,2.4158746E-7,1.327765E-3],"categories":[],"categories_nodes":[],"categories_segments":[],"categories_sizes":[],"default_left":[0,0,0],"id":92,"left_children":[1,-1,-1],"loss_changes":[3.515005E-4,0E0,0E0],"parents":[2147483647,0,0],"right_children":[2,-1,-1],"split_conditions":[1E0,2.4158746E-7,1.327765E-3],"split_indices":[0,0,0],"split_type":[0,0,0],"sum_hessian":[7.31E2,7.3E2,1E0],"tree_param":{"num_deleted":"0","num_feature":"5","num_nodes":"3","size_leaf_vector":"1"}},{"base_weights":[3.6635753E-5,2.1748606E-7,1.2613774E-3],"categories":[],"categories_nodes":[],"categories_segments":[],"categories_sizes":[],"default_left":[0,0,0],"id":93,"left_children":[1,-1,-1],"loss_changes":[3.1723554E-4,0E0,0E0],"parents":[2147483647,0,0],"right_children":[2,-1,-1],"split_conditions":[1E0,2.1748606E-7,1.2613774E-3],"split_indices":[0,0,0],"split_type":[0,0,0],"sum_hessian":[7.31E2,7.3E2,1E0],"tree_param":{"num_deleted":"0","num_feature":"5","num_nodes":"3","size_leaf_vector":"1"}},{"base_weights":[3.4693934E-5,1.9560687E-7,1.1983038E-3],"categories":[],"categories_nodes":[],"categories_segments":[],"categories_sizes":[],"default_left":[0,0,0],"id":94,"left_children":[1,-1,-1],"loss_changes":[2.8630806E-4,0E0,0E0],"parents":[2147483647,0,0],"right_children":[2,-1,-1],"split_conditions":[1E0,1.9560687E-7,1.1983038E-3],"split_indices":[0,0,0],"split_type":[0,0,0],"sum_hessian":[7.31E2,7.3E2,1E0],"tree_param":{"num_deleted":"0","num_feature":"5","num_nodes":"3","size_leaf_vector":"1"}},{"base_weights":[3.2862565E-5,1.7614452E-7,1.1383891E-3],"categories":[],"categories_nodes":[],"categories_segments":[],"categories_sizes":[],"default_left":[0,0,0],"id":95,"left_children":[1,-1,-1],"loss_changes":[2.5839772E-4,0E0,0E0],"parents":[2147483647,0,0],"right_children":[2,-1,-1],"split_conditions":[1E0,1.7614452E-7,1.1383891E-3],"split_indices":[0,0,0],"split_type":[0,0,0],"sum_hessian":[7.31E2,7.3E2,1E0],"tree_param":{"num_deleted":"0","num_feature":"5","num_nodes":"3","size_leaf_vector":"1"}},{"base_weights":[3.113201E-5,1.585908E-7,1.0814667E-3],"categories":[],"categories_nodes":[],"categories_segments":[],"categories_sizes":[],"default_left":[0,0,0],"id":96,"left_children":[1,-1,-1],"loss_changes":[2.3320642E-4,0E0,0E0],"parents":[2147483647,0,0],"right_children":[2,-1,-1],"split_conditions":[1E0,1.585908E-7,1.0814667E-3],"split_indices":[0,0,0],"split_type":[0,0,0],"sum_hessian":[7.31E2,7.3E2,1E0],"tree_param":{"num_deleted":"0","num_feature":"5","num_nodes":"3","size_leaf_vector":"1"}},{"base_weights":[2.9495463E-5,1.426556E-7,1.0273934E-3],"categories":[],"categories_nodes":[],"categories_segments":[],"categories_sizes":[],"default_left":[0,0,0],"id":97,"left_children":[1,-1,-1],"loss_changes":[2.1047208E-4,0E0,0E0],"parents":[2147483647,0,0],"right_children":[2,-1,-1],"split_conditions":[1E0,1.426556E-7,1.0273934E-3],"split_indices":[0,0,0],"split_type":[0,0,0],"sum_hessian":[7.31E2,7.3E2,1E0],"tree_param":{"num_deleted":"0","num_feature":"5","num_nodes":"3","size_leaf_vector":"1"}},{"base_weights":[2.7951513E-5,1.285892E-7,9.7602606E-4],"categories":[],"categories_nodes":[],"categories_segments":[],"categories_sizes":[],"default_left":[0,0,0],"id":98,"left_children":[1,-1,-1],"loss_changes":[1.8995468E-4,0E0,0E0],"parents":[2147483647,0,0],"right_children":[2,-1,-1],"split_conditions":[1E0,1.285892E-7,9.7602606E-4],"split_indices":[0,0,0],"split_type":[0,0,0],"sum_hessian":[7.31E2,7.3E2,1E0],"tree_param":{"num_deleted":"0","num_feature":"5","num_nodes":"3","size_leaf_vector":"1"}},{"base_weights":[2.6490543E-5,1.15819766E-7,9.272218E-4],"categories":[],"categories_nodes":[],"categories_segments":[],"categories_sizes":[],"default_left":[0,0,0],"id":99,"left_children":[1,-1,-1],"loss_changes":[1.7143534E-4,0E0,0E0],"parents":[2147483647,0,0],"right_children":[2,-1,-1],"split_conditions":[1E0,1.15819766E-7,9.272218E-4],"split_indices":[0,0,0],"split_type":[0,0,0],"sum_hessian":[7.31E2,7.3E2,1E0],"tree_param":{"num_deleted":"0","num_feature":"5","num_nodes":"3","size_leaf_vector":"1"}},{"base_weights":[2.5108102E-5,1.04227674E-7,8.808613E-4],"categories":[],"categories_nodes":[],"categories_segments":[],"categories_sizes":[],"default_left":[0,0,0],"id":100,"left_children":[1,-1,-1],"loss_changes":[1.5472266E-4,0E0,0E0],"parents":[2147483647,0,0],"right_children":[2,-1,-1],"split_conditions":[1E0,1.04227674E-7,8.808613E-4],"split_indices":[0,0,0],"split_type":[0,0,0],"sum_hessian":[7.31E2,7.3E2,1E0],"tree_param":{"num_deleted":"0","num_feature":"5","num_nodes":"3","size_leaf_vector":"1"}},{"base_weights":[2.379952E-5,9.370436E-8,8.368135E-4],"categories":[],"categories_nodes":[],"categories_segments":[],"categories_sizes":[],"default_left":[0,0,0],"id":101,"left_children":[1,-1,-1],"loss_changes":[1.3963737E-4,0E0,0E0],"parents":[2147483647,0,0],"right_children":[2,-1,-1],"split_conditions":[1E0,9.370436E-8,8.368135E-4],"split_indices":[0,0,0],"split_type":[0,0,0],"sum_hessian":[7.31E2,7.3E2,1E0],"tree_param":{"num_deleted":"0","num_feature":"5","num_nodes":"3","size_leaf_vector":"1"}},{"base_weights":[2.2560882E-5,8.415136E-8,7.94971E-4],"categories":[],"categories_nodes":[],"categories_segments":[],"categories_sizes":[],"default_left":[0,0,0],"id":102,"left_children":[1,-1,-1],"loss_changes":[1.2602372E-4,0E0,0E0],"parents":[2147483647,0,0],"right_children":[2,-1,-1],"split_conditions":[1E0,8.415136E-8,7.94971E-4],"split_indices":[0,0,0],"split_type":[0,0,0],"sum_hessian":[7.31E2,7.3E2,1E0],"tree_param":{"num_deleted":"0","num_feature":"5","num_nodes":"3","size_leaf_vector":"1"}},{"base_weights":[2.1392358E-5,7.587874E-8,7.5522665E-4],"categories":[],"categories_nodes":[],"categories_segments":[],"categories_sizes":[],"default_left":[0,0,0],"id":103,"left_children":[1,-1,-1],"loss_changes":[1.1373888E-4,0E0,0E0],"parents":[2147483647,0,0],"right_children":[2,-1,-1],"split_conditions":[1E0,7.587874E-8,7.5522665E-4],"split_indices":[0,0,0],"split_type":[0,0,0],"sum_hessian":[7.31E2,7.3E2,1E0],"tree_param":{"num_deleted":"0","num_feature":"5","num_nodes":"3","size_leaf_vector":"1"}},{"base_weights":[2.0285517E-5,6.83688E-8,7.174611E-4],"categories":[],"categories_nodes":[],"categories_segments":[],"categories_sizes":[],"default_left":[0,0,0],"id":104,"left_children":[1,-1,-1],"loss_changes":[1.0264921E-4,0E0,0E0],"parents":[2147483647,0,0],"right_children":[2,-1,-1],"split_conditions":[1E0,6.83688E-8,7.174611E-4],"split_indices":[0,0,0],"split_type":[0,0,0],"sum_hessian":[7.31E2,7.3E2,1E0],"tree_param":{"num_deleted":"0","num_feature":"5","num_nodes":"3","size_leaf_vector":"1"}},{"base_weights":[1.923738E-5,6.1551354E-8,6.8159105E-4],"categories":[],"categories_nodes":[],"categories_segments":[],"categories_sizes":[],"default_left":[0,0,0],"id":105,"left_children":[1,-1,-1],"loss_changes":[9.2642644E-5,0E0,0E0],"parents":[2147483647,0,0],"right_children":[2,-1,-1],"split_conditions":[1E0,6.1551354E-8,6.8159105E-4],"split_indices":[0,0,0],"split_type":[0,0,0],"sum_hessian":[7.31E2,7.3E2,1E0],"tree_param":{"num_deleted":"0","num_feature":"5","num_nodes":"3","size_leaf_vector":"1"}},{"base_weights":[1.8244375E-5,5.5362516E-8,6.475091E-4],"categories":[],"categories_nodes":[],"categories_segments":[],"categories_sizes":[],"default_left":[0,0,0],"id":106,"left_children":[1,-1,-1],"loss_changes":[8.361018E-5,0E0,0E0],"parents":[2147483647,0,0],"right_children":[2,-1,-1],"split_conditions":[1E0,5.5362516E-8,6.475091E-4],"split_indices":[0,0,0],"split_type":[0,0,0],"sum_hessian":[7.31E2,7.3E2,1E0],"tree_param":{"num_deleted":"0","num_feature":"5","num_nodes":"3","size_leaf_vector":"1"}},{"base_weights":[1.7304785E-5,4.9858393E-8,6.1513187E-4],"categories":[],"categories_nodes":[],"categories_segments":[],"categories_sizes":[],"default_left":[0,0,0],"id":107,"left_children":[1,-1,-1],"loss_changes":[7.545842E-5,0E0,0E0],"parents":[2147483647,0,0],"right_children":[2,-1,-1],"split_conditions":[1E0,4.9858393E-8,6.1513187E-4],"split_indices":[0,0,0],"split_type":[0,0,0],"sum_hessian":[7.31E2,7.3E2,1E0],"tree_param":{"num_deleted":"0","num_feature":"5","num_nodes":"3","size_leaf_vector":"1"}},{"base_weights":[1.6414559E-5,4.486178E-8,5.8437587E-4],"categories":[],"categories_nodes":[],"categories_segments":[],"categories_sizes":[],"default_left":[0,0,0],"id":108,"left_children":[1,-1,-1],"loss_changes":[6.8101945E-5,0E0,0E0],"parents":[2147483647,0,0],"right_children":[2,-1,-1],"split_conditions":[1E0,4.486178E-8,5.8437587E-4],"split_indices":[0,0,0],"split_type":[0,0,0],"sum_hessian":[7.31E2,7.3E2,1E0],"tree_param":{"num_deleted":"0","num_feature":"5","num_nodes":"3","size_leaf_vector":"1"}},{"base_weights":[1.557095E-5,4.032588E-8,5.5515766E-4],"categories":[],"categories_nodes":[],"categories_segments":[],"categories_sizes":[],"default_left":[0,0,0],"id":109,"left_children":[1,-1,-1],"loss_changes":[6.146265E-5,0E0,0E0],"parents":[2147483647,0,0],"right_children":[2,-1,-1],"split_conditions":[1E0,4.032588E-8,5.5515766E-4],"split_indices":[0,0,0],"split_type":[0,0,0],"sum_hessian":[7.31E2,7.3E2,1E0],"tree_param":{"num_deleted":"0","num_feature":"5","num_nodes":"3","size_leaf_vector":"1"}},{"base_weights":[1.477158E-5,3.6208174E-8,5.2740576E-4],"categories":[],"categories_nodes":[],"categories_segments":[],"categories_sizes":[],"default_left":[0,0,0],"id":110,"left_children":[1,-1,-1],"loss_changes":[5.5471737E-5,0E0,0E0],"parents":[2147483647,0,0],"right_children":[2,-1,-1],"split_conditions":[1E0,3.6208174E-8,5.2740576E-4],"split_indices":[0,0,0],"split_type":[0,0,0],"sum_hessian":[7.31E2,7.3E2,1E0],"tree_param":{"num_deleted":"0","num_feature":"5","num_nodes":"3","size_leaf_vector":"1"}},{"base_weights":[1.4013784E-5,3.247018E-8,5.0103664E-4],"categories":[],"categories_nodes":[],"categories_segments":[],"categories_sizes":[],"default_left":[0,0,0],"id":111,"left_children":[1,-1,-1],"loss_changes":[5.0063867E-5,0E0,0E0],"parents":[2147483647,0,0],"right_children":[2,-1,-1],"split_conditions":[1E0,3.247018E-8,5.0103664E-4],"split_indices":[0,0,0],"split_type":[0,0,0],"sum_hessian":[7.31E2,7.3E2,1E0],"tree_param":{"num_deleted":"0","num_feature":"5","num_nodes":"3","size_leaf_vector":"1"}},{"base_weights":[1.3295258E-5,2.9076839E-8,4.7597886E-4],"categories":[],"categories_nodes":[],"categories_segments":[],"categories_sizes":[],"default_left":[0,0,0],"id":112,"left_children":[1,-1,-1],"loss_changes":[4.518184E-5,0E0,0E0],"parents":[2147483647,0,0],"right_children":[2,-1,-1],"split_conditions":[1E0,2.9076839E-8,4.7597886E-4],"split_indices":[0,0,0],"split_type":[0,0,0],"sum_hessian":[7.31E2,7.3E2,1E0],"tree_param":{"num_deleted":"0","num_feature":"5","num_nodes":"3","size_leaf_vector":"1"}},{"base_weights":[1.2618371E-5,2.639591E-8,4.5218467E-4],"categories":[],"categories_nodes":[],"categories_segments":[],"categories_sizes":[],"default_left":[0,0,0],"id":113,"left_children":[1,-1,-1],"loss_changes":[4.0777697E-5,0E0,0E0],"parents":[2147483647,0,0],"right_children":[2,-1,-1],"split_conditions":[1E0,2.639591E-8,4.5218467E-4],"split_indices":[0,0,0],"split_type":[0,0,0],"sum_hessian":[7.31E2,7.3E2,1E0],"tree_param":{"num_deleted":"0","num_feature":"5","num_nodes":"3","size_leaf_vector":"1"}},{"base_weights":[1.1976197E-5,2.3962107E-8,4.2957067E-4],"categories":[],"categories_nodes":[],"categories_segments":[],"categories_sizes":[],"default_left":[0,0,0],"id":114,"left_children":[1,-1,-1],"loss_changes":[3.6801248E-5,0E0,0E0],"parents":[2147483647,0,0],"right_children":[2,-1,-1],"split_conditions":[1E0,2.3962107E-8,4.2957067E-4],"split_indices":[0,0,0],"split_type":[0,0,0],"sum_hessian":[7.31E2,7.3E2,1E0],"tree_param":{"num_deleted":"0","num_feature":"5","num_nodes":"3","size_leaf_vector":"1"}},{"base_weights":[1.1367207E-5,2.175271E-8,4.0808917E-4],"categories":[],"categories_nodes":[],"categories_segments":[],"categories_sizes":[],"default_left":[0,0,0],"id":115,"left_children":[1,-1,-1],"loss_changes":[3.3212804E-5,0E0,0E0],"parents":[2147483647,0,0],"right_children":[2,-1,-1],"split_conditions":[1E0,2.175271E-8,4.0808917E-4],"split_indices":[0,0,0],"split_type":[0,0,0],"sum_hessian":[7.31E2,7.3E2,1E0],"tree_param":{"num_deleted":"0","num_feature":"5","num_nodes":"3","size_leaf_vector":"1"}},{"base_weights":[1.0789566E-5,1.9747088E-8,3.8768054E-4],"categories":[],"categories_nodes":[],"categories_segments":[],"categories_sizes":[],"default_left":[0,0,0],"id":116,"left_children":[1,-1,-1],"loss_changes":[2.9974051E-5,0E0,0E0],"parents":[2147483647,0,0],"right_children":[2,-1,-1],"split_conditions":[1E0,1.9747088E-8,3.8768054E-4],"split_indices":[0,0,0],"split_type":[0,0,0],"sum_hessian":[7.31E2,7.3E2,1E0],"tree_param":{"num_deleted":"0","num_feature":"5","num_nodes":"3","size_leaf_vector":"1"}},{"base_weights":[1.0241781E-5,1.792637E-8,3.682971E-4],"categories":[],"categories_nodes":[],"categories_segments":[],"categories_sizes":[],"default_left":[0,0,0],"id":117,"left_children":[1,-1,-1],"loss_changes":[2.7051792E-5,0E0,0E0],"parents":[2147483647,0,0],"right_children":[2,-1,-1],"split_conditions":[1E0,1.792637E-8,3.682971E-4],"split_indices":[0,0,0],"split_type":[0,0,0],"sum_hessian":[7.31E2,7.3E2,1E0],"tree_param":{"num_deleted":"0","num_feature":"5","num_nodes":"3","size_leaf_vector":"1"}},{"base_weights":[9.722055E-6,1.6273537E-8,3.4987926E-4],"categories":[],"categories_nodes":[],"categories_segments":[],"categories_sizes":[],"default_left":[0,0,0],"id":118,"left_children":[1,-1,-1],"loss_changes":[2.4413934E-5,0E0,0E0],"parents":[2147483647,0,0],"right_children":[2,-1,-1],"split_conditions":[1E0,1.6273537E-8,3.4987926E-4],"split_indices":[0,0,0],"split_type":[0,0,0],"sum_hessian":[7.31E2,7.3E2,1E0],"tree_param":{"num_deleted":"0","num_feature":"5","num_nodes":"3","size_leaf_vector":"1"}},{"base_weights":[9.228932E-6,1.4773071E-8,3.3237934E-4],"categories":[],"categories_nodes":[],"categories_segments":[],"categories_sizes":[],"default_left":[0,0,0],"id":119,"left_children":[1,-1,-1],"loss_changes":[2.2032877E-5,0E0,0E0],"parents":[2147483647,0,0],"right_children":[2,-1,-1],"split_conditions":[1E0,1.4773071E-8,3.3237934E-4],"split_indices":[0,0,0],"split_type":[0,0,0],"sum_hessian":[7.31E2,7.3E2,1E0],"tree_param":{"num_deleted":"0","num_feature":"5","num_nodes":"3","size_leaf_vector":"1"}},{"base_weights":[8.761292E-6,1.3410971E-8,3.1576157E-4],"categories":[],"categories_nodes":[],"categories_segments":[],"categories_sizes":[],"default_left":[0,0,0],"id":120,"left_children":[1,-1,-1],"loss_changes":[1.9884897E-5,0E0,0E0],"parents":[2147483647,0,0],"right_children":[2,-1,-1],"split_conditions":[1E0,1.3410971E-8,3.1576157E-4],"split_indices":[0,0,0],"split_type":[0,0,0],"sum_hessian":[7.31E2,7.3E2,1E0],"tree_param":{"num_deleted":"0","num_feature":"5","num_nodes":"3","size_leaf_vector":"1"}},{"base_weights":[8.317705E-6,1.21744055E-8,2.9997827E-4],"categories":[],"categories_nodes":[],"categories_segments":[],"categories_sizes":[],"default_left":[0,0,0],"id":121,"left_children":[1,-1,-1],"loss_changes":[1.7946759E-5,0E0,0E0],"parents":[2147483647,0,0],"right_children":[2,-1,-1],"split_conditions":[1E0,1.21744055E-8,2.9997827E-4],"split_indices":[0,0,0],"split_type":[0,0,0],"sum_hessian":[7.31E2,7.3E2,1E0],"tree_param":{"num_deleted":"0","num_feature":"5","num_nodes":"3","size_leaf_vector":"1"}},{"base_weights":[7.896754E-6,1.1051887E-8,2.8498174E-4],"categories":[],"categories_nodes":[],"categories_segments":[],"categories_sizes":[],"default_left":[0,0,0],"id":122,"left_children":[1,-1,-1],"loss_changes":[1.619728E-5,0E0,0E0],"parents":[2147483647,0,0],"right_children":[2,-1,-1],"split_conditions":[1E0,1.1051887E-8,2.8498174E-4],"split_indices":[0,0,0],"split_type":[0,0,0],"sum_hessian":[7.31E2,7.3E2,1E0],"tree_param":{"num_deleted":"0","num_feature":"5","num_nodes":"3","size_leaf_vector":"1"}},{"base_weights":[7.497356E-6,1.0032849E-8,2.7073623E-4],"categories":[],"categories_nodes":[],"categories_segments":[],"categories_sizes":[],"default_left":[0,0,0],"id":123,"left_children":[1,-1,-1],"loss_changes":[1.4618482E-5,0E0,0E0],"parents":[2147483647,0,0],"right_children":[2,-1,-1],"split_conditions":[1E0,1.0032849E-8,2.7073623E-4],"split_indices":[0,0,0],"split_type":[0,0,0],"sum_hessian":[7.31E2,7.3E2,1E0],"tree_param":{"num_deleted":"0","num_feature":"5","num_nodes":"3","size_leaf_vector":"1"}},{"base_weights":[7.1181134E-6,9.107816E-9,2.5719404E-4],"categories":[],"categories_nodes":[],"categories_segments":[],"categories_sizes":[],"default_left":[0,0,0],"id":124,"left_children":[1,-1,-1],"loss_changes":[1.3192674E-5,0E0,0E0],"parents":[2147483647,0,0],"right_children":[2,-1,-1],"split_conditions":[1E0,9.107816E-9,2.5719404E-4],"split_indices":[0,0,0],"split_type":[0,0,0],"sum_hessian":[7.31E2,7.3E2,1E0],"tree_param":{"num_deleted":"0","num_feature":"5","num_nodes":"3","size_leaf_vector":"1"}},{"base_weights":[6.758288E-6,8.268065E-9,2.4433137E-4],"categories":[],"categories_nodes":[],"categories_segments":[],"categories_sizes":[],"default_left":[0,0,0],"id":125,"left_children":[1,-1,-1],"loss_changes":[1.1906133E-5,0E0,0E0],"parents":[2147483647,0,0],"right_children":[2,-1,-1],"split_conditions":[1E0,8.268065E-9,2.4433137E-4],"split_indices":[0,0,0],"split_type":[0,0,0],"sum_hessian":[7.31E2,7.3E2,1E0],"tree_param":{"num_deleted":"0","num_feature":"5","num_nodes":"3","size_leaf_vector":"1"}},{"base_weights":[6.4168235E-6,7.505715E-9,2.321124E-4],"categories":[],"categories_nodes":[],"categories_segments":[],"categories_sizes":[],"default_left":[0,0,0],"id":126,"left_children":[1,-1,-1],"loss_changes":[1.0745098E-5,0E0,0E0],"parents":[2147483647,0,0],"right_children":[2,-1,-1],"split_conditions":[1E0,7.505715E-9,2.321124E-4],"split_indices":[0,0,0],"split_type":[0,0,0],"sum_hessian":[7.31E2,7.3E2,1E0],"tree_param":{"num_deleted":"0","num_feature":"5","num_nodes":"3","size_leaf_vector":"1"}},{"base_weights":[6.0926723E-6,6.813638E-9,2.2050143E-4],"categories":[],"categories_nodes":[],"categories_segments":[],"categories_sizes":[],"default_left":[0,0,0],"id":127,"left_children":[1,-1,-1],"loss_changes":[9.697007E-6,0E0,0E0],"parents":[2147483647,0,0],"right_children":[2,-1,-1],"split_conditions":[1E0,6.813638E-9,2.2050143E-4],"split_indices":[0,0,0],"split_type":[0,0,0],"sum_hessian":[7.31E2,7.3E2,1E0],"tree_param":{"num_deleted":"0","num_feature":"5","num_nodes":"3","size_leaf_vector":"1"}}]},"name":"gbtree"},"learner_model_param":{"base_score":"9.0287276E-2","boost_from_average":"1","num_class":"0","num_feature":"5","num_target":"1"},"objective":{"name":"reg:squarederror","reg_loss_param":{"scale_pos_weight":"1"}}},"version":[2,1,1]}